\data\
ngram 1=17577
ngram 2=49449
ngram 3=7489

\1-grams:
-4.7342215	<unk>	0
0	<s>	-0.57374865
-1.3047584	</s>	0
-4.3296957	بِسْمِ	-0.30809534
-2.462906	اللَّهِ	-0.20111196
-3.5383806	الرَّحْمَنِ	-0.10284198
-4.446117	الرَّحِيمِ	-0.19696505
-3.5698318	الْحَمْدُ	-0.5290695
-2.8596444	لِلَّهِ	-0.15381435
-3.2577639	رَبِّ	-0.19126599
-3.6807084	الْعَالَمِينَ	-0.8723668
-4.6152925	مَالِكِ	-0.07320749
-3.8299716	يَوْمِ	-0.13116941
-3.893817	الدِّينِ	-0.14389892
-4.6152925	إِيَّاكَ	-0.07320749
-4.446117	نَعْبُدُ	-0.07320749
-4.6152925	وَإِيَّاكَ	-0.07320749
-4.6152925	نَسْتَعِينُ	-0.07320749
-4.6152925	اهْدِنَا	-0.07320749
-4.3296957	الصِّرَاطَ	-0.15167965
-4.446117	الْمُسْتَقِيمَ	-0.19696505
-4.6152925	صِرَاطَ	-0.07320749
-2.2590866	الَّذِينَ	-0.40697092
-4.3296957	أَنْعَمْتَ	-0.15167965
-2.6285236	عَلَيْهِمْ	-0.1286409
-3.893817	غَيْرِ	-0.07320749
-4.6152925	الْمَغْضُوبِ	-0.07320749
-2.1163044	وَلَا	-0.14421621
-4.0592246	الضَّالِّينَ	-0.52994406
-4.6152925	الم	-0.07320749
-2.6716692	ذَلِكَ	-0.21501921
-3.893817	الْكِتَابُ	-0.07320749
-2.248064	لَا	-0.19209312
-4.446117	رَيْبَ	-0.07320749
-2.768255	فِيهِ	-0.12718078
-3.431362	هُدًى	-0.11067356
-3.60374	لِلْمُتَّقِينَ	-0.4202034
-3.3455698	يُؤْمِنُونَ	-0.33287972
-3.7743201	بِالْغَيْبِ	-0.07320749
-4.446117	وَيُقِيمُونَ	-0.19696505
-3.3654819	الصَّلَاةَ	-0.10511932
-3.7249968	وَمِمَّا	-0.24411216
-4.446117	رَزَقْنَاهُمْ	-0.07320749
-3.893817	يُنْفِقُونَ	-0.1555432
-2.9209964	وَالَّذِينَ	-0.3008021
-2.491902	بِمَا	-0.33344403
-3.6405213	أُنْزِلَ	-0.26235628
-3.1586795	إِلَيْكَ	-0.120298244
-2.20941	وَمَا	-0.2695619
-1.7589958	مِنْ	-0.39437804
-4.6152925	قَبْلِكَ	-0.07320749
-4.6152925	وَبِالْآخِرَةِ	-0.07320749
-3.0011826	هُمْ	-0.13162111
-4.1737366	يُوقِنُونَ	-0.4330341
-2.8725488	أُولَئِكَ	-0.32634872
-2.0821004	عَلَى	-0.32283646
-3.3654819	رَبِّهِمْ	-0.09235139
-3.4082735	وَأُولَئِكَ	-0.43782926
-3.431362	هُمُ	-0.20614837
-4.6152925	الْمُفْلِحُونَ	-0.07320749
-2.2887864	إِنَّ	-0.48527232
-3.431362	كَفَرُوا	-0.10565506
-3.893817	سَوَاءٌ	-0.15167965
-4.6152925	أَأَنْذَرْتَهُمْ	-0.07320749
-3.057524	أَمْ	-0.14557463
-2.8409796	لَمْ	-0.14710999
-4.6152925	تُنْذِرْهُمْ	-0.07320749
-4.6152925	خَتَمَ	-0.07320749
-2.1765466	اللَّهُ	-0.22754651
-3.9686933	قُلُوبِهِمْ	-0.0831092
-3.273962	وَعَلَى	-0.21667482
-4.6152925	سَمْعِهِمْ	-0.07320749
-4.446117	أَبْصَارِهِمْ	-0.07320749
-4.6152925	غِشَاوَةٌ	-0.07320749
-3.2125068	وَلَهُمْ	-0.41430727
-3.3082917	عَذَابٌ	-0.41017327
-3.6405213	عَظِيمٌ	-0.91015536
-3.455747	وَمِنَ	-0.1593578
-3.2270746	النَّاسِ	-0.12285863
-2.5229738	مَنْ	-0.23938896
-3.481583	يَقُولُ	-0.12246708
-3.481583	آمَنَّا	-0.25779307
-2.9209964	بِاللَّهِ	-0.19799857
-4.6152925	وَبِالْيَوْمِ	-0.07320749
-4.3296957	الْآخِرِ	-0.0831092
-4.0592246	بِمُؤْمِنِينَ	-0.52994406
-4.446117	يُخَادِعُونَ	-0.19696505
-2.6174643	اللَّهَ	-0.20073605
-3.5383806	آمَنُوا	-0.121561736
-4.6152925	يَخْدَعُونَ	-0.07320749
-2.1496994	إِلَّا	-0.2952039
-3.5698318	أَنْفُسَهُمْ	-0.09754076
-4.446117	يَشْعُرُونَ	-0.15167965
-1.8750648	فِي	-0.35724398
-4.446117	مَرَضٌ	-0.07320749
-4.6152925	فَزَادَهُمُ	-0.07320749
-4.6152925	مَرَضًا	-0.07320749
-4.1737366	أَلِيمٌ	-0.13956326
-3.03792	كَانُوا	-0.16570707
-4.6152925	يَكْذِبُونَ	-0.07320749
-3.3455698	وَإِذَا	-0.08520539
-3.6405213	قِيلَ	-0.19148755
-2.440542	لَهُمْ	-0.22698158
-4.3296957	تُفْسِدُوا	-0.30809534
-3.431362	الْأَرْضِ	-0.08308118
-2.6799963	قَالُوا	-0.23281693
-3.057524	إِنَّمَا	-0.13174805
-3.2577639	نَحْنُ	-0.09626935
-4.446117	مُصْلِحُونَ	-0.19696505
-3.1586795	أَلَا	-0.24213016
-3.0996044	إِنَّهُمْ	-0.19816384
-4.6152925	الْمُفْسِدُونَ	-0.07320749
-3.057524	وَلَكِنْ	-0.1627119
-3.893817	آمِنُوا	-0.15670897
-2.9673119	كَمَا	-0.08832073
-3.60374	آمَنَ	-0.12491851
-3.4082735	النَّاسُ	-0.08606495
-4.446117	أَنُؤْمِنُ	-0.07320749
-4.1737366	السُّفَهَاءُ	-0.07320749
-3.60374	يَعْلَمُونَ	-0.21843895
-4.6152925	لَقُوا	-0.07320749
-4.446117	خَلَوْا	-0.07320749
-2.2388337	إِلَى	-0.30017903
-4.6152925	شَيَاطِينِهِمْ	-0.07320749
-2.8409796	إِنَّا	-0.17471732
-3.481583	مَعَكُمْ	-0.10607222
-4.6152925	مُسْتَهْزِئُونَ	-0.07320749
-4.6152925	يَسْتَهْزِئُ	-0.07320749
-3.273962	بِهِمْ	-0.080698386
-4.6152925	وَيَمُدُّهُمْ	-0.07320749
-4.6152925	طُغْيَانِهِمْ	-0.07320749
-4.3296957	يَعْمَهُونَ	-0.30809534
-4.6152925	اشْتَرَوُا	-0.07320749
-4.446117	الضَّلَالَةَ	-0.07320749
-4.3296957	بِالْهُدَى	-0.07320746
-2.9755352	فَمَا	-0.15111825
-4.6152925	رَبِحَتْ	-0.07320749
-4.6152925	تِجَارَتُهُمْ	-0.07320749
-4.6152925	مُهْتَدِينَ	-0.07320749
-4.446117	مَثَلُهُمْ	-0.07320749
-3.7249968	كَمَثَلِ	-0.09009893
-2.6842203	الَّذِي	-0.17342453
-4.6152925	اسْتَوْقَدَ	-0.07320749
-3.481583	نَارًا	-0.08534057
-3.110794	فَلَمَّا	-0.102562696
-4.6152925	أَضَاءَتْ	-0.07320749
-2.0339425	مَا	-0.2441485
-4.0592246	حَوْلَهُ	-0.07320746
-3.9686933	ذَهَبَ	-0.07320749
-4.6152925	بِنُورِهِمْ	-0.07320749
-4.6152925	وَتَرَكَهُمْ	-0.07320749
-4.6152925	ظُلُمَاتٍ	-0.07320749
-3.9686933	يُبْصِرُونَ	-0.40630916
-4.3296957	صُمٌّ	-0.15167965
-4.6152925	بُكْمٌ	-0.07320749
-4.6152925	عُمْيٌ	-0.07320749
-3.2125068	فَهُمْ	-0.27196565
-3.893817	يَرْجِعُونَ	-0.6760721
-2.401205	أَوْ	-0.12129034
-4.6152925	كَصَيِّبٍ	-0.07320749
-2.038717	مِنَ	-0.40131897
-3.6807084	السَّمَاءِ	-0.1215568
-4.446117	ظُلُمَاتٌ	-0.07320749
-4.6152925	وَرَعْدٌ	-0.07320749
-4.6152925	وَبَرْقٌ	-0.07320749
-4.446117	يَجْعَلُونَ	-0.07320749
-4.446117	أَصَابِعَهُمْ	-0.19696505
-4.3296957	آذَانِهِمْ	-0.07320746
-4.6152925	الصَّوَاعِقِ	-0.07320749
-4.446117	حَذَرَ	-0.19696505
-3.7743201	الْمَوْتِ	-0.07320752
-2.5057507	وَاللَّهُ	-0.44560596
-4.0592246	مُحِيطٌ	-0.33335668
-4.446117	بِالْكَافِرِينَ	-0.19696505
-4.0592246	يَكَادُ	-0.07320749
-4.6152925	الْبَرْقُ	-0.07320749
-4.6152925	يَخْطَفُ	-0.07320749
-4.446117	أَبْصَارَهُمْ	-0.07320749
-3.6405213	كُلَّمَا	-0.09153662
-4.6152925	أَضَاءَ	-0.07320749
-4.6152925	مَشَوْا	-0.07320749
-4.446117	أَظْلَمَ	-0.07320749
-4.1737366	قَامُوا	-0.07320749
-2.9358928	وَلَوْ	-0.24941784
-3.6807084	شَاءَ	-0.15062313
-4.446117	لَذَهَبَ	-0.07320749
-4.6152925	بِسَمْعِهِمْ	-0.07320749
-4.446117	وَأَبْصَارِهِمْ	-0.07320749
-3.5383806	كُلِّ	-0.17564374
-3.509054	شَيْءٍ	-0.103406645
-4.1737366	قَدِيرٌ	-0.19852152
-2.8230839	يَا	-0.34749454
-3.8299716	أَيُّهَا	-0.0841119
-4.0592246	اعْبُدُوا	-0.33335668
-4.1737366	رَبَّكُمُ	-0.13069282
-3.9686933	خَلَقَكُمْ	-0.18620731
-4.6152925	قَبْلِكُمْ	-0.07320749
-3.134077	لَعَلَّكُمْ	-0.46824548
-4.0592246	تَتَّقُونَ	-0.33335668
-3.455747	جَعَلَ	-0.18408734
-3.431362	لَكُمُ	-0.10767396
-3.2577639	الْأَرْضَ	-0.11634246
-4.6152925	فِرَاشًا	-0.07320749
-4.3296957	وَالسَّمَاءَ	-0.13069282
-4.6152925	بِنَاءً	-0.07320749
-3.7249968	وَأَنْزَلَ	-0.14841872
-3.893817	مَاءً	-0.07320746
-4.446117	فَأَخْرَجَ	-0.07320749
-2.3452406	بِهِ	-0.16308646
-4.446117	الثَّمَرَاتِ	-0.07320749
-3.5698318	رِزْقًا	-0.11393571
-2.5200555	لَكُمْ	-0.20802017
-2.6360562	فَلَا	-0.14625187
-4.1737366	تَجْعَلُوا	-0.1185709
-4.3296957	أَنْدَادًا	-0.07320749
-3.1847596	وَأَنْتُمْ	-0.17732142
-3.6807084	تَعْلَمُونَ	-0.33280024
-2.7104657	وَإِنْ	-0.16896543
-3.2125068	كُنْتُمْ	-0.15435575
-4.6152925	رَيْبٍ	-0.07320749
-2.8172789	مِمَّا	-0.1457724
-4.0592246	نَزَّلْنَا	-0.11067356
-4.6152925	عَبْدِنَا	-0.07320749
-4.0592246	فَأْتُوا	-0.09782241
-4.6152925	بِسُورَةٍ	-0.07320749
-3.9686933	مِثْلِهِ	-0.10511928
-4.3296957	وَادْعُوا	-0.13069282
-4.6152925	شُهَدَاءَكُمْ	-0.07320749
-4.6152925	دُونِ	-0.07320749
-2.4146855	إِنْ	-0.325993
-4.3296957	صَادِقِينَ	-0.30809534
-2.9755352	فَإِنْ	-0.18703875
-4.0592246	تَفْعَلُوا	-0.07320752
-3.481583	وَلَنْ	-0.12250055
-3.7743201	فَاتَّقُوا	-0.5886292
-3.6807084	النَّارَ	-0.14841872
-3.110794	الَّتِي	-0.11594261
-4.446117	وَقُودُهَا	-0.19696505
-4.6152925	وَالْحِجَارَةُ	-0.07320749
-4.1737366	أُعِدَّتْ	-0.13069282
-3.481583	لِلْكَافِرِينَ	-0.15692411
-3.7743201	وَبَشِّرِ	-0.30211988
-4.1737366	وَعَمِلُوا	-0.4330341
-4.1737366	الصَّالِحَاتِ	-0.08384267
-3.0011826	أَنَّ	-0.25803843
-3.431362	جَنَّاتٍ	-0.38319862
-3.3863509	تَجْرِي	-0.46150315
-4.6152925	تَحْتِهَا	-0.07320749
-4.0592246	الْأَنْهَارُ	-0.0932419
-4.6152925	رُزِقُوا	-0.07320749
-2.8791478	مِنْهَا	-0.12801203
-4.6152925	ثَمَرَةٍ	-0.07320749
-2.7631345	هَذَا	-0.15671276
-4.6152925	رُزِقْنَا	-0.07320749
-4.1737366	قَبْلُ	-0.07693682
-4.6152925	وَأُتُوا	-0.07320749
-4.3296957	مُتَشَابِهًا	-0.07320749
-2.6031432	فِيهَا	-0.14144562
-4.446117	أَزْوَاجٌ	-0.07320749
-4.446117	مُطَهَّرَةٌ	-0.07320749
-2.6675649	وَهُمْ	-0.2735594
-4.1737366	خَالِدُونَ	-0.4330341
-4.6152925	يَسْتَحْيِي	-0.07320749
-2.276994	أَنْ	-0.13912532
-4.6152925	يَضْرِبَ	-0.07320749
-3.6807084	مَثَلًا	-0.084693454
-4.6152925	بَعُوضَةً	-0.07320749
-4.6152925	فَوْقَهَا	-0.07320749
-3.9686933	فَأَمَّا	-0.21054152
-4.6152925	فَيَعْلَمُونَ	-0.07320749
-3.3455698	أَنَّهُ	-0.28141674
-3.2907877	الْحَقُّ	-0.1745474
-4.0592246	وَأَمَّا	-0.11109837
-4.6152925	فَيَقُولُونَ	-0.07320749
-3.455747	مَاذَا	-0.11629983
-3.6807084	أَرَادَ	-0.17803739
-3.7249968	بِهَذَا	-0.114245474
-3.9686933	يُضِلُّ	-0.15167965
-3.1847596	كَثِيرًا	-0.29698253
-4.1737366	وَيَهْدِي	-0.1185709
-4.0592246	الْفَاسِقِينَ	-0.52994406
-4.1737366	يَنْقُضُونَ	-0.13069282
-4.6152925	عَهْدَ	-0.07320749
-4.446117	بَعْدِ	-0.07958865
-4.6152925	مِيثَاقِهِ	-0.07320749
-4.6152925	وَيَقْطَعُونَ	-0.07320749
-4.0592246	أَمَرَ	-0.07320746
-4.6152925	يُوصَلَ	-0.07320749
-4.6152925	وَيُفْسِدُونَ	-0.07320749
-4.446117	الْخَاسِرُونَ	-0.19696505
-3.2421482	كَيْفَ	-0.1357423
-4.0592246	تَكْفُرُونَ	-0.11067356
-3.8299716	وَكُنْتُمْ	-0.100999735
-4.446117	أَمْوَاتًا	-0.07320749
-4.6152925	فَأَحْيَاكُمْ	-0.07320749
-2.5029454	ثُمَّ	-0.16364363
-4.6152925	يُمِيتُكُمْ	-0.07320749
-4.3296957	يُحْيِيكُمْ	-0.1185709
-2.9283807	إِلَيْهِ	-0.124062985
-3.893817	تُرْجَعُونَ	-0.47948474
-2.8003151	هُوَ	-0.15728033
-3.455747	خَلَقَ	-0.21601142
-3.2577639	جَمِيعًا	-0.14260928
-4.446117	اسْتَوَى	-0.07320749
-4.6152925	فَسَوَّاهُنَّ	-0.07320749
-3.7743201	سَبْعَ	-0.19835466
-4.6152925	سَمَاوَاتٍ	-0.07320749
-2.6971447	وَهُوَ	-0.26421493
-3.5698318	بِكُلِّ	-0.31114602
-3.455747	عَلِيمٌ	-0.41344035
-3.8299716	وَإِذْ	-0.07320746
-2.5378673	قَالَ	-0.2156019
-3.2421482	رَبُّكَ	-0.09587861
-4.3296957	لِلْمَلَائِكَةِ	-0.07320749
-2.906594	إِنِّي	-0.20068263
-4.6152925	جَاعِلٌ	-0.07320749
-4.446117	خَلِيفَةً	-0.07320749
-4.6152925	أَتَجْعَلُ	-0.07320749
-4.6152925	يُفْسِدُ	-0.07320749
-4.6152925	وَيَسْفِكُ	-0.07320749
-4.6152925	الدِّمَاءَ	-0.07320749
-3.5698318	وَنَحْنُ	-0.23011133
-4.6152925	نُسَبِّحُ	-0.07320749
-4.6152925	بِحَمْدِكَ	-0.07320749
-4.6152925	وَنُقَدِّسُ	-0.07320749
-2.9755352	لَكَ	-0.12080844
-3.481583	أَعْلَمُ	-0.23778482
-4.6152925	وَعَلَّمَ	-0.07320749
-3.893817	آدَمَ	-0.09009893
-4.6152925	الْأَسْمَاءَ	-0.07320749
-4.3296957	كُلَّهَا	-0.07320749
-4.6152925	عَرَضَهُمْ	-0.07320749
-4.1737366	الْمَلَائِكَةِ	-0.100999735
-3.4082735	فَقَالَ	-0.100999705
-4.6152925	أَنْبِئُونِي	-0.07320749
-4.6152925	بِأَسْمَاءِ	-0.07320749
-3.2577639	هَؤُلَاءِ	-0.10030025
-3.9686933	سُبْحَانَكَ	-0.09782241
-4.446117	عِلْمَ	-0.07320749
-2.9358928	لَنَا	-0.16228037
-4.6152925	عَلَّمْتَنَا	-0.07320749
-3.1586795	إِنَّكَ	-0.2702753
-3.3455698	أَنْتَ	-0.10114126
-3.7743201	الْعَلِيمُ	-0.33335668
-4.1737366	الْحَكِيمُ	-0.16923133
-4.1737366	آدَمُ	-0.10511928
-4.6152925	أَنْبِئْهُمْ	-0.07320749
-4.446117	بِأَسْمَائِهِمْ	-0.07320749
-4.6152925	أَنْبَأَهُمْ	-0.07320749
-3.60374	أَلَمْ	-0.123714365
-4.6152925	أَقُلْ	-0.07320749
-4.446117	غَيْبَ	-0.19696505
-3.1586795	السَّمَاوَاتِ	-0.5319103
-4.3296957	وَالْأَرْضِ	-0.09466816
-4.3296957	وَأَعْلَمُ	-0.15167965
-4.6152925	تُبْدُونَ	-0.07320749
-4.3296957	تَكْتُمُونَ	-0.30809534
-3.893817	قُلْنَا	-0.114245474
-4.446117	اسْجُدُوا	-0.07320749
-4.6152925	لِآدَمَ	-0.07320749
-4.6152925	فَسَجَدُوا	-0.07320749
-4.446117	إِبْلِيسَ	-0.07320749
-4.6152925	أَبَى	-0.07320749
-4.3296957	وَاسْتَكْبَرَ	-0.07320749
-2.8115504	وَكَانَ	-0.4143927
-3.2907877	الْكَافِرِينَ	-0.2996586
-4.0592246	وَقُلْنَا	-0.07320749
-4.6152925	اسْكُنْ	-0.07320749
-4.6152925	وَزَوْجُكَ	-0.07320749
-3.6807084	الْجَنَّةَ	-0.07320749
-4.6152925	وَكُلَا	-0.07320749
-4.3296957	رَغَدًا	-0.07320749
-3.6807084	حَيْثُ	-0.09529717
-4.6152925	شِئْتُمَا	-0.07320749
-4.6152925	تَقْرَبَا	-0.07320749
-3.2421482	هَذِهِ	-0.10420045
-4.446117	الشَّجَرَةَ	-0.07320749
-4.6152925	فَتَكُونَا	-0.07320749
-3.3082917	الظَّالِمِينَ	-0.33818898
-4.6152925	فَأَزَلَّهُمَا	-0.07320749
-3.273962	الشَّيْطَانُ	-0.09173983
-3.4082735	عَنْهَا	-0.0831092
-4.6152925	فَأَخْرَجَهُمَا	-0.07320749
-4.446117	كَانَا	-0.07320749
-4.1737366	اهْبِطُوا	-0.13069282
-3.6807084	بَعْضُكُمْ	-0.21164016
-4.1737366	لِبَعْضٍ	-0.11067356
-3.6807084	عَدُوٌّ	-0.12705511
-3.7249968	وَلَكُمْ	-0.18620731
-4.446117	مُسْتَقَرٌّ	-0.07320749
-4.446117	وَمَتَاعٌ	-0.19696505
-4.1737366	حِينٍ	-0.23644666
-4.6152925	فَتَلَقَّى	-0.07320749
-3.4082735	رَبِّهِ	-0.078625455
-4.6152925	كَلِمَاتٍ	-0.07320749
-4.0592246	فَتَابَ	-0.2601811
-2.7059798	عَلَيْهِ	-0.12186538
-2.7481253	إِنَّهُ	-0.377752
-4.3296957	التَّوَّابُ	-0.30809534
-3.9686933	الرَّحِيمُ	-0.41253793
-3.9686933	فَإِمَّا	-0.10511928
-4.446117	يَأْتِيَنَّكُمْ	-0.07320749
-3.8299716	مِنِّي	-0.09782241
-3.0284402	فَمَنْ	-0.15525194
-4.446117	تَبِعَ	-0.07320749
-4.446117	هُدَايَ	-0.19696505
-4.1737366	خَوْفٌ	-0.27770278
-4.6152925	يَحْزَنُونَ	-0.07320749
-4.446117	وَكَذَّبُوا	-0.13069282
-3.455747	بِآيَاتِنَا	-0.09839834
-3.5383806	أَصْحَابُ	-0.27043742
-3.481583	النَّارِ	-0.16148873
-3.3863509	بَنِي	-0.7135679
-4.1737366	إِسْرَائِيلَ	-0.08044662
-4.0592246	اذْكُرُوا	-0.19807625
-4.6152925	نِعْمَتِيَ	-0.07320749
-4.6152925	أَنْعَمْتُ	-0.07320749
-2.7580736	عَلَيْكُمْ	-0.12443991
-4.3296957	وَأَوْفُوا	-0.1185709
-4.6152925	بِعَهْدِي	-0.07320749
-4.6152925	أُوفِ	-0.07320749
-4.6152925	بِعَهْدِكُمْ	-0.07320749
-4.3296957	وَإِيَّايَ	-0.07320749
-4.446117	فَارْهَبُونِ	-0.19696505
-4.3296957	وَآمِنُوا	-0.07320749
-4.6152925	أَنْزَلْتُ	-0.07320749
-3.7743201	مُصَدِّقًا	-0.5886292
-3.3863509	لِمَا	-0.12364154
-3.8299716	تَكُونُوا	-0.08780838
-3.5698318	أَوَّلَ	-0.33280024
-4.6152925	كَافِرٍ	-0.07320749
-4.6152925	تَشْتَرُوا	-0.07320749
-4.3296957	بِآيَاتِي	-0.07320749
-4.1737366	ثَمَنًا	-0.33335668
-3.3455698	قَلِيلًا	-0.19400188
-4.1737366	فَاتَّقُونِ	-0.4330341
-4.6152925	تَلْبِسُوا	-0.07320749
-3.431362	الْحَقَّ	-0.15226334
-3.9686933	بِالْبَاطِلِ	-0.09782241
-4.6152925	وَتَكْتُمُوا	-0.07320749
-3.8299716	وَأَقِيمُوا	-0.35105267
-4.3296957	وَآتُوا	-0.07320749
-3.7743201	الزَّكَاةَ	-0.08358638
-4.6152925	وَارْكَعُوا	-0.07320749
-3.088696	مَعَ	-0.24548233
-4.6152925	الرَّاكِعِينَ	-0.07320749
-4.6152925	أَتَأْمُرُونَ	-0.07320749
-3.110794	النَّاسَ	-0.091681734
-4.446117	بِالْبِرِّ	-0.07320749
-4.446117	وَتَنْسَوْنَ	-0.07320749
-3.481583	أَنْفُسَكُمْ	-0.07320749
-4.6152925	تَتْلُونَ	-0.07320749
-3.2270746	الْكِتَابَ	-0.16903469
-3.1715238	أَفَلَا	-0.35356703
-4.0592246	تَعْقِلُونَ	-0.52994406
-4.6152925	وَاسْتَعِينُوا	-0.07320749
-4.3296957	بِالصَّبْرِ	-0.13069282
-4.446117	وَالصَّلَاةِ	-0.07320749
-4.446117	وَإِنَّهَا	-0.07320749
-4.6152925	لَكَبِيرَةٌ	-0.07320749
-4.6152925	الْخَاشِعِينَ	-0.07320749
-4.3296957	يَظُنُّونَ	-0.07320749
-3.3082917	أَنَّهُمْ	-0.11939314
-4.446117	مُلَاقُو	-0.15167965
-4.1737366	وَأَنَّهُمْ	-0.07320746
-4.3296957	رَاجِعُونَ	-0.30809534
-4.6152925	وَأَنِّي	-0.07320749
-4.6152925	فَضَّلْتُكُمْ	-0.07320749
-3.2270746	وَاتَّقُوا	-0.7755911
-3.60374	يَوْمًا	-0.10511928
-4.6152925	تَجْزِي	-0.07320749
-3.6807084	نَفْسٌ	-0.14162901
-2.6102448	عَنْ	-0.21029866
-3.893817	نَفْسٍ	-0.100999735
-2.9839172	شَيْئًا	-0.22986674
-4.6152925	يُقْبَلُ	-0.07320749
-4.3296957	شَفَاعَةٌ	-0.15167965
-4.446117	يُؤْخَذُ	-0.07320749
-4.6152925	عَدْلٌ	-0.07320749
-4.3296957	يُنْصَرُونَ	-0.30809534
-4.6152925	نَجَّيْنَاكُمْ	-0.07320749
-4.3296957	آلِ	-0.19696505
-3.3863509	فِرْعَوْنَ	-0.09423968
-4.6152925	يَسُومُونَكُمْ	-0.07320749
-4.0592246	سُوءَ	-0.33335668
-3.5383806	الْعَذَابِ	-0.12546174
-4.6152925	يُذَبِّحُونَ	-0.07320749
-4.1737366	أَبْنَاءَكُمْ	-0.23644666
-4.6152925	وَيَسْتَحْيُونَ	-0.07320749
-4.6152925	نِسَاءَكُمْ	-0.07320749
-3.455747	وَفِي	-0.12877207
-3.3082917	ذَلِكُمْ	-0.17551796
-4.446117	بَلَاءٌ	-0.07320749
-3.7743201	رَبِّكُمْ	-0.07320746
-4.6152925	فَرَقْنَا	-0.07320749
-3.9686933	بِكُمُ	-0.07320749
-3.9686933	الْبَحْرَ	-0.07320752
-4.6152925	فَأَنْجَيْنَاكُمْ	-0.07320749
-4.1737366	وَأَغْرَقْنَا	-0.19696505
-3.8299716	آلَ	-0.28759918
-4.446117	تَنْظُرُونَ	-0.19696505
-4.6152925	وَاعَدْنَا	-0.07320749
-2.9755352	مُوسَى	-0.1392149
-4.1737366	أَرْبَعِينَ	-0.19696505
-4.446117	لَيْلَةً	-0.07320749
-4.6152925	اتَّخَذْتُمُ	-0.07320749
-4.1737366	الْعِجْلَ	-0.1185709
-4.6152925	بَعْدِهِ	-0.07320749
-4.0592246	ظَالِمُونَ	-0.52994406
-4.6152925	عَفَوْنَا	-0.07320749
-3.3863509	عَنْكُمْ	-0.14251468
-4.1737366	تَشْكُرُونَ	-0.4330341
-4.0592246	آتَيْنَا	-0.13832988
-4.6152925	وَالْفُرْقَانَ	-0.07320749
-4.446117	تَهْتَدُونَ	-0.19696505
-4.446117	لِقَوْمِهِ	-0.09529717
-3.6807084	قَوْمِ	-0.13097502
-3.3654819	إِنَّكُمْ	-0.12460732
-4.446117	ظَلَمْتُمْ	-0.07320749
-4.6152925	بِاتِّخَاذِكُمُ	-0.07320749
-4.6152925	فَتُوبُوا	-0.07320749
-4.446117	بَارِئِكُمْ	-0.07320749
-4.446117	فَاقْتُلُوا	-0.07320749
-3.0780547	خَيْرٌ	-0.25129077
-2.8230839	عِنْدَ	-0.6044853
-3.8299716	قُلْتُمْ	-0.100999735
-3.2421482	لَنْ	-0.12670377
-4.3296957	نُؤْمِنَ	-0.07320749
-2.6554797	حَتَّى	-0.22753392
-4.0592246	نَرَى	-0.07320749
-4.446117	جَهْرَةً	-0.07320749
-4.6152925	فَأَخَذَتْكُمُ	-0.07320749
-4.446117	الصَّاعِقَةُ	-0.07320749
-4.6152925	بَعَثْنَاكُمْ	-0.07320749
-4.6152925	مَوْتِكُمْ	-0.07320749
-4.446117	وَظَلَّلْنَا	-0.07320749
-3.60374	عَلَيْكُمُ	-0.100999735
-4.446117	الْغَمَامَ	-0.19696505
-3.7743201	وَأَنْزَلْنَا	-0.14841872
-4.446117	الْمَنَّ	-0.19696505
-4.6152925	وَالسَّلْوَى	-0.07320749
-3.7743201	كُلُوا	-0.26281077
-4.446117	طَيِّبَاتِ	-0.19696505
-4.446117	رَزَقْنَاكُمْ	-0.11067356
-4.6152925	ظَلَمُونَا	-0.07320749
-4.1737366	يَظْلِمُونَ	-0.23644666
-3.6405213	ادْخُلُوا	-0.1555432
-4.446117	الْقَرْيَةَ	-0.07320749
-4.0592246	فَكُلُوا	-0.2601811
-4.3296957	شِئْتُمْ	-0.07320746
-4.3296957	وَادْخُلُوا	-0.15167965
-4.1737366	الْبَابَ	-0.13069282
-3.8299716	سُجَّدًا	-0.07320749
-3.8299716	وَقُولُوا	-0.13069282
-4.6152925	حِطَّةٌ	-0.07320749
-4.446117	نَغْفِرْ	-0.19696505
-4.446117	خَطَايَاكُمْ	-0.07320749
-4.6152925	وَسَنَزِيدُ	-0.07320749
-3.7249968	الْمُحْسِنِينَ	-0.67577934
-4.6152925	فَبَدَّلَ	-0.07320749
-3.7743201	ظَلَمُوا	-0.13112746
-3.509054	قَوْلًا	-0.14495347
-3.1715238	غَيْرَ	-0.12594736
-4.3296957	فَأَنْزَلْنَا	-0.07320749
-4.3296957	رِجْزًا	-0.30809534
-4.6152925	يَفْسُقُونَ	-0.07320749
-4.6152925	وَإِذِ	-0.07320749
-4.6152925	اسْتَسْقَى	-0.07320749
-4.1737366	فَقُلْنَا	-0.07320749
-4.446117	اضْرِبْ	-0.19696505
-4.6152925	بِعَصَاكَ	-0.07320749
-4.6152925	الْحَجَرَ	-0.07320749
-4.6152925	فَانْفَجَرَتْ	-0.07320749
-2.7948048	مِنْهُ	-0.0959177
-4.6152925	اثْنَتَا	-0.07320749
-4.446117	عَشْرَةَ	-0.07320749
-4.3296957	عَيْنًا	-0.07320749
-2.8409796	قَدْ	-0.14946623
-3.893817	عَلِمَ	-0.18035868
-3.1586795	كُلُّ	-0.27708524
-4.446117	أُنَاسٍ	-0.07320749
-4.6152925	مَشْرَبَهُمْ	-0.07320749
-4.446117	وَاشْرَبُوا	-0.07320749
-4.6152925	رِزْقِ	-0.07320749
-4.6152925	تَعْثَوْا	-0.07320749
-4.6152925	مُفْسِدِينَ	-0.07320749
-4.6152925	نَصْبِرَ	-0.07320749
-4.446117	طَعَامٍ	-0.07320749
-3.9686933	وَاحِدٍ	-0.1749614
-4.446117	فَادْعُ	-0.07320749
-3.8299716	رَبَّكَ	-0.09456677
-4.6152925	يُخْرِجْ	-0.07320749
-4.6152925	تُنْبِتُ	-0.07320749
-3.3654819	الْأَرْضُ	-0.092351355
-4.6152925	بَقْلِهَا	-0.07320749
-4.6152925	وَقِثَّائِهَا	-0.07320749
-4.6152925	وَفُومِهَا	-0.07320749
-4.6152925	وَعَدَسِهَا	-0.07320749
-4.6152925	وَبَصَلِهَا	-0.07320749
-4.6152925	أَتَسْتَبْدِلُونَ	-0.07320749
-3.9686933	أَدْنَى	-0.10511928
-3.6807084	بِالَّذِي	-0.114245474
-4.6152925	مِصْرًا	-0.07320749
-2.9839172	فَإِنَّ	-0.48758918
-4.6152925	سَأَلْتُمْ	-0.07320749
-4.446117	وَضُرِبَتْ	-0.19696505
-3.2907877	عَلَيْهِمُ	-0.09607931
-4.6152925	الذِّلَّةُ	-0.07320749
-4.6152925	وَالْمَسْكَنَةُ	-0.07320749
-4.446117	وَبَاءُوا	-0.19696505
-4.3296957	بِغَضَبٍ	-0.15167965
-3.893817	بِأَنَّهُمْ	-0.15481618
-3.893817	يَكْفُرُونَ	-0.23151119
-3.3863509	بِآيَاتِ	-0.62190896
-4.446117	وَيَقْتُلُونَ	-0.07320749
-3.9686933	النَّبِيِّينَ	-0.07320749
-3.326531	بِغَيْرِ	-0.39157918
-3.5698318	الْحَقِّ	-0.07978349
-4.6152925	عَصَوْا	-0.07320749
-3.3654819	وَكَانُوا	-0.09879753
-4.6152925	يَعْتَدُونَ	-0.07320749
-4.3296957	هَادُوا	-0.07320749
-4.0592246	وَالنَّصَارَى	-0.07320746
-4.446117	وَالصَّابِئِينَ	-0.07320749
-4.3296957	وَالْيَوْمِ	-0.15167965
-4.0592246	وَعَمِلَ	-0.41253793
-3.5383806	صَالِحًا	-0.08780838
-4.0592246	فَلَهُمْ	-0.11067356
-4.446117	أَجْرُهُمْ	-0.15167965
-3.8299716	أَخَذْنَا	-0.09529717
-4.446117	مِيثَاقَكُمْ	-0.07320749
-4.3296957	وَرَفَعْنَا	-0.07320749
-4.6152925	فَوْقَكُمُ	-0.07320749
-4.446117	الطُّورَ	-0.07320749
-4.1737366	خُذُوا	-0.13069282
-4.6152925	آتَيْنَاكُمْ	-0.07320749
-4.1737366	بِقُوَّةٍ	-0.07320746
-3.7743201	وَاذْكُرُوا	-0.21164016
-4.0592246	تَوَلَّيْتُمْ	-0.13069282
-3.9686933	فَلَوْلَا	-0.07320749
-4.1737366	فَضْلُ	-0.4330341
-4.446117	وَرَحْمَتُهُ	-0.07320749
-4.6152925	لَكُنْتُمْ	-0.07320749
-4.3296957	الْخَاسِرِينَ	-0.15167965
-3.5383806	وَلَقَدْ	-0.08959936
-4.6152925	عَلِمْتُمُ	-0.07320749
-4.6152925	اعْتَدَوْا	-0.07320749
-2.778681	مِنْكُمْ	-0.10844693
-4.446117	السَّبْتِ	-0.07320749
-3.9686933	كُونُوا	-0.07320752
-4.6152925	قِرَدَةً	-0.07320749
-4.6152925	خَاسِئِينَ	-0.07320749
-4.446117	فَجَعَلْنَاهَا	-0.07320749
-4.446117	نَكَالًا	-0.07320749
-3.03792	بَيْنَ	-0.25460026
-4.6152925	يَدَيْهَا	-0.07320749
-4.6152925	خَلْفَهَا	-0.07320749
-4.3296957	وَمَوْعِظَةً	-0.30809534
-4.3296957	يَأْمُرُكُمْ	-0.07320749
-4.6152925	تَذْبَحُوا	-0.07320749
-4.6152925	بَقَرَةً	-0.07320749
-4.6152925	أَتَتَّخِذُنَا	-0.07320749
-3.7743201	هُزُوًا	-0.14316283
-4.1737366	أَعُوذُ	-0.1185709
-4.1737366	أَكُونَ	-0.11067356
-4.3296957	الْجَاهِلِينَ	-0.30809534
-4.1737366	ادْعُ	-0.23644666
-4.6152925	يُبَيِّنْ	-0.07320749
-3.3455698	هِيَ	-0.109711125
-3.893817	إِنَّهَا	-0.07320749
-4.6152925	بَقَرَةٌ	-0.07320749
-4.6152925	فَارِضٌ	-0.07320749
-4.6152925	بِكْرٌ	-0.07320749
-4.6152925	عَوَانٌ	-0.07320749
-4.6152925	فَافْعَلُوا	-0.07320749
-4.446117	تُؤْمَرُونَ	-0.19696505
-4.446117	لَوْنُهَا	-0.07320749
-4.6152925	صَفْرَاءُ	-0.07320749
-4.6152925	فَاقِعٌ	-0.07320749
-4.6152925	تَسُرُّ	-0.07320749
-4.6152925	النَّاظِرِينَ	-0.07320749
-4.6152925	الْبَقَرَ	-0.07320749
-4.446117	تَشَابَهَ	-0.07320749
-3.134077	عَلَيْنَا	-0.08208844
-3.3082917	وَإِنَّا	-0.18408734
-4.446117	لَمُهْتَدُونَ	-0.19696505
-4.6152925	ذَلُولٌ	-0.07320749
-4.6152925	تُثِيرُ	-0.07320749
-4.6152925	تَسْقِي	-0.07320749
-4.446117	الْحَرْثَ	-0.07320749
-4.3296957	مُسَلَّمَةٌ	-0.15167965
-4.6152925	شِيَةَ	-0.07320749
-4.0592246	الْآنَ	-0.07320746
-4.1737366	جِئْتَ	-0.07320749
-3.067668	بِالْحَقِّ	-0.11850543
-4.6152925	فَذَبَحُوهَا	-0.07320749
-4.3296957	كَادُوا	-0.07320749
-3.893817	يَفْعَلُونَ	-0.53747666
-4.6152925	قَتَلْتُمْ	-0.07320749
-3.7249968	نَفْسًا	-0.0932419
-4.6152925	فَادَّارَأْتُمْ	-0.07320749
-4.446117	مُخْرِجٌ	-0.19696505
-4.6152925	اضْرِبُوهُ	-0.07320749
-4.6152925	بِبَعْضِهَا	-0.07320749
-2.9592414	كَذَلِكَ	-0.21522847
-3.6807084	يُحْيِي	-0.22502223
-3.6405213	الْمَوْتَى	-0.08780838
-4.446117	وَيُرِيكُمْ	-0.19696505
-3.6807084	آيَاتِهِ	-0.10677818
-4.446117	قَسَتْ	-0.07320749
-4.0592246	قُلُوبُكُمْ	-0.07320746
-4.0592246	فَهِيَ	-0.07320746
-4.6152925	كَالْحِجَارَةِ	-0.07320749
-3.509054	أَشَدُّ	-0.09782241
-4.6152925	قَسْوَةً	-0.07320749
-3.067668	وَإِنَّ	-0.24773458
-4.6152925	الْحِجَارَةِ	-0.07320749
-4.0592246	لَمَا	-0.07320749
-4.6152925	يَتَفَجَّرُ	-0.07320749
-4.6152925	يَشَّقَّقُ	-0.07320749
-4.6152925	فَيَخْرُجُ	-0.07320749
-4.1737366	الْمَاءُ	-0.07320749
-4.6152925	يَهْبِطُ	-0.07320749
-4.6152925	خَشْيَةِ	-0.07320749
-4.446117	بِغَافِلٍ	-0.19696505
-3.3082917	عَمَّا	-0.23707494
-3.8299716	تَعْمَلُونَ	-0.26043844
-4.6152925	أَفَتَطْمَعُونَ	-0.07320749
-4.0592246	يُؤْمِنُوا	-0.07320746
-3.1715238	وَقَدْ	-0.10181274
-2.8596444	كَانَ	-0.17458601
-3.893817	فَرِيقٌ	-0.19835466
-2.7149985	مِنْهُمْ	-0.12371946
-3.8299716	يَسْمَعُونَ	-0.14841872
-4.3296957	كَلَامَ	-0.30809534
-4.6152925	يُحَرِّفُونَهُ	-0.07320749
-4.6152925	عَقَلُوهُ	-0.07320749
-4.446117	خَلَا	-0.07320749
-3.4082735	بَعْضُهُمْ	-0.3231447
-3.7743201	بَعْضٍ	-0.09324194
-4.6152925	أَتُحَدِّثُونَهُمْ	-0.07320749
-4.6152925	فَتَحَ	-0.07320749
-4.6152925	لِيُحَاجُّوكُمْ	-0.07320749
-4.6152925	أَوَلَا	-0.07320749
-3.3082917	يَعْلَمُ	-0.21643181
-4.6152925	يُسِرُّونَ	-0.07320749
-4.6152925	يُعْلِنُونَ	-0.07320749
-3.5383806	وَمِنْهُمْ	-0.51790434
-4.6152925	أُمِّيُّونَ	-0.07320749
-4.6152925	أَمَانِيَّ	-0.07320749
-4.0592246	فَوَيْلٌ	-0.15888241
-2.9839172	لِلَّذِينَ	-0.36779073
-4.1737366	يَكْتُبُونَ	-0.13069282
-4.3296957	بِأَيْدِيهِمْ	-0.07320749
-3.1984117	يَقُولُونَ	-0.122811124
-4.6152925	عِنْدِ	-0.07320746
-4.6152925	لِيَشْتَرُوا	-0.07320749
-4.6152925	كَتَبَتْ	-0.07320749
-3.6807084	أَيْدِيهِمْ	-0.07320749
-4.3296957	وَوَيْلٌ	-0.07320749
-4.3296957	يَكْسِبُونَ	-0.15167965
-3.3863509	وَقَالُوا	-0.12503497
-4.6152925	تَمَسَّنَا	-0.07320749
-3.481583	النَّارُ	-0.1151507
-4.446117	أَيَّامًا	-0.15167965
-4.6152925	مَعْدُودَةً	-0.07320749
-2.778681	قُلْ	-0.19805902
-4.6152925	أَتَّخَذْتُمْ	-0.07320749
-4.3296957	عَهْدًا	-0.07320749
-3.455747	فَلَنْ	-0.12781847
-4.446117	يُخْلِفَ	-0.19696505
-4.6152925	عَهْدَهُ	-0.07320749
-4.0592246	تَقُولُونَ	-0.11067356
-3.7743201	بَلَى	-0.11067359
-4.3296957	كَسَبَ	-0.07320749
-4.3296957	سَيِّئَةً	-0.07320749
-4.6152925	وَأَحَاطَتْ	-0.07320749
-4.6152925	خَطِيئَتُهُ	-0.07320749
-3.2270746	فَأُولَئِكَ	-0.24745497
-3.7249968	الْجَنَّةِ	-0.0831092
-4.446117	مِيثَاقَ	-0.13069282
-3.6405213	تَعْبُدُونَ	-0.56674874
-4.3296957	وَبِالْوَالِدَيْنِ	-0.30809534
-4.3296957	إِحْسَانًا	-0.07320749
-4.6152925	وَذِي	-0.07320749
-3.7743201	الْقُرْبَى	-0.24411216
-4.446117	وَالْيَتَامَى	-0.13069282
-4.446117	وَالْمَسَاكِينِ	-0.07320749
-3.088696	لِلنَّاسِ	-0.1224003
-4.0592246	حُسْنًا	-0.07320746
-3.6405213	مُعْرِضُونَ	-0.91015536
-4.6152925	تَسْفِكُونَ	-0.07320749
-4.6152925	دِمَاءَكُمْ	-0.07320749
-4.6152925	تُخْرِجُونَ	-0.07320749
-4.6152925	دِيَارِكُمْ	-0.07320749
-4.6152925	أَقْرَرْتُمْ	-0.07320749
-4.6152925	تَشْهَدُونَ	-0.07320749
-3.2125068	أَنْتُمْ	-0.10931926
-4.1737366	تَقْتُلُونَ	-0.07320749
-4.6152925	وَتُخْرِجُونَ	-0.07320749
-3.7743201	فَرِيقًا	-0.13136025
-4.446117	دِيَارِهِمْ	-0.07320749
-4.6152925	تَظَاهَرُونَ	-0.07320749
-4.0592246	بِالْإِثْمِ	-0.19852152
-4.446117	وَالْعُدْوَانِ	-0.07320749
-4.6152925	يَأْتُوكُمْ	-0.07320749
-4.6152925	أُسَارَى	-0.07320749
-4.6152925	تُفَادُوهُمْ	-0.07320749
-4.6152925	مُحَرَّمٌ	-0.07320749
-4.6152925	إِخْرَاجُهُمْ	-0.07320749
-4.6152925	أَفَتُؤْمِنُونَ	-0.07320749
-4.1737366	بِبَعْضِ	-0.13069282
-3.5698318	الْكِتَابِ	-0.11095043
-4.6152925	وَتَكْفُرُونَ	-0.07320749
-3.8299716	بِبَعْضٍ	-0.07320746
-3.7743201	جَزَاءُ	-0.1555432
-4.0592246	يَفْعَلُ	-0.11067356
-4.3296957	خِزْيٌ	-0.13069282
-3.60374	الْحَيَاةِ	-0.6456796
-3.455747	الدُّنْيَا	-0.124154545
-3.455747	وَيَوْمَ	-0.17178844
-3.9686933	الْقِيَامَةِ	-0.0964915
-4.446117	يُرَدُّونَ	-0.19696505
-4.6152925	أَشَدِّ	-0.07320749
-3.6807084	الْحَيَاةَ	-0.8723668
-4.1737366	بِالْآخِرَةِ	-0.07320749
-4.3296957	يُخَفَّفُ	-0.19696505
-4.0592246	عَنْهُمُ	-0.11067356
-3.481583	الْعَذَابُ	-0.12511839
-4.3296957	وَقَفَّيْنَا	-0.07320749
-4.6152925	بِالرُّسُلِ	-0.07320749
-3.893817	وَآتَيْنَا	-0.1769762
-3.7743201	عِيسَى	-0.19852152
-3.9686933	ابْنَ	-0.33936238
-3.8299716	مَرْيَمَ	-0.08157111
-4.446117	الْبَيِّنَاتِ	-0.07320749
-4.6152925	وَأَيَّدْنَاهُ	-0.07320749
-4.446117	بِرُوحِ	-0.19696505
-4.446117	الْقُدُسِ	-0.07320749
-4.6152925	أَفَكُلَّمَا	-0.07320749
-3.60374	جَاءَكُمْ	-0.1151507
-3.7743201	رَسُولٌ	-0.16815034
-4.446117	تَهْوَى	-0.07320749
-4.6152925	أَنْفُسُكُمُ	-0.07320749
-4.6152925	اسْتَكْبَرْتُمْ	-0.07320749
-4.6152925	فَفَرِيقًا	-0.07320749
-4.446117	كَذَّبْتُمْ	-0.07320749
-4.3296957	وَفَرِيقًا	-0.07320749
-4.3296957	قُلُوبُنَا	-0.13069282
-4.6152925	غُلْفٌ	-0.07320749
-2.9283807	بَلْ	-0.22746399
-4.1737366	لَعَنَهُمُ	-0.4330341
-4.3296957	بِكُفْرِهِمْ	-0.13069282
-4.6152925	فَقَلِيلًا	-0.07320749
-4.0592246	وَلَمَّا	-0.0822754
-3.5698318	جَاءَهُمْ	-0.15852861
-3.6807084	كِتَابٌ	-0.10863083
-4.3296957	مُصَدِّقٌ	-0.15167965
-3.7743201	مَعَهُمْ	-0.07320749
-4.6152925	يَسْتَفْتِحُونَ	-0.07320749
-4.446117	عَرَفُوا	-0.07320749
-4.6152925	فَلَعْنَةُ	-0.07320749
-4.3296957	بِئْسَمَا	-0.07320749
-4.446117	اشْتَرَوْا	-0.07320749
-4.446117	يَكْفُرُوا	-0.15167965
-3.6807084	أَنْزَلَ	-0.22525106
-4.1737366	بَغْيًا	-0.13069282
-4.6152925	يُنَزِّلَ	-0.07320749
-4.6152925	فَضْلِهِ	-0.07320749
-3.7249968	يَشَاءُ	-0.11528158
-3.9686933	عِبَادِهِ	-0.084693454
-4.6152925	فَبَاءُوا	-0.07320749
-4.6152925	غَضَبٍ	-0.07320749
-4.0592246	وَلِلْكَافِرِينَ	-0.33335668
-4.6152925	مُهِينٌ	-0.07320749
-4.3296957	نُؤْمِنُ	-0.07320749
-4.6152925	وَيَكْفُرُونَ	-0.07320749
-4.6152925	وَرَاءَهُ	-0.07320749
-4.3296957	فَلِمَ	-0.07320749
-4.446117	أَنْبِيَاءَ	-0.07320749
-3.7743201	مُؤْمِنِينَ	-0.63438666
-3.5698318	بِالْبَيِّنَاتِ	-0.13099606
-4.1737366	وَاسْمَعُوا	-0.07320749
-3.6807084	سَمِعْنَا	-0.17907862
-4.6152925	وَعَصَيْنَا	-0.07320749
-4.6152925	وَأُشْرِبُوا	-0.07320749
-4.6152925	قُلُوبِهِمُ	-0.07320749
-4.6152925	إِيمَانُكُمْ	-0.07320749
-3.4082735	كَانَتْ	-0.099853195
-4.446117	الدَّارُ	-0.19696505
-4.1737366	الْآخِرَةُ	-0.1185709
-4.3296957	خَالِصَةً	-0.07320749
-4.6152925	فَتَمَنَّوُا	-0.07320749
-3.7743201	الْمَوْتَ	-0.09782241
-4.6152925	يَتَمَنَّوْهُ	-0.07320749
-3.509054	أَبَدًا	-0.13358979
-4.446117	قَدَّمَتْ	-0.07320752
-4.446117	بِالظَّالِمِينَ	-0.19696505
-4.6152925	وَلَتَجِدَنَّهُمْ	-0.07320749
-4.6152925	أَحْرَصَ	-0.07320749
-4.6152925	حَيَاةٍ	-0.07320749
-3.9686933	أَشْرَكُوا	-0.07320749
-4.0592246	يَوَدُّ	-0.19852152
-4.446117	أَحَدُهُمْ	-0.07320749
-3.0476115	لَوْ	-0.2515866
-4.446117	يُعَمَّرُ	-0.07320749
-4.1737366	أَلْفَ	-0.4330341
-4.446117	سَنَةٍ	-0.1185709
-4.6152925	بِمُزَحْزِحِهِ	-0.07320749
-4.6152925	يُعَمَّرَ	-0.07320749
-3.8299716	بَصِيرٌ	-0.39897463
-3.7249968	يَعْمَلُونَ	-0.24320327
-3.8299716	عَدُوًّا	-0.09529717
-4.6152925	لِجِبْرِيلَ	-0.07320749
-3.5383806	فَإِنَّهُ	-0.08780838
-4.446117	نَزَّلَهُ	-0.07320749
-4.6152925	قَلْبِكَ	-0.07320749
-3.5383806	بِإِذْنِ	-0.4196778
-4.3296957	يَدَيْهِ	-0.07320749
-3.7249968	وَهُدًى	-0.19826174
-4.1737366	وَبُشْرَى	-0.16923133
-3.7249968	لِلْمُؤْمِنِينَ	-0.28550485
-4.446117	وَمَلَائِكَتِهِ	-0.07320749
-4.0592246	وَرُسُلِهِ	-0.07320749
-4.6152925	وَجِبْرِيلَ	-0.07320749
-4.6152925	وَمِيكَالَ	-0.07320749
-3.509054	أَنْزَلْنَا	-0.2113534
-3.7743201	آيَاتٍ	-0.35297823
-4.1737366	بَيِّنَاتٍ	-0.09153662
-4.3296957	يَكْفُرُ	-0.07320749
-2.8725488	بِهَا	-0.14538808
-4.1737366	الْفَاسِقُونَ	-0.4330341
-4.6152925	أَوَكُلَّمَا	-0.07320749
-4.1737366	عَاهَدُوا	-0.13069282
-4.6152925	نَبَذَهُ	-0.07320749
-3.893817	أَكْثَرُهُمْ	-0.100999735
-4.6152925	نَبَذَ	-0.07320749
-3.9686933	أُوتُوا	-0.21496972
-4.1737366	كِتَابَ	-0.19852152
-3.9686933	وَرَاءَ	-0.11067356
-4.1737366	ظُهُورِهِمْ	-0.07320746
-3.7743201	كَأَنَّهُمْ	-0.114245474
-3.7249968	وَاتَّبَعُوا	-0.13136025
-4.1737366	تَتْلُو	-0.07320749
-4.1737366	الشَّيَاطِينُ	-0.13069282
-4.6152925	مُلْكِ	-0.07320749
-3.893817	سُلَيْمَانَ	-0.07320752
-3.893817	كَفَرَ	-0.10511928
-4.3296957	سُلَيْمَانُ	-0.07320749
-3.057524	وَلَكِنَّ	-0.56207955
-4.0592246	الشَّيَاطِينَ	-0.1185709
-4.6152925	يُعَلِّمُونَ	-0.07320749
-4.3296957	السِّحْرَ	-0.07320749
-4.6152925	الْمَلَكَيْنِ	-0.07320749
-4.6152925	بِبَابِلَ	-0.07320749
-4.6152925	هَارُوتَ	-0.07320749
-4.6152925	وَمَارُوتَ	-0.07320749
-4.6152925	يُعَلِّمَانِ	-0.07320749
-4.1737366	أَحَدٍ	-0.13596563
-4.6152925	يَقُولَا	-0.07320749
-3.8299716	فِتْنَةٌ	-0.07320746
-4.6152925	تَكْفُرْ	-0.07320749
-4.6152925	فَيَتَعَلَّمُونَ	-0.07320749
-3.8299716	مِنْهُمَا	-0.07320749
-4.6152925	يُفَرِّقُونَ	-0.07320749
-4.6152925	الْمَرْءِ	-0.07320749
-4.6152925	وَزَوْجِهِ	-0.07320749
-4.6152925	بِضَارِّينَ	-0.07320749
-4.6152925	وَيَتَعَلَّمُونَ	-0.07320749
-4.3296957	يَضُرُّهُمْ	-0.15167965
-4.3296957	يَنْفَعُهُمْ	-0.07320749
-4.6152925	عَلِمُوا	-0.07320749
-4.6152925	لَمَنِ	-0.07320749
-4.446117	اشْتَرَاهُ	-0.07320749
-2.4973886	لَهُ	-0.1739765
-3.481583	الْآخِرَةِ	-0.094219394
-4.6152925	خَلَاقٍ	-0.07320749
-4.1737366	وَلَبِئْسَ	-0.07320749
-4.6152925	شَرَوْا	-0.07320749
-4.446117	وَاتَّقَوْا	-0.07320749
-4.6152925	لَمَثُوبَةٌ	-0.07320749
-4.0592246	تَقُولُوا	-0.11067356
-4.6152925	رَاعِنَا	-0.07320749
-4.6152925	انْظُرْنَا	-0.07320749
-3.893817	أَهْلِ	-0.15670897
-3.893817	الْمُشْرِكِينَ	-0.0932419
-4.6152925	يُنَزَّلَ	-0.07320749
-4.446117	خَيْرٍ	-0.07320749
-4.446117	يَخْتَصُّ	-0.19696505
-4.6152925	بِرَحْمَتِهِ	-0.07320749
-3.5383806	ذُو	-0.11298147
-4.446117	الْفَضْلِ	-0.07320749
-3.8299716	الْعَظِيمِ	-0.7340641
-4.6152925	نَنْسَخْ	-0.07320749
-4.0592246	آيَةٍ	-0.07320746
-4.6152925	نُنْسِهَا	-0.07320749
-4.6152925	نَأْتِ	-0.07320749
-3.9686933	بِخَيْرٍ	-0.07320749
-4.6152925	مِثْلِهَا	-0.07320749
-4.6152925	تَعْلَمْ	-0.07320749
-4.0592246	مُلْكُ	-0.33335668
-4.6152925	وَلِيٍّ	-0.07320749
-4.446117	نَصِيرٍ	-0.19696505
-4.0592246	تُرِيدُونَ	-0.1185709
-4.3296957	تَسْأَلُوا	-0.07320749
-4.6152925	رَسُولَكُمْ	-0.07320749
-4.6152925	سُئِلَ	-0.07320749
-2.5439708	وَمَنْ	-0.21027593
-4.6152925	يَتَبَدَّلِ	-0.07320749
-3.9686933	الْكُفْرَ	-0.11067356
-4.1737366	بِالْإِيمَانِ	-0.1185709
-3.1222796	فَقَدْ	-0.12337951
-3.8299716	ضَلَّ	-0.07320746
-4.446117	سَوَاءَ	-0.19696505
-3.9686933	السَّبِيلِ	-0.102917366
-4.446117	وَدَّ	-0.07320749
-4.3296957	كَثِيرٌ	-0.07320749
-4.6152925	يَرُدُّونَكُمْ	-0.07320749
-4.446117	إِيمَانِكُمْ	-0.07320749
-4.6152925	كُفَّارًا	-0.07320749
-4.6152925	حَسَدًا	-0.07320749
-3.7249968	أَنْفُسِهِمْ	-0.07320749
-4.0592246	تَبَيَّنَ	-0.10511928
-3.1462042	لَهُمُ	-0.10639293
-4.6152925	فَاعْفُوا	-0.07320749
-4.6152925	وَاصْفَحُوا	-0.07320749
-4.3296957	يَأْتِيَ	-0.07320749
-3.7743201	بِأَمْرِهِ	-0.11067356
-4.3296957	تُقَدِّمُوا	-0.15167965
-4.0592246	لِأَنْفُسِكُمْ	-0.07320746
-4.6152925	تَجِدُوهُ	-0.07320749
-4.6152925	يَدْخُلَ	-0.07320749
-4.0592246	هُودًا	-0.19852152
-4.446117	نَصَارَى	-0.07320746
-3.6405213	تِلْكَ	-0.17018245
-4.6152925	أَمَانِيُّهُمْ	-0.07320749
-4.446117	هَاتُوا	-0.19696505
-4.6152925	بُرْهَانَكُمْ	-0.07320749
-4.1737366	أَسْلَمَ	-0.1185709
-4.1737366	وَجْهَهُ	-0.07320746
-4.446117	مُحْسِنٌ	-0.07320749
-3.893817	فَلَهُ	-0.07320749
-4.446117	أَجْرُهُ	-0.07320749
-4.1737366	وَقَالَتِ	-0.1185709
-4.3296957	الْيَهُودُ	-0.07320749
-4.446117	لَيْسَتِ	-0.07320749
-4.3296957	النَّصَارَى	-0.07320749
-4.0592246	يَتْلُونَ	-0.07320746
-3.481583	مِثْلَ	-0.3144322
-4.6152925	قَوْلِهِمْ	-0.07320749
-3.9686933	فَاللَّهُ	-0.11067356
-3.8299716	يَحْكُمُ	-0.19852152
-3.1847596	بَيْنَهُمْ	-0.12979427
-2.8533332	يَوْمَ	-0.25164255
-3.509054	فِيمَا	-0.0841119
-4.446117	يَخْتَلِفُونَ	-0.07320749
-4.446117	أَظْلَمُ	-0.19696505
-3.5383806	مِمَّنْ	-0.09529717
-4.446117	مَنَعَ	-0.07320749
-4.3296957	مَسَاجِدَ	-0.30809534
-4.6152925	يُذْكَرَ	-0.07320749
-4.1737366	اسْمُهُ	-0.07320746
-4.446117	وَسَعَى	-0.07320749
-4.6152925	خَرَابِهَا	-0.07320749
-4.446117	يَدْخُلُوهَا	-0.07320749
-4.6152925	خَائِفِينَ	-0.07320749
-3.6807084	وَلِلَّهِ	-0.13471918
-4.446117	الْمَشْرِقُ	-0.19696505
-4.6152925	وَالْمَغْرِبُ	-0.07320749
-4.6152925	فَأَيْنَمَا	-0.07320749
-4.446117	تُوَلُّوا	-0.07320749
-4.6152925	فَثَمَّ	-0.07320749
-4.3296957	وَجْهُ	-0.07320749
-4.446117	وَاسِعٌ	-0.19696505
-3.9686933	اتَّخَذَ	-0.15670897
-3.893817	وَلَدًا	-0.25421146
-3.6405213	سُبْحَانَهُ	-0.27065235
-3.5383806	كُلٌّ	-0.123916686
-4.6152925	قَانِتُونَ	-0.07320749
-4.6152925	بَدِيعُ	-0.07320749
-3.893817	قَضَى	-0.13832988
-3.6405213	أَمْرًا	-0.16352841
-3.481583	فَإِنَّمَا	-0.09529717
-4.446117	كُنْ	-0.19696505
-4.446117	فَيَكُونُ	-0.07320749
-3.273962	وَقَالَ	-0.13376583
-3.2907877	لَوْلَا	-0.22451848
-4.6152925	يُكَلِّمُنَا	-0.07320749
-4.3296957	تَأْتِينَا	-0.07320749
-4.0592246	آيَةٌ	-0.07320749
-4.6152925	قَبْلِهِمْ	-0.07320752
-4.6152925	تَشَابَهَتْ	-0.07320749
-3.481583	قُلُوبُهُمْ	-0.08534057
-4.6152925	بَيَّنَّا	-0.07320749
-3.6807084	الْآيَاتِ	-0.22014791
-3.481583	لِقَوْمٍ	-0.3427195
-4.1737366	أَرْسَلْنَاكَ	-0.11067356
-4.3296957	بَشِيرًا	-0.30809534
-4.3296957	وَنَذِيرًا	-0.11067356
-4.6152925	تُسْأَلُ	-0.07320749
-4.1737366	أَصْحَابِ	-0.13069282
-3.7249968	الْجَحِيمِ	-0.8309741
-4.446117	تَرْضَى	-0.07320749
-3.8299716	عَنْكَ	-0.07320749
-4.6152925	تَتَّبِعَ	-0.07320749
-4.6152925	مِلَّتَهُمْ	-0.07320749
-4.3296957	هُدَى	-0.30809534
-3.5698318	الْهُدَى	-0.09993093
-4.3296957	وَلَئِنِ	-0.30809534
-4.6152925	اتَّبَعْتَ	-0.07320749
-3.9686933	أَهْوَاءَهُمْ	-0.07320749
-3.0780547	بَعْدَ	-0.26350114
-3.7743201	جَاءَكَ	-0.18408738
-4.3296957	الْعِلْمِ	-0.07320746
-4.3296957	آتَيْنَاهُمُ	-0.30809534
-4.6152925	يَتْلُونَهُ	-0.07320749
-3.7249968	حَقَّ	-0.13631669
-4.6152925	تِلَاوَتِهِ	-0.07320749
-4.3296957	يَكْفُرْ	-0.07320752
-4.6152925	تَنْفَعُهَا	-0.07320749
-4.6152925	ابْتَلَى	-0.07320749
-3.1847596	إِبْرَاهِيمَ	-0.14250067
-3.7743201	رَبُّهُ	-0.07320746
-4.6152925	بِكَلِمَاتٍ	-0.07320749
-4.6152925	فَأَتَمَّهُنَّ	-0.07320749
-4.6152925	جَاعِلُكَ	-0.07320749
-4.3296957	إِمَامًا	-0.07320749
-3.1462042	وَمِنْ	-0.12442763
-4.3296957	ذُرِّيَّتِي	-0.07320749
-4.6152925	يَنَالُ	-0.07320749
-4.6152925	عَهْدِي	-0.07320749
-3.509054	جَعَلْنَا	-0.093848675
-4.1737366	الْبَيْتَ	-0.13069282
-4.6152925	مَثَابَةً	-0.07320749
-4.6152925	وَأَمْنًا	-0.07320749
-4.6152925	وَاتَّخِذُوا	-0.07320749
-4.6152925	مَقَامِ	-0.07320749
-4.6152925	مُصَلًّى	-0.07320749
-4.6152925	وَعَهِدْنَا	-0.07320749
-4.446117	وَإِسْمَاعِيلَ	-0.07320749
-4.6152925	طَهِّرَا	-0.07320749
-4.3296957	بَيْتِيَ	-0.15167965
-4.6152925	لِلطَّائِفِينَ	-0.07320749
-4.6152925	وَالْعَاكِفِينَ	-0.07320749
-4.446117	وَالرُّكَّعِ	-0.19696505
-4.1737366	السُّجُودِ	-0.1185709
-3.9686933	إِبْرَاهِيمُ	-0.0932419
-4.3296957	اجْعَلْ	-0.07320749
-4.6152925	بَلَدًا	-0.07320749
-4.0592246	آمِنًا	-0.07320749
-4.6152925	وَارْزُقْ	-0.07320749
-4.1737366	أَهْلَهُ	-0.13069282
-4.6152925	فَأُمَتِّعُهُ	-0.07320749
-4.6152925	أَضْطَرُّهُ	-0.07320749
-4.1737366	عَذَابِ	-0.09153662
-3.7743201	وَبِئْسَ	-0.31866136
-3.7249968	الْمَصِيرُ	-0.8309741
-4.6152925	يَرْفَعُ	-0.07320749
-4.6152925	الْقَوَاعِدَ	-0.07320749
-3.893817	الْبَيْتِ	-0.07320749
-4.6152925	وَإِسْمَاعِيلُ	-0.07320749
-3.134077	رَبَّنَا	-0.16284536
-4.6152925	تَقَبَّلْ	-0.07320749
-3.2907877	مِنَّا	-0.10479852
-4.3296957	السَّمِيعُ	-0.2601811
-4.446117	وَاجْعَلْنَا	-0.07320749
-4.6152925	مُسْلِمَيْنِ	-0.07320749
-4.6152925	ذُرِّيَّتِنَا	-0.07320749
-3.6807084	أُمَّةً	-0.28550485
-4.6152925	مُسْلِمَةً	-0.07320749
-4.6152925	وَأَرِنَا	-0.07320749
-4.6152925	مَنَاسِكَنَا	-0.07320749
-4.6152925	وَتُبْ	-0.07320749
-4.446117	وَابْعَثْ	-0.07320749
-3.509054	فِيهِمْ	-0.123486824
-3.481583	رَسُولًا	-0.19002154
-4.0592246	يَتْلُو	-0.22288337
-4.446117	آيَاتِكَ	-0.07320749
-4.446117	وَيُعَلِّمُهُمُ	-0.19696505
-4.446117	وَالْحِكْمَةَ	-0.07320752
-4.446117	وَيُزَكِّيهِمْ	-0.07320749
-3.6807084	الْعَزِيزُ	-0.27726868
-4.6152925	يَرْغَبُ	-0.07320749
-4.6152925	مِلَّةِ	-0.07320749
-4.6152925	سَفِهَ	-0.07320749
-4.0592246	نَفْسَهُ	-0.07320752
-4.446117	وَلَقَدِ	-0.07320749
-4.6152925	اصْطَفَيْنَاهُ	-0.07320749
-3.6807084	وَإِنَّهُ	-0.109187
-3.481583	لَمِنَ	-0.18541652
-3.893817	الصَّالِحِينَ	-0.6760721
-2.8115504	إِذْ	-0.14845458
-4.6152925	أَسْلِمْ	-0.07320749
-4.446117	أَسْلَمْتُ	-0.07320749
-4.1737366	لِرَبِّ	-0.4330341
-4.6152925	وَوَصَّى	-0.07320749
-4.6152925	بَنِيهِ	-0.07320749
-4.6152925	وَيَعْقُوبُ	-0.07320749
-4.6152925	بَنِيَّ	-0.07320749
-4.446117	اصْطَفَى	-0.07320749
-4.0592246	الدِّينَ	-0.07320749
-4.446117	تَمُوتُنَّ	-0.19696505
-3.9686933	مُسْلِمُونَ	-0.6091253
-3.8299716	شُهَدَاءَ	-0.09782241
-4.3296957	حَضَرَ	-0.07320749
-4.1737366	يَعْقُوبَ	-0.07320746
-3.893817	الْمَوْتُ	-0.07320746
-4.6152925	لِبَنِيهِ	-0.07320749
-4.6152925	بَعْدِي	-0.07320749
-4.6152925	إِلَهَكَ	-0.07320749
-4.6152925	وَإِلَهَ	-0.07320749
-4.6152925	آبَائِكَ	-0.07320749
-4.3296957	وَإِسْحَاقَ	-0.16923133
-3.8299716	إِلَهًا	-0.14720213
-4.3296957	وَاحِدًا	-0.07320746
-3.7743201	أُمَّةٌ	-0.09782241
-4.446117	خَلَتْ	-0.1185709
-3.1586795	لَهَا	-0.09965514
-4.1737366	كَسَبَتْ	-0.09009893
-4.6152925	كَسَبْتُمْ	-0.07320749
-4.1737366	تُسْأَلُونَ	-0.19696505
-4.446117	تَهْتَدُوا	-0.07320749
-3.8299716	مِلَّةَ	-0.29990014
-4.0592246	حَنِيفًا	-0.10511928
-4.446117	قُولُوا	-0.07320749
-3.5698318	إِلَيْنَا	-0.09931473
-4.446117	وَيَعْقُوبَ	-0.07320749
-4.6152925	وَالْأَسْبَاطِ	-0.07320749
-3.893817	أُوتِيَ	-0.15670897
-4.0592246	وَعِيسَى	-0.10511928
-4.446117	النَّبِيُّونَ	-0.07320749
-4.6152925	نُفَرِّقُ	-0.07320749
-4.0592246	بِمِثْلِ	-0.33335668
-3.9686933	آمَنْتُمْ	-0.27770278
-3.9686933	فَقَدِ	-0.13956326
-4.3296957	اهْتَدَوْا	-0.07320749
-3.893817	تَوَلَّوْا	-0.100999735
-4.446117	شِقَاقٍ	-0.15167965
-4.6152925	فَسَيَكْفِيكَهُمُ	-0.07320749
-4.6152925	صِبْغَةَ	-0.07320749
-3.9686933	أَحْسَنُ	-0.09153662
-4.6152925	صِبْغَةً	-0.07320749
-4.3296957	عَابِدُونَ	-0.15167965
-4.6152925	أَتُحَاجُّونَنَا	-0.07320749
-3.5698318	رَبُّنَا	-0.100999735
-4.446117	وَرَبُّكُمْ	-0.07320749
-4.6152925	وَلَنَا	-0.07320749
-4.446117	أَعْمَالُنَا	-0.19696505
-4.446117	أَعْمَالُكُمْ	-0.07320749
-4.6152925	مُخْلِصُونَ	-0.07320749
-4.6152925	وَالْأَسْبَاطَ	-0.07320749
-4.3296957	أَأَنْتُمْ	-0.07320752
-3.893817	أَمِ	-0.13069282
-4.6152925	كَتَمَ	-0.07320749
-4.3296957	شَهَادَةً	-0.07320749
-3.60374	عِنْدَهُ	-0.11298147
-4.6152925	سَيَقُولُ	-0.07320749
-4.6152925	وَلَّاهُمْ	-0.07320749
-4.6152925	قِبْلَتِهِمُ	-0.07320749
-3.0996044	عَلَيْهَا	-0.0831092
-3.5383806	يَهْدِي	-0.26771826
-4.3296957	صِرَاطٍ	-0.15167965
-4.3296957	مُسْتَقِيمٍ	-0.23644666
-3.60374	وَكَذَلِكَ	-0.14542593
-4.446117	جَعَلْنَاكُمْ	-0.07320749
-4.6152925	وَسَطًا	-0.07320749
-4.446117	لِتَكُونُوا	-0.07320749
-4.446117	وَيَكُونَ	-0.07320749
-3.6405213	الرَّسُولُ	-0.09009893
-3.6807084	شَهِيدًا	-0.18916138
-4.6152925	الْقِبْلَةَ	-0.07320749
-3.60374	كُنْتَ	-0.109187
-4.446117	لِنَعْلَمَ	-0.07320749
-4.446117	يَتَّبِعُ	-0.07320749
-3.6405213	الرَّسُولَ	-0.08688133
-4.6152925	يَنْقَلِبُ	-0.07320749
-4.6152925	عَقِبَيْهِ	-0.07320749
-4.6152925	لَكَبِيرَةً	-0.07320749
-4.0592246	هَدَى	-0.16923133
-4.6152925	لِيُضِيعَ	-0.07320749
-4.6152925	إِيمَانَكُمْ	-0.07320749
-4.446117	بِالنَّاسِ	-0.07320749
-4.3296957	لَرَءُوفٌ	-0.30809534
-3.9686933	رَحِيمٌ	-0.41253793
-4.6152925	تَقَلُّبَ	-0.07320749
-4.6152925	وَجْهِكَ	-0.07320749
-4.6152925	فَلَنُوَلِّيَنَّكَ	-0.07320749
-4.446117	قِبْلَةً	-0.07320749
-4.6152925	تَرْضَاهَا	-0.07320749
-4.446117	فَوَلِّ	-0.19696505
-4.3296957	وَجْهَكَ	-0.15167965
-4.6152925	شَطْرَ	-0.07320749
-3.893817	الْمَسْجِدِ	-0.47948474
-4.0592246	الْحَرَامِ	-0.07320749
-4.6152925	وَحَيْثُ	-0.07320749
-4.6152925	فَوَلُّوا	-0.07320749
-4.0592246	وُجُوهَكُمْ	-0.07320746
-4.6152925	شَطْرَهُ	-0.07320749
-4.6152925	لَيَعْلَمُونَ	-0.07320749
-3.6807084	وَلَئِنْ	-0.07320749
-4.6152925	أَتَيْتَ	-0.07320749
-4.6152925	تَبِعُوا	-0.07320749
-4.6152925	قِبْلَتَكَ	-0.07320749
-4.446117	بِتَابِعٍ	-0.07320749
-4.6152925	قِبْلَتَهُمْ	-0.07320749
-4.6152925	قِبْلَةَ	-0.07320749
-3.455747	إِذًا	-0.1468004
-4.6152925	يَعْرِفُونَهُ	-0.07320749
-4.3296957	يَعْرِفُونَ	-0.07320749
-4.1737366	أَبْنَاءَهُمْ	-0.07320749
-4.6152925	لَيَكْتُمُونَ	-0.07320749
-3.088696	رَبِّكَ	-0.10937853
-4.446117	تَكُونَنَّ	-0.15167965
-4.6152925	الْمُمْتَرِينَ	-0.07320749
-4.6152925	وَلِكُلٍّ	-0.07320749
-4.6152925	وِجْهَةٌ	-0.07320749
-4.6152925	مُوَلِّيهَا	-0.07320749
-4.446117	فَاسْتَبِقُوا	-0.19696505
-4.3296957	الْخَيْرَاتِ	-0.07320752
-3.6405213	أَيْنَ	-0.35644993
-3.7743201	يَأْتِ	-0.07320746
-4.6152925	خَرَجْتَ	-0.07320749
-4.6152925	لَلْحَقُّ	-0.07320749
-4.3296957	لِئَلَّا	-0.15167965
-4.0592246	يَكُونَ	-0.07320749
-4.446117	حُجَّةٌ	-0.07320749
-4.6152925	تَخْشَوْهُمْ	-0.07320749
-4.6152925	وَاخْشَوْنِي	-0.07320749
-4.6152925	وَلِأُتِمَّ	-0.07320749
-4.3296957	نِعْمَتِي	-0.07320749
-4.0592246	وَلَعَلَّكُمْ	-0.1185709
-3.5698318	أَرْسَلْنَا	-0.1932989
-3.7249968	فِيكُمْ	-0.0932419
-3.7743201	آيَاتِنَا	-0.07320746
-4.6152925	وَيُزَكِّيكُمْ	-0.07320749
-4.446117	وَيُعَلِّمُكُمُ	-0.07320749
-4.6152925	وَيُعَلِّمُكُمْ	-0.07320749
-4.6152925	فَاذْكُرُونِي	-0.07320749
-4.6152925	أَذْكُرْكُمْ	-0.07320749
-4.0592246	وَاشْكُرُوا	-0.1185709
-3.088696	لِي	-0.10939205
-4.6152925	تَكْفُرُونِ	-0.07320749
-4.446117	اسْتَعِينُوا	-0.07320749
-3.9686933	الصَّابِرِينَ	-0.41253793
-3.1586795	لِمَنْ	-0.20866822
-4.6152925	يُقْتَلُ	-0.07320749
-4.0592246	سَبِيلِ	-0.1749614
-4.446117	أَمْوَاتٌ	-0.07320749
-4.6152925	أَحْيَاءٌ	-0.07320749
-4.446117	تَشْعُرُونَ	-0.19696505
-4.6152925	وَلَنَبْلُوَنَّكُمْ	-0.07320749
-3.9686933	بِشَيْءٍ	-0.11067356
-4.446117	الْخَوْفِ	-0.07320749
-4.6152925	وَالْجُوعِ	-0.07320749
-4.446117	وَنَقْصٍ	-0.19696505
-4.446117	الْأَمْوَالِ	-0.07320749
-4.6152925	وَالْأَنْفُسِ	-0.07320749
-4.6152925	وَالثَّمَرَاتِ	-0.07320749
-2.7015398	إِذَا	-0.15304942
-4.6152925	أَصَابَتْهُمْ	-0.07320749
-4.1737366	مُصِيبَةٌ	-0.11067356
-4.6152925	صَلَوَاتٌ	-0.07320749
-3.8299716	وَرَحْمَةٌ	-0.15670897
-4.6152925	الْمُهْتَدُونَ	-0.07320749
-4.6152925	الصَّفَا	-0.07320749
-4.6152925	وَالْمَرْوَةَ	-0.07320749
-4.6152925	شَعَائِرِ	-0.07320749
-4.6152925	حَجَّ	-0.07320749
-3.509054	أَوِ	-0.07320749
-4.6152925	اعْتَمَرَ	-0.07320749
-4.3296957	جُنَاحَ	-0.15888241
-4.6152925	يَطَّوَّفَ	-0.07320749
-4.3296957	بِهِمَا	-0.07320749
-4.446117	تَطَوَّعَ	-0.19696505
-3.2270746	خَيْرًا	-0.12534043
-4.6152925	شَاكِرٌ	-0.07320749
-4.1737366	يَكْتُمُونَ	-0.13069282
-4.6152925	وَالْهُدَى	-0.07320749
-4.6152925	بَيَّنَّاهُ	-0.07320749
-4.6152925	يَلْعَنُهُمُ	-0.07320749
-4.6152925	وَيَلْعَنُهُمُ	-0.07320749
-4.6152925	اللَّاعِنُونَ	-0.07320749
-4.1737366	تَابُوا	-0.1185709
-4.446117	وَأَصْلَحُوا	-0.07320749
-4.6152925	وَبَيَّنُوا	-0.07320749
-4.6152925	أَتُوبُ	-0.07320749
-3.481583	وَأَنَا	-0.11298147
-4.3296957	وَمَاتُوا	-0.30809534
-4.6152925	كُفَّارٌ	-0.07320749
-4.3296957	لَعْنَةُ	-0.30809534
-4.3296957	وَالْمَلَائِكَةِ	-0.07320749
-4.446117	وَالنَّاسِ	-0.19696505
-3.481583	أَجْمَعِينَ	-1.0614231
-3.7743201	خَالِدِينَ	-0.35297823
-4.446117	يُنْظَرُونَ	-0.19696505
-4.446117	وَإِلَهُكُمْ	-0.07320749
-3.6807084	إِلَهٌ	-0.31866136
-4.446117	وَاحِدٌ	-0.07320749
-4.6152925	إِلَهَ	-0.07320749
-3.5698318	الرَّحْمَنُ	-0.07320746
-4.446117	خَلْقِ	-0.07320749
-4.446117	وَاخْتِلَافِ	-0.19696505
-3.5383806	اللَّيْلِ	-0.15062313
-4.3296957	وَالنَّهَارِ	-0.07320749
-4.6152925	وَالْفُلْكِ	-0.07320749
-4.3296957	الْبَحْرِ	-0.07320749
-4.1737366	يَنْفَعُ	-0.10511928
-4.6152925	مَاءٍ	-0.07320749
-4.3296957	فَأَحْيَا	-0.30809534
-4.3296957	مَوْتِهَا	-0.07320749
-4.3296957	وَبَثَّ	-0.15167965
-4.3296957	دَابَّةٍ	-0.07320746
-4.446117	وَتَصْرِيفِ	-0.19696505
-4.6152925	الرِّيَاحِ	-0.07320749
-4.6152925	وَالسَّحَابِ	-0.07320749
-4.6152925	الْمُسَخَّرِ	-0.07320749
-4.1737366	لَآيَاتٍ	-0.14841872
-3.9686933	يَعْقِلُونَ	-0.24190821
-4.6152925	يَتَّخِذُ	-0.07320749
-4.6152925	يُحِبُّونَهُمْ	-0.07320749
-4.6152925	كَحُبِّ	-0.07320749
-4.3296957	حُبًّا	-0.07320749
-4.0592246	يَرَى	-0.33335668
-3.9686933	يَرَوْنَ	-0.100999735
-3.481583	الْعَذَابَ	-0.0932419
-4.6152925	الْقُوَّةَ	-0.07320749
-3.2421482	وَأَنَّ	-0.4149531
-4.0592246	شَدِيدُ	-0.1749614
-4.446117	تَبَرَّأَ	-0.07320749
-4.6152925	اتُّبِعُوا	-0.07320749
-4.1737366	اتَّبَعُوا	-0.07320746
-4.446117	وَرَأَوُا	-0.19696505
-4.6152925	وَتَقَطَّعَتْ	-0.07320749
-4.0592246	بِهِمُ	-0.1185709
-4.6152925	الْأَسْبَابُ	-0.07320749
-4.446117	كَرَّةً	-0.07320749
-4.6152925	فَنَتَبَرَّأَ	-0.07320749
-4.6152925	تَبَرَّءُوا	-0.07320749
-4.6152925	يُرِيهِمُ	-0.07320749
-3.6405213	أَعْمَالَهُمْ	-0.21802115
-4.446117	حَسَرَاتٍ	-0.07320749
-4.6152925	بِخَارِجِينَ	-0.07320749
-4.3296957	حَلَالًا	-0.30809534
-4.446117	طَيِّبًا	-0.07320749
-4.3296957	تَتَّبِعُوا	-0.11067356
-4.446117	خُطُوَاتِ	-0.19696505
-3.7743201	الشَّيْطَانِ	-0.08780838
-3.4082735	مُبِينٌ	-1.132004
-4.1737366	بِالسُّوءِ	-0.07320749
-4.6152925	وَالْفَحْشَاءِ	-0.07320749
-3.509054	وَأَنْ	-0.0932419
-4.1737366	اتَّبِعُوا	-0.1185709
-4.446117	نَتَّبِعُ	-0.07320749
-4.6152925	أَلْفَيْنَا	-0.07320749
-4.1737366	آبَاءَنَا	-0.07320752
-4.3296957	أَوَلَوْ	-0.07320746
-4.3296957	آبَاؤُهُمْ	-0.07320749
-4.0592246	يَهْتَدُونَ	-0.41253793
-4.6152925	وَمَثَلُ	-0.07320749
-4.6152925	يَنْعِقُ	-0.07320749
-4.1737366	يَسْمَعُ	-0.07320746
-4.6152925	دُعَاءً	-0.07320749
-4.6152925	وَنِدَاءً	-0.07320749
-4.1737366	إِيَّاهُ	-0.11067356
-3.893817	حَرَّمَ	-0.12573987
-4.6152925	الْمَيْتَةَ	-0.07320749
-4.446117	وَالدَّمَ	-0.07320749
-4.6152925	وَلَحْمَ	-0.07320749
-4.446117	الْخِنْزِيرِ	-0.19696505
-4.446117	أُهِلَّ	-0.15167965
-4.446117	لِغَيْرِ	-0.19696505
-3.6405213	فَمَنِ	-0.22146562
-4.6152925	اضْطُرَّ	-0.07320749
-4.6152925	بَاغٍ	-0.07320749
-3.9686933	عَادٍ	-0.10511928
-4.6152925	إِثْمَ	-0.07320749
-3.6405213	غَفُورٌ	-0.4362724
-4.6152925	وَيَشْتَرُونَ	-0.07320749
-3.9686933	يَأْكُلُونَ	-0.13956326
-4.6152925	بُطُونِهِمْ	-0.07320749
-4.6152925	يُكَلِّمُهُمُ	-0.07320749
-4.6152925	يُزَكِّيهِمْ	-0.07320749
-4.6152925	وَالْعَذَابَ	-0.07320749
-4.6152925	بِالْمَغْفِرَةِ	-0.07320749
-4.6152925	أَصْبَرَهُمْ	-0.07320749
-3.9686933	بِأَنَّ	-0.13069282
-3.8299716	نَزَّلَ	-0.1185709
-3.9686933	اخْتَلَفُوا	-0.21687435
-3.3455698	لَفِي	-0.23589024
-4.1737366	بَعِيدٍ	-0.27770278
-3.3863509	لَيْسَ	-0.19386461
-4.3296957	الْبِرَّ	-0.07320749
-4.446117	قِبَلَ	-0.07320749
-4.3296957	الْمَشْرِقِ	-0.15167965
-4.6152925	وَالْمَغْرِبِ	-0.07320749
-4.0592246	وَالْكِتَابِ	-0.1185709
-4.3296957	وَالنَّبِيِّينَ	-0.07320749
-4.446117	وَآتَى	-0.07320749
-4.446117	الْمَالَ	-0.07320749
-4.6152925	حُبِّهِ	-0.07320749
-4.6152925	ذَوِي	-0.07320749
-4.446117	وَالْمَسَاكِينَ	-0.07320749
-4.446117	وَابْنَ	-0.19696505
-4.6152925	وَالسَّائِلِينَ	-0.07320749
-4.446117	الرِّقَابِ	-0.07320749
-4.446117	وَأَقَامَ	-0.19696505
-4.6152925	وَالْمُوفُونَ	-0.07320749
-4.6152925	بِعَهْدِهِمْ	-0.07320749
-4.1737366	وَالصَّابِرِينَ	-0.07320749
-4.6152925	الْبَأْسَاءِ	-0.07320749
-4.3296957	وَالضَّرَّاءِ	-0.07320749
-4.0592246	وَحِينَ	-0.07320746
-4.6152925	الْبَأْسِ	-0.07320749
-4.3296957	صَدَقُوا	-0.07320746
-4.3296957	الْمُتَّقُونَ	-0.07320746
-3.8299716	كُتِبَ	-0.15670897
-4.6152925	الْقِصَاصُ	-0.07320749
-4.6152925	الْقَتْلَى	-0.07320749
-4.6152925	الْحُرُّ	-0.07320749
-4.6152925	بِالْحُرِّ	-0.07320749
-4.6152925	وَالْعَبْدُ	-0.07320749
-4.6152925	بِالْعَبْدِ	-0.07320749
-4.446117	وَالْأُنْثَى	-0.07320749
-4.446117	بِالْأُنْثَى	-0.07320749
-4.6152925	عُفِيَ	-0.07320749
-3.8299716	أَخِيهِ	-0.09529717
-3.7249968	شَيْءٌ	-0.07320749
-4.6152925	فَاتِّبَاعٌ	-0.07320749
-3.431362	بِالْمَعْرُوفِ	-0.1151507
-4.6152925	وَأَدَاءٌ	-0.07320749
-4.3296957	بِإِحْسَانٍ	-0.07320749
-4.6152925	تَخْفِيفٌ	-0.07320749
-4.446117	اعْتَدَى	-0.15167965
-4.6152925	الْقِصَاصِ	-0.07320749
-4.6152925	حَيَاةٌ	-0.07320749
-3.6405213	أُولِي	-0.09009893
-4.3296957	الْأَلْبَابِ	-0.1749614
-4.3296957	أَحَدَكُمُ	-0.30809534
-4.3296957	تَرَكَ	-0.09529717
-4.6152925	الْوَصِيَّةُ	-0.07320749
-4.6152925	لِلْوَالِدَيْنِ	-0.07320749
-4.3296957	وَالْأَقْرَبِينَ	-0.07320749
-3.7249968	حَقًّا	-0.08887035
-3.6405213	الْمُتَّقِينَ	-0.3929656
-4.6152925	بَدَّلَهُ	-0.07320749
-4.3296957	بَعْدَمَا	-0.07320749
-4.6152925	سَمِعَهُ	-0.07320749
-4.6152925	إِثْمُهُ	-0.07320749
-4.6152925	يُبَدِّلُونَهُ	-0.07320749
-4.3296957	سَمِيعٌ	-0.19852152
-4.1737366	خَافَ	-0.1185709
-4.6152925	مُوصٍ	-0.07320749
-4.6152925	جَنَفًا	-0.07320749
-3.9686933	إِثْمًا	-0.07320752
-4.6152925	فَأَصْلَحَ	-0.07320749
-4.6152925	الصِّيَامُ	-0.07320749
-4.446117	مَعْدُودَاتٍ	-0.15167965
-4.446117	مَرِيضًا	-0.19696505
-4.6152925	سَفَرٍ	-0.07320749
-4.6152925	فَعِدَّةٌ	-0.07320749
-3.893817	أَيَّامٍ	-0.09009893
-4.6152925	أُخَرَ	-0.07320749
-4.6152925	يُطِيقُونَهُ	-0.07320749
-4.446117	فِدْيَةٌ	-0.07320749
-4.3296957	طَعَامُ	-0.07320749
-4.6152925	مِسْكِينٍ	-0.07320749
-3.3455698	فَهُوَ	-0.15062313
-4.6152925	تَصُومُوا	-0.07320749
-4.6152925	شَهْرُ	-0.07320749
-4.6152925	رَمَضَانَ	-0.07320749
-3.9686933	الْقُرْآنُ	-0.07320749
-4.6152925	وَبَيِّنَاتٍ	-0.07320749
-4.6152925	وَالْفُرْقَانِ	-0.07320749
-4.1737366	شَهِدَ	-0.07320749
-4.446117	مِنْكُمُ	-0.07320749
-4.446117	الشَّهْرَ	-0.07320749
-4.6152925	فَلْيَصُمْهُ	-0.07320749
-3.481583	يُرِيدُ	-0.26273474
-4.6152925	الْيُسْرَ	-0.07320749
-4.6152925	الْعُسْرَ	-0.07320749
-4.6152925	وَلِتُكْمِلُوا	-0.07320749
-4.446117	الْعِدَّةَ	-0.07320749
-4.6152925	وَلِتُكَبِّرُوا	-0.07320749
-4.3296957	هَدَاكُمْ	-0.07320749
-4.6152925	سَأَلَكَ	-0.07320749
-3.893817	عِبَادِي	-0.07320752
-3.9686933	عَنِّي	-0.07320749
-3.9686933	فَإِنِّي	-0.07320749
-3.893817	قَرِيبٌ	-0.21687435
-4.6152925	أُجِيبُ	-0.07320749
-4.6152925	دَعْوَةَ	-0.07320749
-4.3296957	الدَّاعِ	-0.07320749
-4.6152925	دَعَانِ	-0.07320749
-4.446117	فَلْيَسْتَجِيبُوا	-0.07320749
-4.6152925	وَلْيُؤْمِنُوا	-0.07320749
-3.7249968	بِي	-0.114245474
-3.2125068	لَعَلَّهُمْ	-0.3090708
-4.6152925	يَرْشُدُونَ	-0.07320749
-4.1737366	أُحِلَّ	-0.13069282
-4.6152925	لَيْلَةَ	-0.07320749
-4.6152925	الصِّيَامِ	-0.07320749
-4.6152925	الرَّفَثُ	-0.07320749
-4.3296957	نِسَائِكُمْ	-0.07320749
-3.9686933	هُنَّ	-0.07320752
-4.446117	لِبَاسٌ	-0.07320749
-3.60374	لَهُنَّ	-0.10767396
-3.6807084	أَنَّكُمْ	-0.10511928
-4.6152925	تَخْتَانُونَ	-0.07320749
-4.6152925	وَعَفَا	-0.07320749
-4.6152925	فَالْآنَ	-0.07320749
-4.6152925	بَاشِرُوهُنَّ	-0.07320749
-4.3296957	وَابْتَغُوا	-0.07320749
-3.893817	كَتَبَ	-0.24190821
-4.0592246	وَكُلُوا	-0.1185709
-4.6152925	يَتَبَيَّنَ	-0.07320749
-4.6152925	الْخَيْطُ	-0.07320749
-4.6152925	الْأَبْيَضُ	-0.07320749
-4.6152925	الْخَيْطِ	-0.07320749
-4.6152925	الْأَسْوَدِ	-0.07320749
-4.0592246	الْفَجْرِ	-0.07320746
-4.6152925	أَتِمُّوا	-0.07320749
-4.6152925	الصِّيَامَ	-0.07320749
-4.6152925	تُبَاشِرُوهُنَّ	-0.07320749
-4.446117	عَاكِفُونَ	-0.07320749
-4.6152925	الْمَسَاجِدِ	-0.07320749
-4.446117	حُدُودُ	-0.19696505
-4.6152925	تَقْرَبُوهَا	-0.07320749
-4.3296957	يُبَيِّنُ	-0.15167965
-3.7743201	يَتَّقُونَ	-0.28550485
-4.1737366	تَأْكُلُوا	-0.13069282
-4.446117	أَمْوَالَكُمْ	-0.07320749
-3.481583	بَيْنَكُمْ	-0.0964915
-4.6152925	وَتُدْلُوا	-0.07320749
-4.6152925	الْحُكَّامِ	-0.07320749
-4.446117	لِتَأْكُلُوا	-0.07320749
-4.446117	أَمْوَالِ	-0.19696505
-4.446117	يَسْأَلُونَكَ	-0.07320749
-2.992464	عَنِ	-0.1915057
-4.6152925	الْأَهِلَّةِ	-0.07320749
-4.6152925	مَوَاقِيتُ	-0.07320749
-4.6152925	وَالْحَجِّ	-0.07320749
-4.0592246	وَلَيْسَ	-0.07320746
-4.6152925	الْبِرُّ	-0.07320749
-4.446117	بِأَنْ	-0.07320749
-4.6152925	تَأْتُوا	-0.07320749
-4.446117	الْبُيُوتَ	-0.19696505
-4.6152925	ظُهُورِهَا	-0.07320749
-3.509054	مَنِ	-0.13136025
-4.1737366	اتَّقَى	-0.07320746
-4.6152925	وَأْتُوا	-0.07320749
-4.6152925	أَبْوَابِهَا	-0.07320749
-4.6152925	تُفْلِحُونَ	-0.07320749
-4.446117	وَقَاتِلُوا	-0.07320749
-4.1737366	يُقَاتِلُونَكُمْ	-0.07320749
-4.446117	تَعْتَدُوا	-0.07320749
-4.3296957	يُحِبُّ	-0.08358638
-4.446117	الْمُعْتَدِينَ	-0.19696505
-4.446117	وَاقْتُلُوهُمْ	-0.19696505
-4.6152925	ثَقِفْتُمُوهُمْ	-0.07320749
-4.6152925	وَأَخْرِجُوهُمْ	-0.07320749
-4.6152925	أَخْرَجُوكُمْ	-0.07320749
-4.446117	وَالْفِتْنَةُ	-0.07320749
-4.3296957	الْقَتْلِ	-0.07320749
-4.6152925	تُقَاتِلُوهُمْ	-0.07320749
-4.0592246	يُقَاتِلُوكُمْ	-0.07320746
-4.446117	قَاتَلُوكُمْ	-0.07320749
-4.6152925	فَاقْتُلُوهُمْ	-0.07320749
-3.9686933	فَإِنِ	-0.10511928
-4.6152925	انْتَهَوْا	-0.07320749
-4.6152925	وَقَاتِلُوهُمْ	-0.07320749
-4.0592246	تَكُونَ	-0.114245474
-4.1737366	الدِّينُ	-0.07320746
-4.6152925	عُدْوَانَ	-0.07320749
-4.6152925	الشَّهْرُ	-0.07320749
-4.6152925	الْحَرَامُ	-0.07320749
-4.6152925	بِالشَّهْرِ	-0.07320749
-4.6152925	وَالْحُرُمَاتُ	-0.07320749
-4.446117	قِصَاصٌ	-0.07320749
-4.6152925	فَاعْتَدُوا	-0.07320749
-3.6807084	وَاعْلَمُوا	-0.5586755
-4.3296957	وَأَنْفِقُوا	-0.07320749
-4.6152925	تُلْقُوا	-0.07320749
-4.446117	بِأَيْدِيكُمْ	-0.07320749
-4.6152925	التَّهْلُكَةِ	-0.07320749
-4.6152925	وَأَحْسِنُوا	-0.07320749
-4.6152925	وَأَتِمُّوا	-0.07320749
-4.446117	الْحَجَّ	-0.07320749
-4.6152925	وَالْعُمْرَةَ	-0.07320749
-4.6152925	أُحْصِرْتُمْ	-0.07320749
-4.6152925	اسْتَيْسَرَ	-0.07320749
-4.6152925	الْهَدْيِ	-0.07320749
-4.6152925	تَحْلِقُوا	-0.07320749
-4.446117	رُءُوسَكُمْ	-0.07320749
-4.446117	يَبْلُغَ	-0.07320749
-4.6152925	الْهَدْيُ	-0.07320749
-4.446117	مَحِلَّهُ	-0.07320749
-3.893817	أَذًى	-0.10511928
-4.446117	رَأْسِهِ	-0.07320749
-4.6152925	فَفِدْيَةٌ	-0.07320749
-4.6152925	صِيَامٍ	-0.07320749
-4.446117	صَدَقَةٍ	-0.07320749
-4.6152925	نُسُكٍ	-0.07320749
-2.9673119	فَإِذَا	-0.22122917
-4.446117	أَمِنْتُمْ	-0.07320749
-4.6152925	تَمَتَّعَ	-0.07320749
-4.6152925	بِالْعُمْرَةِ	-0.07320749
-4.3296957	الْحَجِّ	-0.07320749
-4.1737366	يَجِدْ	-0.13069282
-4.6152925	فَصِيَامُ	-0.07320749
-4.6152925	ثَلَاثَةِ	-0.07320749
-4.6152925	وَسَبْعَةٍ	-0.07320749
-4.6152925	رَجَعْتُمْ	-0.07320749
-4.6152925	عَشَرَةٌ	-0.07320749
-4.6152925	كَامِلَةٌ	-0.07320749
-3.7249968	يَكُنْ	-0.1604154
-4.6152925	أَهْلُهُ	-0.07320749
-4.6152925	حَاضِرِي	-0.07320749
-4.0592246	الْعِقَابِ	-0.15167965
-4.6152925	الْحَجُّ	-0.07320749
-4.6152925	أَشْهُرٌ	-0.07320749
-4.6152925	مَعْلُومَاتٌ	-0.07320749
-4.1737366	فَرَضَ	-0.13069282
-3.893817	فِيهِنَّ	-0.07320749
-4.6152925	رَفَثَ	-0.07320749
-4.6152925	فُسُوقَ	-0.07320749
-4.6152925	جِدَالَ	-0.07320749
-4.446117	يَعْلَمْهُ	-0.19696505
-4.6152925	وَتَزَوَّدُوا	-0.07320749
-4.1737366	خَيْرَ	-0.07320749
-4.6152925	الزَّادِ	-0.07320749
-3.9686933	التَّقْوَى	-0.07320749
-4.6152925	وَاتَّقُونِ	-0.07320749
-4.1737366	جُنَاحٌ	-0.15167965
-4.6152925	تَبْتَغُوا	-0.07320749
-3.9686933	فَضْلًا	-0.2560682
-4.446117	أَفَضْتُمْ	-0.07320749
-4.6152925	عَرَفَاتٍ	-0.07320749
-3.893817	فَاذْكُرُوا	-0.2898302
-4.6152925	الْمَشْعَرِ	-0.07320749
-4.6152925	وَاذْكُرُوهُ	-0.07320749
-4.446117	قَبْلِهِ	-0.07320749
-4.446117	أَفِيضُوا	-0.07320749
-4.6152925	أَفَاضَ	-0.07320749
-4.3296957	وَاسْتَغْفِرُوا	-0.15167965
-4.6152925	قَضَيْتُمْ	-0.07320749
-4.6152925	مَنَاسِكَكُمْ	-0.07320749
-4.6152925	كَذِكْرِكُمْ	-0.07320749
-4.3296957	آبَاءَكُمْ	-0.07320749
-3.893817	أَشَدَّ	-0.19835466
-3.7743201	ذِكْرًا	-0.35105267
-4.3296957	فَمِنَ	-0.15167965
-4.446117	آتِنَا	-0.07320749
-4.0592246	حَسَنَةً	-0.07320752
-4.446117	وَقِنَا	-0.19696505
-3.3863509	عَذَابَ	-0.21599048
-4.0592246	نَصِيبٌ	-0.1749614
-4.1737366	كَسَبُوا	-0.07320752
-4.1737366	سَرِيعُ	-0.23644666
-3.893817	الْحِسَابِ	-0.47948474
-4.6152925	تَعَجَّلَ	-0.07320749
-4.6152925	يَوْمَيْنِ	-0.07320749
-4.446117	تَأَخَّرَ	-0.07320749
-3.9686933	لِمَنِ	-0.11067356
-4.3296957	تُحْشَرُونَ	-0.30809534
-4.6152925	يُعْجِبُكَ	-0.07320749
-4.446117	قَوْلُهُ	-0.07320749
-4.6152925	وَيُشْهِدُ	-0.07320749
-4.6152925	قَلْبِهِ	-0.07320749
-4.6152925	أَلَدُّ	-0.07320749
-4.446117	الْخِصَامِ	-0.07320749
-3.8299716	تَوَلَّى	-0.07320749
-4.446117	سَعَى	-0.07320749
-4.6152925	لِيُفْسِدَ	-0.07320749
-4.6152925	وَيُهْلِكَ	-0.07320749
-4.6152925	وَالنَّسْلَ	-0.07320749
-4.1737366	الْفَسَادَ	-0.23644666
-4.446117	اتَّقِ	-0.19696505
-4.446117	أَخَذَتْهُ	-0.07320749
-4.3296957	الْعِزَّةُ	-0.07320749
-4.6152925	فَحَسْبُهُ	-0.07320749
-3.7249968	جَهَنَّمُ	-0.13116941
-4.3296957	الْمِهَادُ	-0.30809534
-4.6152925	يَشْرِي	-0.07320749
-3.8299716	ابْتِغَاءَ	-0.16706128
-4.6152925	مَرْضَاتِ	-0.07320749
-4.0592246	رَءُوفٌ	-0.33335668
-4.446117	بِالْعِبَادِ	-0.19696505
-4.6152925	السِّلْمِ	-0.07320749
-4.0592246	كَافَّةً	-0.07320746
-4.6152925	زَلَلْتُمْ	-0.07320749
-4.6152925	جَاءَتْكُمُ	-0.07320749
-4.0592246	الْبَيِّنَاتُ	-0.07320752
-4.0592246	فَاعْلَمُوا	-0.22288337
-3.893817	عَزِيزٌ	-0.22825795
-3.893817	حَكِيمٌ	-0.40630916
-3.110794	هَلْ	-0.13995425
-3.6405213	يَنْظُرُونَ	-0.29263327
-4.446117	يَأْتِيَهُمُ	-0.07320749
-4.6152925	ظُلَلٍ	-0.07320749
-4.6152925	الْغَمَامِ	-0.07320749
-3.7249968	وَالْمَلَائِكَةُ	-0.07320746
-4.0592246	وَقُضِيَ	-0.2601811
-3.893817	الْأَمْرُ	-0.07320749
-3.5698318	وَإِلَى	-0.26883766
-4.6152925	تُرْجَعُ	-0.07320749
-4.446117	الْأُمُورُ	-0.19696505
-4.6152925	سَلْ	-0.07320749
-3.8299716	كَمْ	-0.15670897
-4.0592246	آتَيْنَاهُمْ	-0.11067356
-4.3296957	بَيِّنَةٍ	-0.07320749
-4.6152925	يُبَدِّلْ	-0.07320749
-4.0592246	نِعْمَةَ	-0.33335668
-4.6152925	جَاءَتْهُ	-0.07320749
-3.893817	زُيِّنَ	-0.123916686
-3.8299716	الْحَيَاةُ	-0.7340641
-4.446117	وَيَسْخَرُونَ	-0.07320749
-4.0592246	اتَّقَوْا	-0.09009893
-3.9686933	فَوْقَهُمْ	-0.07320749
-4.3296957	يَرْزُقُ	-0.30809534
-4.6152925	حِسَابٍ	-0.07320749
-3.9686933	وَاحِدَةً	-0.08887035
-4.446117	فَبَعَثَ	-0.19696505
-4.3296957	مُبَشِّرِينَ	-0.30809534
-4.6152925	وَمُنْذِرِينَ	-0.07320749
-4.446117	مَعَهُمُ	-0.19696505
-4.3296957	لِيَحْكُمَ	-0.15167965
-4.6152925	اخْتَلَفَ	-0.07320749
-4.6152925	أُوتُوهُ	-0.07320749
-4.1737366	جَاءَتْهُمُ	-0.07320746
-4.3296957	فَهَدَى	-0.15167965
-3.893817	بِإِذْنِهِ	-0.07320749
-4.6152925	حَسِبْتُمْ	-0.07320749
-4.446117	تَدْخُلُوا	-0.1185709
-4.446117	يَأْتِكُمْ	-0.07320749
-3.8299716	مَثَلُ	-0.114245474
-4.6152925	مَسَّتْهُمُ	-0.07320749
-4.6152925	الْبَأْسَاءُ	-0.07320749
-4.6152925	وَالضَّرَّاءُ	-0.07320749
-4.446117	وَزُلْزِلُوا	-0.07320749
-4.3296957	يَقُولَ	-0.07320749
-3.509054	مَعَهُ	-0.08780838
-4.446117	مَتَى	-0.07320749
-4.3296957	نَصْرُ	-0.15167965
-4.446117	نَصْرَ	-0.07320749
-4.446117	أَنْفَقْتُمْ	-0.15167965
-4.6152925	فَلِلْوَالِدَيْنِ	-0.07320749
-4.3296957	وَابْنِ	-0.30809534
-4.3296957	الْقِتَالُ	-0.07320746
-4.6152925	كُرْهٌ	-0.07320749
-4.6152925	وَعَسَى	-0.07320749
-4.6152925	تَكْرَهُوا	-0.07320749
-4.6152925	تُحِبُّوا	-0.07320749
-4.1737366	شَرٌّ	-0.19852152
-4.6152925	الشَّهْرِ	-0.07320749
-4.6152925	قِتَالٍ	-0.07320749
-4.6152925	قِتَالٌ	-0.07320749
-3.9686933	كَبِيرٌ	-0.27770278
-4.6152925	وَصَدٌّ	-0.07320749
-4.6152925	وَكُفْرٌ	-0.07320749
-4.446117	وَالْمَسْجِدِ	-0.19696505
-4.6152925	وَإِخْرَاجُ	-0.07320749
-4.0592246	أَهْلِهِ	-0.09782241
-3.6405213	أَكْبَرُ	-0.14941737
-4.6152925	يَزَالُونَ	-0.07320749
-4.3296957	يَرُدُّوكُمْ	-0.07320749
-4.3296957	دِينِكُمْ	-0.07320746
-3.6405213	إِنِ	-0.14162901
-4.3296957	اسْتَطَاعُوا	-0.07320749
-4.6152925	يَرْتَدِدْ	-0.07320749
-4.6152925	دِينِهِ	-0.07320749
-4.6152925	فَيَمُتْ	-0.07320749
-4.446117	كَافِرٌ	-0.07320749
-4.0592246	حَبِطَتْ	-0.52994406
-4.1737366	أَعْمَالُهُمْ	-0.07320752
-4.446117	وَالْآخِرَةِ	-0.07320749
-4.3296957	هَاجَرُوا	-0.07320749
-4.3296957	وَجَاهَدُوا	-0.16923133
-4.3296957	يَرْجُونَ	-0.07320749
-4.3296957	رَحْمَتَ	-0.15167965
-4.446117	الْخَمْرِ	-0.19696505
-4.6152925	وَالْمَيْسِرِ	-0.07320749
-4.0592246	فِيهِمَا	-0.15888241
-4.446117	إِثْمٌ	-0.07320749
-4.3296957	وَمَنَافِعُ	-0.15167965
-4.6152925	وَإِثْمُهُمَا	-0.07320749
-4.6152925	نَفْعِهِمَا	-0.07320749
-4.3296957	وَيَسْأَلُونَكَ	-0.13069282
-3.455747	قُلِ	-0.2964769
-4.446117	الْعَفْوَ	-0.07320749
-4.446117	تَتَفَكَّرُونَ	-0.19696505
-4.0592246	الْيَتَامَى	-0.07320746
-4.6152925	إِصْلَاحٌ	-0.07320749
-4.6152925	تُخَالِطُوهُمْ	-0.07320749
-4.3296957	فَإِخْوَانُكُمْ	-0.15167965
-4.6152925	الْمُفْسِدَ	-0.07320749
-4.6152925	الْمُصْلِحِ	-0.07320749
-4.6152925	لَأَعْنَتَكُمْ	-0.07320749
-4.446117	تَنْكِحُوا	-0.07320749
-4.6152925	الْمُشْرِكَاتِ	-0.07320749
-4.446117	يُؤْمِنَّ	-0.07320749
-4.6152925	وَلَأَمَةٌ	-0.07320749
-4.6152925	مُؤْمِنَةٌ	-0.07320749
-4.6152925	مُشْرِكَةٍ	-0.07320749
-4.446117	أَعْجَبَتْكُمْ	-0.07320749
-4.6152925	تُنْكِحُوا	-0.07320749
-4.6152925	وَلَعَبْدٌ	-0.07320749
-4.1737366	مُؤْمِنٌ	-0.07320752
-4.6152925	مُشْرِكٍ	-0.07320749
-4.6152925	أَعْجَبَكُمْ	-0.07320749
-3.5698318	يَدْعُونَ	-0.29952654
-3.9686933	يَدْعُو	-0.10511928
-4.6152925	وَالْمَغْفِرَةِ	-0.07320749
-4.446117	وَيُبَيِّنُ	-0.07320749
-4.6152925	يَتَذَكَّرُونَ	-0.07320749
-4.3296957	الْمَحِيضِ	-0.07320749
-4.6152925	فَاعْتَزِلُوا	-0.07320749
-4.0592246	النِّسَاءَ	-0.07320752
-4.6152925	تَقْرَبُوهُنَّ	-0.07320749
-4.6152925	يَطْهُرْنَ	-0.07320749
-4.6152925	تَطَهَّرْنَ	-0.07320749
-4.6152925	فَأْتُوهُنَّ	-0.07320749
-4.6152925	أَمَرَكُمُ	-0.07320749
-4.6152925	التَّوَّابِينَ	-0.07320749
-4.6152925	وَيُحِبُّ	-0.07320749
-4.6152925	الْمُتَطَهِّرِينَ	-0.07320749
-4.6152925	نِسَاؤُكُمْ	-0.07320749
-4.6152925	حَرْثٌ	-0.07320749
-4.6152925	حَرْثَكُمْ	-0.07320749
-3.6405213	أَنَّى	-0.18620731
-4.6152925	وَقَدِّمُوا	-0.07320749
-4.6152925	مُلَاقُوهُ	-0.07320749
-3.110794	الْمُؤْمِنِينَ	-0.24569225
-4.6152925	عُرْضَةً	-0.07320749
-4.6152925	لِأَيْمَانِكُمْ	-0.07320749
-4.6152925	تَبَرُّوا	-0.07320749
-4.0592246	وَتَتَّقُوا	-0.14720213
-4.6152925	وَتُصْلِحُوا	-0.07320749
-4.6152925	يُؤَاخِذُكُمُ	-0.07320749
-4.446117	بِاللَّغْوِ	-0.07320749
-4.3296957	أَيْمَانِكُمْ	-0.07320749
-4.6152925	يُؤَاخِذُكُمْ	-0.07320749
-3.9686933	حَلِيمٌ	-0.6091253
-4.6152925	يُؤْلُونَ	-0.07320749
-4.6152925	نِسَائِهِمْ	-0.07320749
-4.6152925	تَرَبُّصُ	-0.07320749
-4.446117	أَرْبَعَةِ	-0.07320749
-4.3296957	أَشْهُرٍ	-0.07320749
-4.6152925	فَاءُوا	-0.07320749
-4.6152925	عَزَمُوا	-0.07320749
-4.6152925	الطَّلَاقَ	-0.07320749
-4.6152925	وَالْمُطَلَّقَاتُ	-0.07320749
-4.446117	يَتَرَبَّصْنَ	-0.19696505
-4.6152925	بِأَنْفُسِهِنَّ	-0.07320749
-4.3296957	ثَلَاثَةَ	-0.15167965
-4.6152925	قُرُوءٍ	-0.07320749
-4.446117	يَحِلُّ	-0.13069282
-4.6152925	يَكْتُمْنَ	-0.07320749
-4.6152925	أَرْحَامِهِنَّ	-0.07320749
-4.3296957	كُنَّ	-0.07320749
-4.6152925	وَبُعُولَتُهُنَّ	-0.07320749
-3.7743201	أَحَقُّ	-0.2680269
-4.6152925	بِرَدِّهِنَّ	-0.07320749
-4.3296957	أَرَادُوا	-0.07320749
-4.446117	إِصْلَاحًا	-0.07320749
-4.446117	وَلَهُنَّ	-0.07320749
-3.8299716	مِثْلُ	-0.13069282
-3.6807084	عَلَيْهِنَّ	-0.0932419
-4.6152925	وَلِلرِّجَالِ	-0.07320749
-4.6152925	دَرَجَةٌ	-0.07320749
-4.6152925	الطَّلَاقُ	-0.07320749
-4.6152925	مَرَّتَانِ	-0.07320749
-4.6152925	فَإِمْسَاكٌ	-0.07320749
-4.0592246	بِمَعْرُوفٍ	-0.1185709
-4.6152925	تَسْرِيحٌ	-0.07320749
-4.446117	تَأْخُذُوا	-0.07320749
-4.3296957	آتَيْتُمُوهُنَّ	-0.07320749
-4.6152925	يَخَافَا	-0.07320749
-3.1847596	أَلَّا	-0.12272077
-4.446117	يُقِيمَا	-0.19696505
-4.3296957	حُدُودَ	-0.15167965
-4.3296957	خِفْتُمْ	-0.11067356
-4.1737366	عَلَيْهِمَا	-0.07320749
-4.6152925	افْتَدَتْ	-0.07320749
-4.6152925	تَعْتَدُوهَا	-0.07320749
-4.6152925	يَتَعَدَّ	-0.07320749
-3.60374	الظَّالِمُونَ	-0.23011133
-4.6152925	طَلَّقَهَا	-0.07320749
-4.6152925	تَحِلُّ	-0.07320749
-3.9686933	بَعْدُ	-0.07320749
-4.6152925	تَنْكِحَ	-0.07320749
-4.6152925	زَوْجًا	-0.07320749
-4.446117	غَيْرَهُ	-0.07320749
-4.6152925	يَتَرَاجَعَا	-0.07320749
-4.6152925	ظَنَّا	-0.07320749
-4.0592246	وَتِلْكَ	-0.14841872
-4.6152925	يُبَيِّنُهَا	-0.07320749
-4.3296957	طَلَّقْتُمُ	-0.30809534
-4.6152925	فَبَلَغْنَ	-0.07320749
-4.446117	أَجَلَهُنَّ	-0.19696505
-4.446117	فَأَمْسِكُوهُنَّ	-0.07320749
-4.6152925	سَرِّحُوهُنَّ	-0.07320749
-4.6152925	تُمْسِكُوهُنَّ	-0.07320749
-4.446117	ضِرَارًا	-0.07320749
-4.6152925	لِتَعْتَدُوا	-0.07320749
-4.446117	يَفْعَلْ	-0.07320749
-4.446117	ظَلَمَ	-0.07320749
-4.0592246	تَتَّخِذُوا	-0.09009893
-3.6807084	آيَاتِ	-0.4599124
-3.9686933	نِعْمَتَ	-0.6091253
-4.446117	وَالْحِكْمَةِ	-0.07320749
-4.3296957	يَعِظُكُمْ	-0.15167965
-4.446117	تَعْضُلُوهُنَّ	-0.07320749
-4.6152925	يَنْكِحْنَ	-0.07320749
-4.6152925	أَزْوَاجَهُنَّ	-0.07320749
-4.6152925	تَرَاضَوْا	-0.07320749
-4.446117	يُوعَظُ	-0.19696505
-3.7249968	يُؤْمِنُ	-0.33507475
-4.1737366	أَزْكَى	-0.13069282
-4.6152925	وَأَطْهَرُ	-0.07320749
-4.6152925	وَالْوَالِدَاتُ	-0.07320749
-4.6152925	يُرْضِعْنَ	-0.07320749
-4.446117	أَوْلَادَهُنَّ	-0.07320749
-4.6152925	حَوْلَيْنِ	-0.07320749
-4.6152925	كَامِلَيْنِ	-0.07320749
-4.6152925	يُتِمَّ	-0.07320749
-4.6152925	الرَّضَاعَةَ	-0.07320749
-4.6152925	الْمَوْلُودِ	-0.07320749
-4.6152925	رِزْقُهُنَّ	-0.07320749
-4.6152925	وَكِسْوَتُهُنَّ	-0.07320749
-4.6152925	تُكَلَّفُ	-0.07320749
-4.6152925	وُسْعَهَا	-0.07320746
-4.6152925	تُضَارَّ	-0.07320749
-4.6152925	وَالِدَةٌ	-0.07320749
-4.6152925	بِوَلَدِهَا	-0.07320749
-4.6152925	مَوْلُودٌ	-0.07320749
-4.6152925	بِوَلَدِهِ	-0.07320749
-4.6152925	الْوَارِثِ	-0.07320749
-4.6152925	أَرَادَا	-0.07320749
-4.6152925	فِصَالًا	-0.07320749
-4.6152925	تَرَاضٍ	-0.07320749
-4.6152925	وَتَشَاوُرٍ	-0.07320749
-4.446117	أَرَدْتُمْ	-0.19696505
-4.6152925	تَسْتَرْضِعُوا	-0.07320749
-4.446117	أَوْلَادَكُمْ	-0.07320749
-4.6152925	سَلَّمْتُمْ	-0.07320749
-4.446117	آتَيْتُمْ	-0.07320749
-4.6152925	يُتَوَفَّوْنَ	-0.07320749
-4.446117	وَيَذَرُونَ	-0.07320749
-3.7743201	أَزْوَاجًا	-0.07320749
-4.446117	أَرْبَعَةَ	-0.19696505
-4.6152925	وَعَشْرًا	-0.07320749
-4.6152925	بَلَغْنَ	-0.07320749
-4.446117	فَعَلْنَ	-0.19696505
-4.6152925	أَنْفُسِهِنَّ	-0.07320749
-3.8299716	خَبِيرٌ	-0.32371068
-4.6152925	عَرَّضْتُمْ	-0.07320749
-4.6152925	خِطْبَةِ	-0.07320749
-3.8299716	النِّسَاءِ	-0.09153662
-4.6152925	أَكْنَنْتُمْ	-0.07320749
-4.0592246	أَنْفُسِكُمْ	-0.07320749
-4.6152925	سَتَذْكُرُونَهُنَّ	-0.07320749
-4.6152925	تُوَاعِدُوهُنَّ	-0.07320749
-4.1737366	سِرًّا	-0.13069282
-4.3296957	مَعْرُوفًا	-0.07320749
-4.6152925	تَعْزِمُوا	-0.07320749
-4.6152925	عُقْدَةَ	-0.07320749
-4.446117	النِّكَاحِ	-0.07320749
-4.6152925	أَجَلَهُ	-0.07320749
-4.6152925	فَاحْذَرُوهُ	-0.07320749
-4.446117	تَمَسُّوهُنَّ	-0.07320749
-4.6152925	تَفْرِضُوا	-0.07320749
-4.1737366	فَرِيضَةً	-0.1185709
-4.6152925	وَمَتِّعُوهُنَّ	-0.07320749
-4.6152925	الْمُوسِعِ	-0.07320749
-4.446117	قَدَرُهُ	-0.07320749
-4.6152925	الْمُقْتِرِ	-0.07320749
-3.9686933	مَتَاعًا	-0.11067356
-4.446117	طَلَّقْتُمُوهُنَّ	-0.19696505
-4.6152925	قَبْلِ	-0.07320749
-4.446117	فَرَضْتُمْ	-0.07320749
-4.6152925	فَنِصْفُ	-0.07320749
-4.6152925	يَعْفُونَ	-0.07320749
-4.446117	يَعْفُوَ	-0.07320749
-4.3296957	بِيَدِهِ	-0.1185709
-4.6152925	عُقْدَةُ	-0.07320749
-4.3296957	تَعْفُوا	-0.07320749
-3.9686933	أَقْرَبُ	-0.100999735
-4.3296957	لِلتَّقْوَى	-0.07320749
-4.6152925	تَنْسَوُا	-0.07320749
-4.3296957	الْفَضْلَ	-0.15167965
-4.6152925	حَافِظُوا	-0.07320749
-4.6152925	الصَّلَوَاتِ	-0.07320749
-4.6152925	الْوُسْطَى	-0.07320749
-4.6152925	وَقُومُوا	-0.07320749
-4.6152925	قَانِتِينَ	-0.07320749
-4.6152925	فَرِجَالًا	-0.07320749
-4.6152925	رُكْبَانًا	-0.07320749
-4.6152925	عَلَّمَكُمْ	-0.07320749
-4.446117	وَصِيَّةً	-0.07320749
-4.6152925	لِأَزْوَاجِهِمْ	-0.07320749
-4.6152925	الْحَوْلِ	-0.07320749
-4.6152925	إِخْرَاجٍ	-0.07320749
-4.6152925	خَرَجْنَ	-0.07320749
-4.3296957	مَعْرُوفٍ	-0.07320749
-4.6152925	وَلِلْمُطَلَّقَاتِ	-0.07320749
-4.0592246	مَتَاعٌ	-0.07320749
-4.6152925	تَرَ	-0.07320746
-4.0592246	خَرَجُوا	-0.19852152
-4.6152925	أُلُوفٌ	-0.07320749
-4.446117	مُوتُوا	-0.07320749
-4.6152925	أَحْيَاهُمْ	-0.07320749
-4.1737366	لَذُو	-0.1185709
-4.1737366	فَضْلٍ	-0.11067356
-3.8299716	أَكْثَرَ	-0.07320749
-4.1737366	يَشْكُرُونَ	-0.4330341
-3.6807084	ذَا	-0.11067356
-4.6152925	يُقْرِضُ	-0.07320749
-4.6152925	قَرْضًا	-0.07320749
-3.7743201	حَسَنًا	-0.11298147
-4.6152925	فَيُضَاعِفَهُ	-0.07320749
-4.446117	أَضْعَافًا	-0.07320749
-4.1737366	كَثِيرَةً	-0.07320749
-4.6152925	يَقْبِضُ	-0.07320749
-4.6152925	وَيَبْسُطُ	-0.07320749
-3.455747	وَإِلَيْهِ	-0.29150796
-4.6152925	الْمَلَإِ	-0.07320749
-4.446117	لِنَبِيٍّ	-0.07320749
-4.6152925	ابْعَثْ	-0.07320749
-4.446117	مَلِكًا	-0.07320749
-4.6152925	نُقَاتِلْ	-0.07320749
-4.446117	عَسَيْتُمْ	-0.19696505
-4.446117	تُقَاتِلُوا	-0.07320749
-4.6152925	نُقَاتِلَ	-0.07320749
-4.6152925	أُخْرِجْنَا	-0.07320749
-4.6152925	دِيَارِنَا	-0.07320749
-4.6152925	وَأَبْنَائِنَا	-0.07320749
-4.6152925	نَبِيُّهُمْ	-0.07320749
-4.3296957	بَعَثَ	-0.07320749
-4.6152925	طَالُوتَ	-0.07320749
-3.7249968	يَكُونُ	-0.12599042
-3.9686933	الْمُلْكُ	-0.09782241
-4.6152925	بِالْمُلْكِ	-0.07320749
-3.1222796	وَلَمْ	-0.12272077
-4.446117	يُؤْتَ	-0.07320749
-4.6152925	سَعَةً	-0.07320749
-4.6152925	الْمَالِ	-0.07320749
-4.6152925	اصْطَفَاهُ	-0.07320749
-4.6152925	وَزَادَهُ	-0.07320749
-4.446117	بَسْطَةً	-0.07320749
-4.6152925	وَالْجِسْمِ	-0.07320749
-4.3296957	يُؤْتِي	-0.07320749
-4.446117	مُلْكَهُ	-0.07320749
-4.3296957	آيَةَ	-0.07320749
-4.6152925	مُلْكِهِ	-0.07320749
-4.6152925	يَأْتِيَكُمُ	-0.07320749
-4.6152925	التَّابُوتُ	-0.07320749
-4.6152925	سَكِينَةٌ	-0.07320749
-4.6152925	وَبَقِيَّةٌ	-0.07320749
-4.446117	آلُ	-0.07320749
-4.6152925	وَآلُ	-0.07320749
-3.8299716	هَارُونَ	-0.07320749
-4.446117	تَحْمِلُهُ	-0.07320749
-3.481583	الْمَلَائِكَةُ	-0.123916686
-4.6152925	لَآيَةً	-0.07320749
-4.6152925	فَصَلَ	-0.07320749
-4.6152925	طَالُوتُ	-0.07320749
-4.6152925	بِالْجُنُودِ	-0.07320749
-4.6152925	مُبْتَلِيكُمْ	-0.07320749
-4.6152925	بِنَهَرٍ	-0.07320749
-4.6152925	شَرِبَ	-0.07320749
-3.893817	فَلَيْسَ	-0.10511928
-4.6152925	يَطْعَمْهُ	-0.07320749
-4.6152925	اغْتَرَفَ	-0.07320749
-4.6152925	غُرْفَةً	-0.07320749
-4.6152925	فَشَرِبُوا	-0.07320749
-4.6152925	جَاوَزَهُ	-0.07320749
-4.6152925	طَاقَةَ	-0.07320749
-3.1715238	الْيَوْمَ	-0.09055242
-4.6152925	بِجَالُوتَ	-0.07320749
-4.446117	وَجُنُودِهِ	-0.07320749
-4.446117	فِئَةٍ	-0.07320749
-4.6152925	قَلِيلَةٍ	-0.07320749
-4.446117	غَلَبَتْ	-0.07320749
-4.446117	فِئَةً	-0.07320749
-4.446117	بَرَزُوا	-0.07320749
-4.6152925	لِجَالُوتَ	-0.07320749
-4.6152925	أَفْرِغْ	-0.07320749
-4.1737366	صَبْرًا	-0.1185709
-4.446117	وَثَبِّتْ	-0.19696505
-4.6152925	أَقْدَامَنَا	-0.07320749
-4.6152925	وَانْصُرْنَا	-0.07320749
-3.60374	الْقَوْمِ	-0.19830157
-4.6152925	فَهَزَمُوهُمْ	-0.07320749
-4.6152925	وَقَتَلَ	-0.07320749
-4.3296957	دَاوُودُ	-0.07320749
-4.6152925	جَالُوتَ	-0.07320749
-4.6152925	وَآتَاهُ	-0.07320749
-4.3296957	الْمُلْكَ	-0.07320749
-4.6152925	وَعَلَّمَهُ	-0.07320749
-3.6807084	وَلَوْلَا	-0.19823289
-4.6152925	دَفْعُ	-0.07320749
-3.8299716	بَعْضَهُمْ	-0.13069282
-4.446117	لَفَسَدَتِ	-0.07320749
-4.3296957	آيَاتُ	-0.1185709
-4.6152925	نَتْلُوهَا	-0.07320749
-3.110794	عَلَيْكَ	-0.16352841
-4.1737366	وَإِنَّكَ	-0.07320749
-3.509054	الْمُرْسَلِينَ	-0.79166
-3.9686933	الرُّسُلُ	-0.07320752
-4.1737366	فَضَّلْنَا	-0.13069282
-4.6152925	كَلَّمَ	-0.07320749
-4.3296957	وَرَفَعَ	-0.07320749
-3.9686933	دَرَجَاتٍ	-0.07320752
-4.6152925	اقْتَتَلَ	-0.07320749
-4.6152925	بَعْدِهِمْ	-0.07320752
-4.446117	وَلَكِنِ	-0.07320749
-3.6807084	فَمِنْهُمْ	-0.35517704
-4.446117	اقْتَتَلُوا	-0.07320749
-4.3296957	أَنْفِقُوا	-0.13069282
-4.0592246	يَوْمٌ	-0.07320749
-4.446117	بَيْعٌ	-0.07320749
-4.6152925	خُلَّةٌ	-0.07320749
-4.3296957	وَالْكَافِرُونَ	-0.07320749
-4.6152925	الْحَيُّ	-0.07320749
-4.6152925	الْقَيُّومُ	-0.07320749
-4.6152925	تَأْخُذُهُ	-0.07320749
-4.6152925	سِنَةٌ	-0.07320749
-4.6152925	نَوْمٌ	-0.07320749
-4.6152925	يَشْفَعُ	-0.07320749
-4.446117	خَلْفَهُمْ	-0.07320746
-4.6152925	يُحِيطُونَ	-0.07320749
-4.6152925	عِلْمِهِ	-0.07320749
-4.1737366	وَسِعَ	-0.07320749
-4.6152925	كُرْسِيُّهُ	-0.07320749
-4.3296957	وَالْأَرْضَ	-0.08358638
-4.6152925	يَئُودُهُ	-0.07320749
-4.6152925	حِفْظُهُمَا	-0.07320749
-4.446117	الْعَلِيُّ	-0.15167965
-4.3296957	الْعَظِيمُ	-0.30809534
-4.6152925	إِكْرَاهَ	-0.07320749
-4.6152925	الرُّشْدُ	-0.07320749
-4.3296957	الْغَيِّ	-0.07320749
-4.6152925	بِالطَّاغُوتِ	-0.07320749
-4.6152925	وَيُؤْمِنْ	-0.07320749
-4.6152925	اسْتَمْسَكَ	-0.07320749
-4.6152925	بِالْعُرْوَةِ	-0.07320749
-4.6152925	الْوُثْقَى	-0.07320749
-4.6152925	انْفِصَامَ	-0.07320749
-4.446117	وَلِيُّ	-0.07320749
-4.6152925	يُخْرِجُهُمْ	-0.07320749
-4.1737366	الظُّلُمَاتِ	-0.07320749
-4.446117	النُّورِ	-0.07320749
-4.6152925	أَوْلِيَاؤُهُمُ	-0.07320749
-4.6152925	الطَّاغُوتُ	-0.07320749
-4.6152925	يُخْرِجُونَهُمْ	-0.07320749
-4.6152925	حَاجَّ	-0.07320749
-4.446117	آتَاهُ	-0.19696505
-4.3296957	رَبِّيَ	-0.07320749
-4.6152925	وَيُمِيتُ	-0.07320749
-3.3455698	أَنَا	-0.116901286
-4.6152925	أُحْيِي	-0.07320749
-4.6152925	وَأُمِيتُ	-0.07320749
-3.9686933	يَأْتِي	-0.10511928
-4.6152925	بِالشَّمْسِ	-0.07320749
-4.1737366	فَأْتِ	-0.13069282
-4.6152925	الْمَغْرِبِ	-0.07320749
-4.6152925	فَبُهِتَ	-0.07320749
-3.893817	الْقَوْمَ	-0.09782241
-4.0592246	كَالَّذِي	-0.07320746
-4.1737366	مَرَّ	-0.07320749
-4.0592246	قَرْيَةٍ	-0.09009893
-3.7249968	وَهِيَ	-0.15670897
-4.446117	خَاوِيَةٌ	-0.19696505
-4.6152925	عُرُوشِهَا	-0.07320749
-4.6152925	فَأَمَاتَهُ	-0.07320749
-4.3296957	مِائَةَ	-0.15167965
-4.446117	عَامٍ	-0.07320749
-4.6152925	بَعَثَهُ	-0.07320749
-4.446117	لَبِثْتَ	-0.07320749
-4.446117	لَبِثْتُ	-0.07320749
-3.7743201	بَعْضَ	-0.13832988
-3.60374	يَوْمٍ	-0.140212
-3.6807084	فَانْظُرْ	-0.47524455
-4.6152925	طَعَامِكَ	-0.07320749
-4.6152925	وَشَرَابِكَ	-0.07320749
-4.6152925	يَتَسَنَّهْ	-0.07320749
-4.3296957	وَانْظُرْ	-0.30809534
-4.6152925	حِمَارِكَ	-0.07320749
-4.6152925	وَلِنَجْعَلَكَ	-0.07320749
-3.3863509	آيَةً	-0.094219394
-4.6152925	الْعِظَامِ	-0.07320749
-4.6152925	نُنْشِزُهَا	-0.07320749
-4.6152925	نَكْسُوهَا	-0.07320749
-4.1737366	لَحْمًا	-0.13069282
-4.6152925	أَرِنِي	-0.07320749
-4.6152925	تُحْيِي	-0.07320749
-3.6807084	أَوَلَمْ	-0.0841119
-4.446117	تُؤْمِنْ	-0.07320749
-4.6152925	لِيَطْمَئِنَّ	-0.07320749
-4.6152925	قَلْبِي	-0.07320749
-4.3296957	فَخُذْ	-0.07320749
-4.446117	أَرْبَعَةً	-0.07320749
-4.1737366	الطَّيْرِ	-0.07320749
-4.6152925	فَصُرْهُنَّ	-0.07320749
-4.3296957	جَبَلٍ	-0.07320749
-3.893817	مِنْهُنَّ	-0.07320752
-4.446117	جُزْءًا	-0.07320749
-4.6152925	ادْعُهُنَّ	-0.07320749
-4.6152925	يَأْتِينَكَ	-0.07320749
-4.6152925	سَعْيًا	-0.07320749
-4.6152925	وَاعْلَمْ	-0.07320749
-4.1737366	أَمْوَالَهُمْ	-0.100999735
-4.1737366	حَبَّةٍ	-0.07320749
-4.6152925	أَنْبَتَتْ	-0.07320749
-4.6152925	سَنَابِلَ	-0.07320749
-4.6152925	سُنْبُلَةٍ	-0.07320749
-4.6152925	مِائَةُ	-0.07320749
-4.6152925	يُضَاعِفُ	-0.07320749
-4.6152925	يُتْبِعُونَ	-0.07320749
-4.1737366	أَنْفَقُوا	-0.10511928
-4.446117	مَنًّا	-0.07320749
-4.6152925	قَوْلٌ	-0.07320749
-4.446117	مَعْرُوفٌ	-0.07320749
-4.1737366	وَمَغْفِرَةٌ	-0.07320749
-4.6152925	يَتْبَعُهَا	-0.07320749
-4.3296957	غَنِيٌّ	-0.11067356
-4.446117	تُبْطِلُوا	-0.07320749
-4.6152925	صَدَقَاتِكُمْ	-0.07320749
-4.6152925	بِالْمَنِّ	-0.07320749
-4.6152925	وَالْأَذَى	-0.07320749
-4.1737366	يُنْفِقُ	-0.07320746
-4.3296957	مَالَهُ	-0.07320749
-4.446117	رِئَاءَ	-0.19696505
-4.446117	فَمَثَلُهُ	-0.19696505
-4.6152925	صَفْوَانٍ	-0.07320749
-4.6152925	تُرَابٌ	-0.07320749
-4.6152925	فَأَصَابَهُ	-0.07320749
-4.3296957	وَابِلٌ	-0.07320749
-4.6152925	فَتَرَكَهُ	-0.07320749
-4.6152925	صَلْدًا	-0.07320749
-4.446117	يَقْدِرُونَ	-0.15167965
-4.6152925	أَمْوَالَهُمُ	-0.07320749
-4.6152925	وَتَثْبِيتًا	-0.07320749
-4.446117	جَنَّةٍ	-0.07320749
-4.6152925	بِرَبْوَةٍ	-0.07320749
-4.6152925	أَصَابَهَا	-0.07320749
-4.6152925	فَآتَتْ	-0.07320749
-4.3296957	أُكُلَهَا	-0.07320749
-4.3296957	ضِعْفَيْنِ	-0.07320749
-4.6152925	يُصِبْهَا	-0.07320749
-4.6152925	فَطَلٌّ	-0.07320749
-4.6152925	أَيَوَدُّ	-0.07320749
-4.446117	أَحَدُكُمْ	-0.19696505
-4.446117	جَنَّةٌ	-0.15167965
-4.6152925	نَخِيلٍ	-0.07320749
-4.6152925	وَأَعْنَابٍ	-0.07320749
-4.6152925	وَأَصَابَهُ	-0.07320749
-4.3296957	الْكِبَرُ	-0.07320749
-3.481583	وَلَهُ	-0.09993093
-4.446117	ذُرِّيَّةٌ	-0.07320749
-4.6152925	ضُعَفَاءُ	-0.07320749
-4.6152925	فَأَصَابَهَا	-0.07320749
-4.6152925	إِعْصَارٌ	-0.07320749
-4.1737366	نَارٌ	-0.07320749
-4.6152925	فَاحْتَرَقَتْ	-0.07320749
-4.446117	أَخْرَجْنَا	-0.07320749
-4.6152925	تَيَمَّمُوا	-0.07320749
-4.0592246	الْخَبِيثَ	-0.1185709
-4.446117	تُنْفِقُونَ	-0.07320749
-4.6152925	وَلَسْتُمْ	-0.07320749
-4.6152925	بِآخِذِيهِ	-0.07320749
-4.6152925	تُغْمِضُوا	-0.07320749
-4.3296957	حَمِيدٌ	-0.15167965
-4.446117	يَعِدُكُمُ	-0.07320749
-4.6152925	الْفَقْرَ	-0.07320749
-4.6152925	وَيَأْمُرُكُمْ	-0.07320749
-4.446117	بِالْفَحْشَاءِ	-0.07320749
-4.446117	يَعِدُكُمْ	-0.07320749
-4.3296957	مَغْفِرَةً	-0.15167965
-4.6152925	وَفَضْلًا	-0.07320749
-4.1737366	الْحِكْمَةَ	-0.07320749
-4.446117	يَذَّكَّرُ	-0.07320749
-3.6807084	أُولُو	-0.22548005
-4.6152925	نَفَقَةٍ	-0.07320749
-4.6152925	نَذَرْتُمْ	-0.07320749
-4.6152925	نَذْرٍ	-0.07320749
-4.6152925	يَعْلَمُهُ	-0.07320749
-3.8299716	لِلظَّالِمِينَ	-0.14720213
-4.6152925	أَنْصَارٍ	-0.07320749
-4.446117	تُبْدُوا	-0.07320749
-4.1737366	الصَّدَقَاتِ	-0.07320746
-4.6152925	فَنِعِمَّا	-0.07320749
-4.6152925	تُخْفُوهَا	-0.07320749
-4.6152925	وَتُؤْتُوهَا	-0.07320749
-4.6152925	الْفُقَرَاءَ	-0.07320749
-4.6152925	وَيُكَفِّرُ	-0.07320749
-4.446117	سَيِّئَاتِكُمْ	-0.07320746
-4.446117	هُدَاهُمْ	-0.07320749
-4.1737366	تُنْفِقُوا	-0.07320749
-4.6152925	فَلِأَنْفُسِكُمْ	-0.07320749
-4.446117	وَجْهِ	-0.07320749
-4.446117	يُوَفَّ	-0.19696505
-3.455747	إِلَيْكُمْ	-0.082674
-4.446117	تُظْلَمُونَ	-0.15167965
-4.446117	لِلْفُقَرَاءِ	-0.07320749
-4.6152925	أُحْصِرُوا	-0.07320749
-4.0592246	يَسْتَطِيعُونَ	-0.11393571
-4.446117	ضَرْبًا	-0.07320749
-4.6152925	يَحْسَبُهُمُ	-0.07320749
-4.6152925	الْجَاهِلُ	-0.07320749
-4.6152925	أَغْنِيَاءَ	-0.07320749
-4.6152925	التَّعَفُّفِ	-0.07320749
-4.6152925	تَعْرِفُهُمْ	-0.07320749
-4.0592246	بِسِيمَاهُمْ	-0.07320746
-4.3296957	يَسْأَلُونَ	-0.07320749
-4.6152925	إِلْحَافًا	-0.07320749
-3.9686933	بِاللَّيْلِ	-0.27770278
-4.6152925	وَعَلَانِيَةً	-0.07320749
-3.893817	الرِّبَا	-0.07320752
-4.6152925	يَقُومُونَ	-0.07320749
-4.3296957	يَقُومُ	-0.07320746
-4.6152925	يَتَخَبَّطُهُ	-0.07320749
-4.6152925	الْمَسِّ	-0.07320749
-4.6152925	الْبَيْعُ	-0.07320749
-4.6152925	وَأَحَلَّ	-0.07320749
-4.446117	الْبَيْعَ	-0.07320749
-4.6152925	وَحَرَّمَ	-0.07320749
-3.9686933	جَاءَهُ	-0.10511928
-4.446117	مَوْعِظَةٌ	-0.19696505
-4.6152925	فَانْتَهَى	-0.07320749
-4.3296957	سَلَفَ	-0.07320746
-4.6152925	وَأَمْرُهُ	-0.07320749
-4.446117	عَادَ	-0.07320749
-4.6152925	يَمْحَقُ	-0.07320749
-4.6152925	وَيُرْبِي	-0.07320749
-3.057524	كُلَّ	-0.2549933
-4.6152925	كَفَّارٍ	-0.07320749
-4.3296957	أَثِيمٍ	-0.30809534
-3.893817	وَأَقَامُوا	-0.6760721
-4.6152925	وَآتَوُا	-0.07320749
-4.0592246	اتَّقُوا	-0.19807625
-4.1737366	وَذَرُوا	-0.07320749
-4.6152925	بَقِيَ	-0.07320749
-4.6152925	فَأْذَنُوا	-0.07320749
-4.6152925	بِحَرْبٍ	-0.07320749
-4.1737366	وَرَسُولِهِ	-0.0831092
-4.446117	تُبْتُمْ	-0.07320749
-4.446117	فَلَكُمْ	-0.07320749
-4.446117	رُءُوسُ	-0.07320749
-4.3296957	أَمْوَالِكُمْ	-0.07320749
-4.6152925	تَظْلِمُونَ	-0.07320749
-4.6152925	عُسْرَةٍ	-0.07320749
-4.6152925	فَنَظِرَةٌ	-0.07320749
-4.6152925	مَيْسَرَةٍ	-0.07320749
-4.6152925	تَصَدَّقُوا	-0.07320749
-4.6152925	تُوَفَّى	-0.07320749
-4.446117	يُظْلَمُونَ	-0.07320749
-4.6152925	تَدَايَنْتُمْ	-0.07320749
-4.6152925	بِدَيْنٍ	-0.07320749
-4.446117	أَجَلٍ	-0.07320749
-3.9686933	مُسَمًّى	-0.08534057
-4.6152925	فَاكْتُبُوهُ	-0.07320749
-4.6152925	وَلْيَكْتُبْ	-0.07320749
-4.3296957	كَاتِبٌ	-0.07320749
-4.0592246	بِالْعَدْلِ	-0.07320749
-4.6152925	يَأْبَ	-0.07320749
-4.6152925	يَكْتُبَ	-0.07320749
-4.446117	عَلَّمَهُ	-0.07320749
-4.6152925	فَلْيَكْتُبْ	-0.07320749
-4.6152925	وَلْيُمْلِلِ	-0.07320749
-4.446117	وَلْيَتَّقِ	-0.19696505
-3.5698318	رَبَّهُ	-0.08606495
-4.6152925	يَبْخَسْ	-0.07320749
-4.6152925	سَفِيهًا	-0.07320749
-4.1737366	ضَعِيفًا	-0.13069282
-4.446117	يَسْتَطِيعُ	-0.07320749
-4.6152925	يُمِلَّ	-0.07320749
-4.6152925	فَلْيُمْلِلْ	-0.07320749
-4.6152925	وَلِيُّهُ	-0.07320749
-4.6152925	وَاسْتَشْهِدُوا	-0.07320749
-4.6152925	شَهِيدَيْنِ	-0.07320749
-4.6152925	رِجَالِكُمْ	-0.07320749
-4.6152925	يَكُونَا	-0.07320749
-4.3296957	رَجُلَيْنِ	-0.07320749
-4.6152925	فَرَجُلٌ	-0.07320749
-4.6152925	وَامْرَأَتَانِ	-0.07320749
-4.6152925	تَرْضَوْنَ	-0.07320749
-4.6152925	الشُّهَدَاءِ	-0.07320749
-4.6152925	تَضِلَّ	-0.07320749
-4.0592246	إِحْدَاهُمَا	-0.07320746
-4.6152925	فَتُذَكِّرَ	-0.07320749
-4.0592246	الْأُخْرَى	-0.1185709
-4.6152925	الشُّهَدَاءُ	-0.07320749
-4.3296957	دُعُوا	-0.15167965
-4.6152925	تَسْأَمُوا	-0.07320749
-4.6152925	تَكْتُبُوهُ	-0.07320749
-4.446117	صَغِيرًا	-0.07320749
-3.509054	كَبِيرًا	-0.60093015
-4.6152925	أَجَلِهِ	-0.07320749
-4.446117	أَقْسَطُ	-0.19696505
-4.446117	وَأَقْوَمُ	-0.07320749
-4.6152925	لِلشَّهَادَةِ	-0.07320749
-4.6152925	وَأَدْنَى	-0.07320749
-4.6152925	تَرْتَابُوا	-0.07320749
-4.3296957	تِجَارَةً	-0.07320749
-4.6152925	حَاضِرَةً	-0.07320749
-4.6152925	تُدِيرُونَهَا	-0.07320749
-4.6152925	تَكْتُبُوهَا	-0.07320749
-4.446117	وَأَشْهِدُوا	-0.07320749
-4.6152925	تَبَايَعْتُمْ	-0.07320749
-4.6152925	يُضَارَّ	-0.07320749
-4.0592246	شَهِيدٌ	-0.15167965
-4.6152925	فُسُوقٌ	-0.07320749
-3.3654819	بِكُمْ	-0.08096833
-4.1737366	تَجِدُوا	-0.07320746
-4.6152925	كَاتِبًا	-0.07320749
-4.6152925	فَرِهَانٌ	-0.07320749
-4.6152925	مَقْبُوضَةٌ	-0.07320749
-4.6152925	أَمِنَ	-0.07320749
-3.9686933	بَعْضًا	-0.07320749
-4.6152925	فَلْيُؤَدِّ	-0.07320749
-4.6152925	اؤْتُمِنَ	-0.07320749
-4.6152925	أَمَانَتَهُ	-0.07320749
-4.6152925	تَكْتُمُوا	-0.07320749
-4.446117	الشَّهَادَةَ	-0.07320749
-4.6152925	يَكْتُمْهَا	-0.07320749
-4.6152925	آثِمٌ	-0.07320749
-4.6152925	قَلْبُهُ	-0.07320749
-4.6152925	تُخْفُوهُ	-0.07320749
-4.6152925	يُحَاسِبْكُمْ	-0.07320749
-4.6152925	فَيَغْفِرُ	-0.07320749
-4.6152925	وَيُعَذِّبُ	-0.07320749
-3.893817	وَالْمُؤْمِنُونَ	-0.07320752
-4.446117	وَكُتُبِهِ	-0.07320749
-4.6152925	رُسُلِهِ	-0.07320749
-4.3296957	وَأَطَعْنَا	-0.07320749
-4.6152925	غُفْرَانَكَ	-0.07320749
-4.3296957	وَإِلَيْكَ	-0.15167965
-4.6152925	يُكَلِّفُ	-0.07320749
-4.3296957	وَعَلَيْهَا	-0.15167965
-4.6152925	اكْتَسَبَتْ	-0.07320749
-4.6152925	تُؤَاخِذْنَا	-0.07320749
-4.6152925	نَسِينَا	-0.07320749
-4.6152925	أَخْطَأْنَا	-0.07320749
-4.446117	تَحْمِلْ	-0.07320749
-4.6152925	إِصْرًا	-0.07320749
-4.6152925	حَمَلْتَهُ	-0.07320749
-4.6152925	قَبْلِنَا	-0.07320749
-4.6152925	تُحَمِّلْنَا	-0.07320749
-4.6152925	وَاعْفُ	-0.07320749
-3.7743201	عَنَّا	-0.07320749
-4.1737366	وَاغْفِرْ	-0.23644666
-4.6152925	وَارْحَمْنَا	-0.07320749
-4.446117	مَوْلَانَا	-0.07320749
-4.6152925	فَانْصُرْنَا	-0.07320749
-4.0592246	التَّوْرَاةَ	-0.19852152
-4.446117	وَالْإِنْجِيلَ	-0.13069282
-4.3296957	الْفُرْقَانَ	-0.07320749
-3.9686933	شَدِيدٌ	-0.14841872
-4.446117	انْتِقَامٍ	-0.19696505
-4.446117	يَخْفَى	-0.13069282
-4.6152925	يُصَوِّرُكُمْ	-0.07320749
-4.446117	الْأَرْحَامِ	-0.07320749
-3.8299716	آيَاتٌ	-0.13069282
-4.6152925	مُحْكَمَاتٌ	-0.07320749
-4.446117	أُمُّ	-0.19696505
-4.6152925	وَأُخَرُ	-0.07320749
-4.6152925	مُتَشَابِهَاتٌ	-0.07320749
-4.6152925	زَيْغٌ	-0.07320749
-4.446117	فَيَتَّبِعُونَ	-0.07320749
-4.3296957	الْفِتْنَةِ	-0.07320749
-4.446117	وَابْتِغَاءَ	-0.07320749
-4.6152925	تَأْوِيلِهِ	-0.07320749
-4.446117	تَأْوِيلَهُ	-0.07320749
-4.6152925	وَالرَّاسِخُونَ	-0.07320749
-3.7249968	رَبِّنَا	-0.12705511
-4.6152925	تُزِغْ	-0.07320749
-4.6152925	قُلُوبَنَا	-0.07320749
-4.6152925	هَدَيْتَنَا	-0.07320749
-4.446117	وَهَبْ	-0.07320749
-4.6152925	لَدُنْكَ	-0.07320746
-3.5698318	رَحْمَةً	-0.26530147
-4.6152925	الْوَهَّابُ	-0.07320749
-4.446117	جَامِعُ	-0.07320749
-4.1737366	لِيَوْمٍ	-0.13069282
-4.6152925	يُخْلِفُ	-0.07320749
-4.3296957	الْمِيعَادَ	-0.30809534
-4.446117	تُغْنِيَ	-0.07320749
-3.0996044	عَنْهُمْ	-0.14331274
-4.446117	أَمْوَالُهُمْ	-0.15167965
-4.6152925	أَوْلَادُهُمْ	-0.07320749
-4.6152925	وَقُودُ	-0.07320749
-4.6152925	كَدَأْبِ	-0.07320749
-3.6405213	كَذَّبُوا	-0.19137175
-3.893817	فَأَخَذَهُمُ	-0.2898302
-4.1737366	بِذُنُوبِهِمْ	-0.07320752
-4.6152925	سَتُغْلَبُونَ	-0.07320749
-4.6152925	وَتُحْشَرُونَ	-0.07320749
-3.273962	جَهَنَّمَ	-0.12561105
-4.446117	فِئَتَيْنِ	-0.07320749
-4.6152925	الْتَقَتَا	-0.07320749
-4.446117	فِئَةٌ	-0.07320749
-4.6152925	تُقَاتِلُ	-0.07320749
-4.446117	وَأُخْرَى	-0.07320749
-4.6152925	كَافِرَةٌ	-0.07320749
-4.6152925	يَرَوْنَهُمْ	-0.07320749
-4.6152925	مِثْلَيْهِمْ	-0.07320749
-4.6152925	رَأْيَ	-0.07320749
-4.6152925	الْعَيْنِ	-0.07320749
-4.6152925	يُؤَيِّدُ	-0.07320749
-4.3296957	بِنَصْرِهِ	-0.07320749
-4.446117	لَعِبْرَةً	-0.07320749
-4.0592246	لِأُولِي	-0.27770278
-4.446117	الْأَبْصَارِ	-0.19696505
-4.6152925	حُبُّ	-0.07320749
-4.3296957	الشَّهَوَاتِ	-0.07320749
-4.6152925	وَالْبَنِينَ	-0.07320749
-4.6152925	وَالْقَنَاطِيرِ	-0.07320749
-4.6152925	الْمُقَنْطَرَةِ	-0.07320749
-4.6152925	الذَّهَبِ	-0.07320749
-4.6152925	وَالْفِضَّةِ	-0.07320749
-4.6152925	وَالْخَيْلِ	-0.07320749
-4.6152925	الْمُسَوَّمَةِ	-0.07320749
-4.1737366	وَالْأَنْعَامِ	-0.07320749
-4.6152925	وَالْحَرْثِ	-0.07320749
-4.0592246	مَتَاعُ	-0.19852152
-4.6152925	حُسْنُ	-0.07320749
-4.6152925	الْمَآبِ	-0.07320749
-4.6152925	أَؤُنَبِّئُكُمْ	-0.07320749
-4.3296957	جَنَّاتٌ	-0.30809534
-4.6152925	وَأَزْوَاجٌ	-0.07320749
-4.3296957	وَرِضْوَانٌ	-0.15167965
-4.3296957	إِنَّنَا	-0.07320746
-4.0592246	فَاغْفِرْ	-0.19852152
-4.6152925	ذُنُوبَنَا	-0.07320749
-4.446117	وَالصَّادِقِينَ	-0.07320749
-4.446117	وَالْقَانِتِينَ	-0.07320749
-4.6152925	وَالْمُنْفِقِينَ	-0.07320749
-4.6152925	وَالْمُسْتَغْفِرِينَ	-0.07320749
-4.6152925	بِالْأَسْحَارِ	-0.07320749
-4.1737366	وَأُولُو	-0.13069282
-4.1737366	قَائِمًا	-0.07320749
-3.6807084	بِالْقِسْطِ	-0.13596563
-4.6152925	الْإِسْلَامُ	-0.07320749
-4.0592246	جَاءَهُمُ	-0.19807625
-4.446117	الْعِلْمُ	-0.07320749
-4.6152925	حَاجُّوكَ	-0.07320749
-3.5698318	فَقُلْ	-0.08688133
-4.446117	وَجْهِيَ	-0.07320749
-3.9686933	وَمَنِ	-0.07320749
-4.6152925	اتَّبَعَنِ	-0.07320749
-3.7743201	وَقُلْ	-0.13116941
-4.6152925	وَالْأُمِّيِّينَ	-0.07320749
-4.6152925	أَأَسْلَمْتُمْ	-0.07320749
-4.3296957	أَسْلَمُوا	-0.07320749
-4.3296957	الْبَلَاغُ	-0.19807625
-4.446117	حَقٍّ	-0.07320749
-4.446117	يَأْمُرُونَ	-0.07320749
-4.3296957	فَبَشِّرْهُمْ	-0.30809534
-3.7743201	بِعَذَابٍ	-0.23151119
-4.1737366	أَلِيمٍ	-0.4330341
-4.6152925	نَاصِرِينَ	-0.07320749
-3.9686933	نَصِيبًا	-0.15167965
-4.446117	يُدْعَوْنَ	-0.19696505
-4.3296957	كِتَابِ	-0.23644666
-4.446117	يَتَوَلَّى	-0.07320749
-4.6152925	وَغَرَّهُمْ	-0.07320749
-4.6152925	دِينِهِمْ	-0.07320749
-4.0592246	يَفْتَرُونَ	-0.2601811
-3.8299716	فَكَيْفَ	-0.39681017
-4.6152925	جَمَعْنَاهُمْ	-0.07320749
-4.446117	وَوُفِّيَتْ	-0.19696505
-4.1737366	اللَّهُمَّ	-0.07320746
-4.6152925	مَالِكَ	-0.07320749
-4.3296957	الْمُلْكِ	-0.07320746
-4.446117	تُؤْتِي	-0.07320749
-4.446117	تَشَاءُ	-0.07320749
-4.6152925	وَتَنْزِعُ	-0.07320749
-4.6152925	وَتُعِزُّ	-0.07320749
-4.6152925	وَتُذِلُّ	-0.07320749
-4.446117	بِيَدِكَ	-0.07320749
-4.446117	الْخَيْرُ	-0.07320749
-4.6152925	تُولِجُ	-0.07320749
-3.5383806	اللَّيْلَ	-0.2582599
-3.8299716	النَّهَارِ	-0.07320746
-4.6152925	وَتُولِجُ	-0.07320749
-3.8299716	النَّهَارَ	-0.09782241
-4.446117	وَتُخْرِجُ	-0.07320749
-4.446117	الْحَيَّ	-0.19696505
-4.446117	الْمَيِّتِ	-0.07320749
-4.446117	الْمَيِّتَ	-0.19696505
-4.446117	الْحَيِّ	-0.07320746
-4.6152925	وَتَرْزُقُ	-0.07320749
-4.446117	يَتَّخِذِ	-0.07320749
-3.6405213	الْمُؤْمِنُونَ	-0.11723268
-3.509054	أَوْلِيَاءَ	-0.114227965
-4.446117	تَتَّقُوا	-0.07320749
-4.6152925	تُقَاةً	-0.07320749
-4.446117	وَيُحَذِّرُكُمُ	-0.19696505
-4.6152925	تُخْفُوا	-0.07320749
-4.6152925	صُدُورِكُمْ	-0.07320749
-4.6152925	تُبْدُوهُ	-0.07320749
-3.7743201	وَيَعْلَمُ	-0.5886292
-4.3296957	تَجِدُ	-0.07320746
-4.3296957	عَمِلَتْ	-0.1185709
-4.6152925	مُحْضَرًا	-0.07320749
-4.1737366	سُوءٍ	-0.07320749
-4.6152925	تَوَدُّ	-0.07320749
-4.446117	بَيْنَهَا	-0.07320749
-4.3296957	وَبَيْنَهُ	-0.07320749
-4.3296957	أَمَدًا	-0.15167965
-4.3296957	بَعِيدًا	-0.15167965
-3.9686933	تُحِبُّونَ	-0.07320749
-4.446117	فَاتَّبِعُونِي	-0.07320749
-4.6152925	يُحْبِبْكُمُ	-0.07320749
-3.893817	وَيَغْفِرْ	-0.47948474
-4.6152925	ذُنُوبَكُمْ	-0.07320749
-4.446117	أَطِيعُوا	-0.19696505
-4.6152925	وَالرَّسُولَ	-0.07320749
-4.3296957	وَنُوحًا	-0.07320749
-4.446117	وَآلَ	-0.07320749
-4.3296957	عِمْرَانَ	-0.07320749
-4.1737366	ذُرِّيَّةً	-0.07320749
-4.446117	بَعْضُهَا	-0.07320749
-4.1737366	قَالَتِ	-0.16923133
-4.3296957	امْرَأَتُ	-0.13069282
-4.6152925	نَذَرْتُ	-0.07320749
-4.6152925	بَطْنِي	-0.07320749
-4.6152925	مُحَرَّرًا	-0.07320749
-4.6152925	فَتَقَبَّلْ	-0.07320749
-4.6152925	وَضَعَتْهَا	-0.07320749
-3.60374	قَالَتْ	-0.14251468
-4.6152925	وَضَعْتُهَا	-0.07320749
-4.1737366	أُنْثَى	-0.07320746
-4.6152925	وَضَعَتْ	-0.07320749
-4.446117	الذَّكَرُ	-0.07320749
-4.6152925	كَالْأُنْثَى	-0.07320749
-3.7743201	وَإِنِّي	-0.07320749
-4.6152925	سَمَّيْتُهَا	-0.07320749
-4.6152925	أُعِيذُهَا	-0.07320749
-3.8299716	بِكَ	-0.07320746
-4.6152925	وَذُرِّيَّتَهَا	-0.07320749
-4.6152925	الرَّجِيمِ	-0.07320749
-4.6152925	فَتَقَبَّلَهَا	-0.07320749
-4.6152925	رَبُّهَا	-0.07320749
-4.6152925	بِقَبُولٍ	-0.07320749
-4.6152925	حَسَنٍ	-0.07320749
-4.6152925	وَأَنْبَتَهَا	-0.07320749
-4.446117	نَبَاتًا	-0.07320749
-4.6152925	وَكَفَّلَهَا	-0.07320749
-4.0592246	زَكَرِيَّا	-0.07320746
-4.446117	دَخَلَ	-0.07320749
-4.446117	الْمِحْرَابَ	-0.07320749
-4.3296957	وَجَدَ	-0.07320749
-4.3296957	عِنْدَهَا	-0.07320749
-4.6152925	مَرْيَمُ	-0.07320749
-4.446117	لَكِ	-0.07320749
-4.0592246	هُنَالِكَ	-0.07320749
-4.3296957	دَعَا	-0.07320749
-4.446117	هَبْ	-0.07320749
-4.0592246	طَيِّبَةً	-0.07320746
-4.6152925	سَمِيعُ	-0.07320749
-4.446117	الدُّعَاءِ	-0.19696505
-4.6152925	فَنَادَتْهُ	-0.07320749
-4.3296957	قَائِمٌ	-0.07320749
-4.446117	يُصَلِّي	-0.07320749
-4.446117	الْمِحْرَابِ	-0.07320749
-4.6152925	يُبَشِّرُكَ	-0.07320749
-4.6152925	بِيَحْيَى	-0.07320749
-4.446117	بِكَلِمَةٍ	-0.07320749
-4.6152925	وَسَيِّدًا	-0.07320749
-4.6152925	وَحَصُورًا	-0.07320749
-4.6152925	وَنَبِيًّا	-0.07320749
-4.446117	غُلَامٌ	-0.07320749
-4.6152925	بَلَغَنِيَ	-0.07320749
-4.6152925	وَامْرَأَتِي	-0.07320749
-4.6152925	عَاقِرٌ	-0.07320749
-4.6152925	آيَتُكَ	-0.07320749
-4.6152925	تُكَلِّمَ	-0.07320749
-4.6152925	رَمْزًا	-0.07320749
-4.1737366	وَاذْكُرْ	-0.16706128
-4.0592246	وَسَبِّحْ	-0.19852152
-4.1737366	بِالْعَشِيِّ	-0.13069282
-4.6152925	وَالْإِبْكَارِ	-0.07320749
-4.6152925	اصْطَفَاكِ	-0.07320749
-4.6152925	وَطَهَّرَكِ	-0.07320749
-4.6152925	وَاصْطَفَاكِ	-0.07320749
-4.6152925	نِسَاءِ	-0.07320749
-4.6152925	اقْنُتِي	-0.07320749
-4.6152925	لِرَبِّكِ	-0.07320749
-4.6152925	وَاسْجُدِي	-0.07320749
-4.6152925	وَارْكَعِي	-0.07320749
-4.6152925	أَنْبَاءِ	-0.07320749
-3.893817	الْغَيْبِ	-0.14841872
-4.6152925	نُوحِيهِ	-0.07320749
-4.3296957	لَدَيْهِمْ	-0.07320749
-4.446117	يُلْقُونَ	-0.07320749
-4.6152925	أَقْلَامَهُمْ	-0.07320749
-3.9686933	أَيُّهُمْ	-0.11067356
-4.6152925	يَكْفُلُ	-0.07320749
-4.3296957	يَخْتَصِمُونَ	-0.30809534
-4.6152925	يُبَشِّرُكِ	-0.07320749
-3.893817	الْمَسِيحُ	-0.19807625
-4.1737366	ابْنُ	-0.2601811
-4.446117	وَجِيهًا	-0.07320749
-4.3296957	الْمُقَرَّبِينَ	-0.30809534
-4.6152925	وَيُكَلِّمُ	-0.07320749
-4.6152925	الْمَهْدِ	-0.07320749
-4.6152925	وَكَهْلًا	-0.07320749
-3.9686933	وَلَدٌ	-0.18620731
-4.6152925	يَمْسَسْنِي	-0.07320749
-4.0592246	بَشَرٌ	-0.100999735
-4.446117	كَذَلِكِ	-0.15167965
-3.7743201	يَخْلُقُ	-0.28550485
-4.6152925	وَيُعَلِّمُهُ	-0.07320749
-4.6152925	وَالتَّوْرَاةَ	-0.07320749
-4.6152925	وَرَسُولًا	-0.07320749
-3.60374	أَنِّي	-0.07320752
-4.446117	جِئْتُكُمْ	-0.07320749
-3.6807084	بِآيَةٍ	-0.17275293
-4.6152925	أَخْلُقُ	-0.07320749
-4.446117	الطِّينِ	-0.07320749
-4.6152925	كَهَيْئَةِ	-0.07320749
-4.6152925	فَأَنْفُخُ	-0.07320749
-4.3296957	طَيْرًا	-0.07320749
-4.6152925	وَأُبْرِئُ	-0.07320749
-4.446117	الْأَكْمَهَ	-0.19696505
-4.6152925	وَالْأَبْرَصَ	-0.07320749
-4.6152925	وَأُحْيِي	-0.07320749
-4.6152925	وَأُنَبِّئُكُمْ	-0.07320749
-3.9686933	تَأْكُلُونَ	-0.24190821
-4.6152925	تَدَّخِرُونَ	-0.07320749
-4.3296957	بُيُوتِكُمْ	-0.07320746
-4.446117	وَمُصَدِّقًا	-0.19696505
-4.6152925	يَدَيَّ	-0.07320749
-4.446117	التَّوْرَاةِ	-0.07320749
-4.6152925	وَلِأُحِلَّ	-0.07320749
-4.6152925	حُرِّمَ	-0.07320749
-4.6152925	وَجِئْتُكُمْ	-0.07320749
-4.446117	وَأَطِيعُونِ	-0.19696505
-2.9755352	رَبِّي	-0.1220776
-4.3296957	فَاعْبُدُوهُ	-0.07320749
-4.6152925	صِرَاطٌ	-0.07320749
-4.446117	مُسْتَقِيمٌ	-0.19696505
-4.6152925	أَحَسَّ	-0.07320749
-3.893817	مِنْهُمُ	-0.07320752
-4.6152925	أَنْصَارِي	-0.07320749
-4.6152925	الْحَوَارِيُّونَ	-0.07320749
-4.6152925	أَنْصَارُ	-0.07320749
-4.446117	وَاشْهَدْ	-0.07320749
-4.446117	بِأَنَّا	-0.19696505
-4.446117	أَنْزَلْتَ	-0.07320749
-4.6152925	وَاتَّبَعْنَا	-0.07320749
-4.446117	فَاكْتُبْنَا	-0.19696505
-4.446117	الشَّاهِدِينَ	-0.19696505
-4.6152925	وَمَكَرُوا	-0.07320749
-4.6152925	وَمَكَرَ	-0.07320749
-3.9686933	خَيْرُ	-0.16113263
-4.6152925	الْمَاكِرِينَ	-0.07320749
-4.6152925	مُتَوَفِّيكَ	-0.07320749
-4.6152925	وَرَافِعُكَ	-0.07320749
-3.5383806	إِلَيَّ	-0.0932419
-4.6152925	وَمُطَهِّرُكَ	-0.07320749
-4.6152925	وَجَاعِلُ	-0.07320749
-4.6152925	اتَّبَعُوكَ	-0.07320749
-3.6405213	فَوْقَ	-0.12111114
-4.0592246	مَرْجِعُكُمْ	-0.100999735
-4.6152925	فَأَحْكُمُ	-0.07320749
-4.446117	تَخْتَلِفُونَ	-0.07320749
-4.6152925	فَأُعَذِّبُهُمْ	-0.07320749
-3.273962	عَذَابًا	-0.29491687
-4.0592246	شَدِيدًا	-0.07320749
-4.6152925	فَيُوَفِّيهِمْ	-0.07320749
-4.3296957	أُجُورَهُمْ	-0.07320749
-4.6152925	نَتْلُوهُ	-0.07320749
-4.6152925	وَالذِّكْرِ	-0.07320749
-4.1737366	الْحَكِيمِ	-0.4330341
-4.446117	مَثَلَ	-0.07320749
-4.3296957	خَلَقَهُ	-0.07320749
-4.6152925	تُرَابٍ	-0.07320749
-3.893817	تَكُنْ	-0.13471918
-4.6152925	حَاجَّكَ	-0.07320749
-4.1737366	تَعَالَوْا	-0.11067356
-4.6152925	نَدْعُ	-0.07320749
-4.6152925	أَبْنَاءَنَا	-0.07320749
-4.6152925	وَأَبْنَاءَكُمْ	-0.07320749
-4.6152925	وَنِسَاءَنَا	-0.07320749
-4.6152925	وَنِسَاءَكُمْ	-0.07320749
-4.6152925	وَأَنْفُسَنَا	-0.07320749
-4.6152925	وَأَنْفُسَكُمْ	-0.07320749
-4.6152925	نَبْتَهِلْ	-0.07320749
-4.6152925	فَنَجْعَلْ	-0.07320749
-4.446117	لَعْنَتَ	-0.19696505
-4.0592246	الْكَاذِبِينَ	-0.52994406
-4.1737366	لَهُوَ	-0.09529717
-4.6152925	الْقَصَصُ	-0.07320749
-4.446117	إِلَهٍ	-0.07320746
-4.446117	بِالْمُفْسِدِينَ	-0.19696505
-3.893817	أَهْلَ	-0.16706128
-4.446117	كَلِمَةٍ	-0.07320749
-4.446117	سَوَاءٍ	-0.07320749
-3.6405213	بَيْنَنَا	-0.14511347
-4.446117	وَبَيْنَكُمْ	-0.07320749
-4.446117	نَعْبُدَ	-0.07320749
-4.3296957	نُشْرِكَ	-0.07320749
-4.446117	يَتَّخِذَ	-0.07320749
-4.3296957	بَعْضُنَا	-0.07320749
-4.3296957	أَرْبَابًا	-0.15167965
-4.446117	فَقُولُوا	-0.07320749
-4.6152925	اشْهَدُوا	-0.07320749
-3.7249968	لِمَ	-0.07320752
-4.446117	تُحَاجُّونَ	-0.07320749
-4.6152925	أُنْزِلَتِ	-0.07320749
-4.3296957	التَّوْرَاةُ	-0.07320749
-4.6152925	وَالْإِنْجِيلُ	-0.07320749
-4.6152925	هَا	-0.07320749
-4.6152925	حَاجَجْتُمْ	-0.07320749
-4.446117	عِلْمٌ	-0.07320746
-4.6152925	يَهُودِيًّا	-0.07320749
-4.6152925	نَصْرَانِيًّا	-0.07320749
-4.446117	مُسْلِمًا	-0.07320749
-3.893817	أَوْلَى	-0.10511928
-4.6152925	بِإِبْرَاهِيمَ	-0.07320749
-4.6152925	لَلَّذِينَ	-0.07320749
-4.446117	اتَّبَعُوهُ	-0.07320749
-3.6807084	وَهَذَا	-0.10511928
-4.0592246	النَّبِيُّ	-0.07320749
-4.6152925	وَدَّتْ	-0.07320749
-3.6405213	طَائِفَةٌ	-0.22330095
-4.6152925	يُضِلُّونَكُمْ	-0.07320749
-4.6152925	يُضِلُّونَ	-0.07320749
-4.6152925	تَلْبِسُونَ	-0.07320749
-4.6152925	وَتَكْتُمُونَ	-0.07320749
-4.3296957	وَقَالَتْ	-0.07320746
-4.3296957	وَجْهَ	-0.15167965
-4.6152925	وَاكْفُرُوا	-0.07320749
-4.6152925	آخِرَهُ	-0.07320749
-3.893817	تُؤْمِنُوا	-0.100999735
-4.1737366	دِينَكُمْ	-0.07320749
-4.6152925	يُؤْتَى	-0.07320749
-3.6807084	أَحَدٌ	-0.26326862
-4.1737366	أُوتِيتُمْ	-0.1185709
-4.6152925	يُحَاجُّوكُمْ	-0.07320749
-4.6152925	بِيَدِ	-0.07320749
-4.6152925	يُؤْتِيهِ	-0.07320749
-4.6152925	تَأْمَنْهُ	-0.07320749
-4.6152925	بِقِنْطَارٍ	-0.07320749
-4.446117	يُؤَدِّهِ	-0.19696505
-4.6152925	بِدِينَارٍ	-0.07320749
-4.6152925	دُمْتَ	-0.07320749
-4.6152925	الْأُمِّيِّينَ	-0.07320749
-4.6152925	سَبِيلٌ	-0.07320749
-3.481583	وَيَقُولُونَ	-0.103616744
-4.1737366	الْكَذِبَ	-0.07320749
-4.446117	أَوْفَى	-0.15167965
-4.6152925	بِعَهْدِهِ	-0.07320749
-4.446117	وَاتَّقَى	-0.07320749
-4.1737366	يَشْتَرُونَ	-0.07320749
-4.1737366	بِعَهْدِ	-0.4330341
-4.6152925	وَأَيْمَانِهِمْ	-0.07320749
-4.6152925	خَلَاقَ	-0.07320749
-4.1737366	يَنْظُرُ	-0.07320749
-3.1847596	إِلَيْهِمْ	-0.09153665
-4.6152925	لَفَرِيقًا	-0.07320749
-4.6152925	يَلْوُونَ	-0.07320749
-4.6152925	أَلْسِنَتَهُمْ	-0.07320749
-4.1737366	بِالْكِتَابِ	-0.07320749
-4.6152925	لِتَحْسَبُوهُ	-0.07320749
-4.3296957	لِبَشَرٍ	-0.07320749
-4.6152925	يُؤْتِيَهُ	-0.07320749
-4.6152925	وَالْحُكْمَ	-0.07320749
-4.6152925	وَالنُّبُوَّةَ	-0.07320749
-4.446117	عِبَادًا	-0.07320749
-4.6152925	رَبَّانِيِّينَ	-0.07320749
-4.6152925	تُعَلِّمُونَ	-0.07320749
-4.0592246	وَبِمَا	-0.1185709
-4.446117	تَدْرُسُونَ	-0.19696505
-4.6152925	يَأْمُرَكُمْ	-0.07320749
-3.7743201	الْمَلَائِكَةَ	-0.07320749
-4.6152925	أَيَأْمُرُكُمْ	-0.07320749
-4.1737366	بِالْكُفْرِ	-0.07320749
-3.893817	أَخَذَ	-0.14720213
-4.6152925	آتَيْتُكُمْ	-0.07320749
-4.3296957	كِتَابٍ	-0.07320749
-4.6152925	وَحِكْمَةٍ	-0.07320749
-4.6152925	لَتُؤْمِنُنَّ	-0.07320749
-4.6152925	وَلَتَنْصُرُنَّهُ	-0.07320749
-4.6152925	أَأَقْرَرْتُمْ	-0.07320749
-4.6152925	وَأَخَذْتُمْ	-0.07320749
-4.6152925	إِصْرِي	-0.07320749
-4.6152925	أَقْرَرْنَا	-0.07320749
-4.6152925	فَاشْهَدُوا	-0.07320749
-4.3296957	أَفَغَيْرَ	-0.23644666
-4.3296957	دِينِ	-0.13069282
-4.1737366	يَبْغُونَ	-0.07320749
-4.3296957	طَوْعًا	-0.15167965
-4.6152925	وَكَرْهًا	-0.07320749
-3.9686933	يُرْجَعُونَ	-0.41253793
-4.6152925	وَالنَّبِيُّونَ	-0.07320749
-4.6152925	يَبْتَغِ	-0.07320749
-4.446117	الْإِسْلَامِ	-0.07320749
-4.1737366	دِينًا	-0.07320749
-4.6152925	يُقْبَلَ	-0.07320749
-3.273962	قَوْمًا	-0.12534043
-4.446117	إِيمَانِهِمْ	-0.07320749
-4.3296957	وَشَهِدُوا	-0.15167965
-4.3296957	حَقٌّ	-0.07320749
-4.446117	وَجَاءَهُمُ	-0.07320749
-4.3296957	جَزَاؤُهُمْ	-0.07320746
-4.6152925	لَعْنَةَ	-0.07320749
-4.6152925	ازْدَادُوا	-0.07320749
-4.3296957	كُفْرًا	-0.07320749
-4.446117	تُقْبَلَ	-0.07320749
-4.6152925	تَوْبَتُهُمْ	-0.07320749
-4.3296957	الضَّالُّونَ	-0.15167965
-4.446117	أَحَدِهِمْ	-0.07320749
-4.6152925	مِلْءُ	-0.07320749
-4.6152925	ذَهَبًا	-0.07320749
-4.3296957	وَلَوِ	-0.07320749
-4.6152925	افْتَدَى	-0.07320749
-4.6152925	تَنَالُوا	-0.07320749
