\data\
ngram 1=14819
ngram 2=47745
ngram 3=7629
ngram 4=4944
ngram 5=3222

\1-grams:
-4.716891	<unk>	0
0	<s>	-0.6007542
-1.3148712	</s>	0
-4.304746	بسم	-0.3133375
-1.9335666	الله	-0.28545505
-3.1965272	الرحمن	-0.11371629
-3.9492035	الرحيم	-0.4176034
-3.5528967	الحمد	-0.5336971
-2.8504813	لله	-0.16911201
-3.1182215	رب	-0.23950204
-3.7563627	العالمين	-0.7904588
-4.304746	مالك	-0.077964544
-2.718139	يوم	-0.25120863
-3.5528967	الدين	-0.112876244
-4.5883145	إياك	-0.077964544
-4.151696	نعبد	-0.077964544
-4.5883145	وإياك	-0.077964544
-4.5883145	نستعين	-0.077964544
-4.5883145	اهدنا	-0.077964544
-3.9492035	الصراط	-0.115153395
-4.304746	المستقيم	-0.24151213
-3.9492035	صراط	-0.1305838
-2.2567208	الذين	-0.41372788
-4.304746	أنعمت	-0.1350145
-2.541046	عليهم	-0.1356899
-2.9516559	غير	-0.1336156
-4.5883145	المغضوب	-0.077964544
-2.1197793	ولا	-0.154417
-4.0387535	الضالين	-0.5351863
-4.5883145	الم	-0.077964544
-2.6730316	ذلك	-0.22715424
-3.0221887	الكتاب	-0.17739518
-2.2518203	لا	-0.20041858
-4.304746	ريب	-0.077964544
-2.763175	فيه	-0.14414708
-3.241702	هدي	-0.2073187
-3.6232855	للمتقين	-0.39512283
-3.3491862	يؤمنون	-0.3376102
-3.7563627	بالغيب	-0.077964544
-4.4276314	ويقيمون	-0.20070848
-3.2110696	الصلاة	-0.13734145
-3.7563627	ومما	-0.20323732
-4.4276314	رزقناهم	-0.077964544
-3.874999	ينفقون	-0.17685261
-2.9279037	والذين	-0.2929661
-2.4960372	بما	-0.33916774
-3.3918676	أنزل	-0.32237497
-3.1427875	إليك	-0.14052357
-2.210039	وما	-0.2764007
-1.5791206	من	-0.3861542
-4.151696	قبلك	-0.10818298
-4.5883145	وبالآخرة	-0.077964544
-2.9053833	هم	-0.16801563
-4.151696	يوقنون	-0.43827623
-2.8569763	أولئك	-0.35926586
-2.0753863	علي	-0.32050803
-3.0729024	ربهم	-0.1080657
-3.4392054	وأولئك	-0.5407794
-4.5883145	المفلحون	-0.077964544
-2.0786445	إن	-0.41228384
-3.4148917	كفروا	-0.11109834
-3.4148917	سواء	-0.1435713
-4.5883145	أأنذرتهم	-0.077964544
-2.9356775	أم	-0.16244522
-2.7738507	لم	-0.15029266
-4.5883145	تنذرهم	-0.077964544
-4.5883145	ختم	-0.077964544
-3.2746603	قلوبهم	-0.103418246
-3.2746603	وعلي	-0.20765086
-4.304746	سمعهم	-0.077964544
-3.8116424	أبصارهم	-0.077964544
-4.4276314	غشاوة	-0.077964544
-3.1824563	ولهم	-0.4044218
-2.9435933	عذاب	-0.40629202
-3.3918676	عظيم	-1.1372463
-2.4179819	ومن	-0.20224537
-2.76848	الناس	-0.14568283
-3.4148917	يقول	-0.1281962
-3.3491862	آمنا	-0.22143915
-2.9356775	بالله	-0.21191186
-4.5883145	وباليوم	-0.077964544
-3.874999	الآخر	-0.10239996
-4.0387535	بمؤمنين	-0.5351863
-4.4276314	يخادعون	-0.20070848
-3.3918676	آمنوا	-0.14645061
-4.5883145	يخدعون	-0.077964544
-2.1560054	إلا	-0.3080719
-3.1965272	أنفسهم	-0.09968936
-4.4276314	يشعرون	-0.15582757
-1.8684487	في	-0.36878613
-4.4276314	مرض	-0.077964544
-4.4276314	فزادهم	-0.077964544
-4.5883145	مرضا	-0.077964544
-3.874999	أليم	-0.2819171
-3.0318687	كانوا	-0.18562724
-4.151696	يكذبون	-0.24151213
-3.2746603	وإذا	-0.091685124
-3.6232855	قيل	-0.2251062
-2.397061	لهم	-0.22596928
-4.304746	تفسدوا	-0.3133375
-2.8569763	الأرض	-0.12031948
-2.6730316	قالوا	-0.24524269
-3.0417695	إنما	-0.13642083
-3.241702	نحن	-0.10095215
-4.4276314	مصلحون	-0.20070848
-2.8770654	ألا	-0.18368798
-3.0729024	إنهم	-0.21116811
-4.5883145	المفسدون	-0.077964544
-2.757934	ولكن	-0.30455893
-2.959871	كما	-0.092968814
-3.5528967	آمن	-0.1269508
-4.4276314	أنؤمن	-0.077964544
-4.0387535	السفهاء	-0.077964544
-3.5528967	يعلمون	-0.21581216
-4.5883145	لقوا	-0.077964544
-4.4276314	خلوا	-0.077964544
-2.217479	إلي	-0.3043497
-4.5883145	شياطينهم	-0.077964544
-2.8377755	إنا	-0.18479769
-3.4649613	معكم	-0.13076757
-4.5883145	مستهزئون	-0.077964544
-4.5883145	يستهزئ	-0.077964544
-3.1965272	بهم	-0.11127604
-4.5883145	ويمدهم	-0.077964544
-4.5883145	طغيانهم	-0.077964544
-4.304746	يعمهون	-0.3133375
-4.304746	اشتروا	-0.077964544
-4.0387535	الضلالة	-0.077964544
-4.304746	بالهدي	-0.077964544
-2.9767826	فما	-0.15578076
-4.5883145	ربحت	-0.077964544
-4.5883145	تجارتهم	-0.077964544
-4.5883145	مهتدين	-0.077964544
-4.151696	مثلهم	-0.077964544
-3.7073314	كمثل	-0.094733894
-2.6995301	الذي	-0.18675716
-4.5883145	استوقد	-0.077964544
-3.4649613	نارا	-0.09001042
-3.0949712	فلما	-0.112104475
-4.5883145	أضاءت	-0.077964544
-2.0341282	ما	-0.25789163
-4.0387535	حوله	-0.077964544
-3.874999	ذهب	-0.077964544
-4.5883145	بنورهم	-0.077964544
-4.5883145	وتركهم	-0.077964544
-4.151696	ظلمات	-0.109641746
-3.9492035	يبصرون	-0.41085723
-4.304746	صم	-0.15582757
-3.2578688	بكم	-0.090359546
-4.304746	عمي	-0.077964544
-3.2110696	فهم	-0.2557631
-3.6632786	يرجعون	-0.68084484
-2.3685174	أو	-0.1281369
-4.5883145	كصيب	-0.077964544
-3.1688266	السماء	-0.14018212
-4.5883145	ورعد	-0.077964544
-4.5883145	وبرق	-0.077964544
-4.4276314	يجعلون	-0.077964544
-4.4276314	أصابعهم	-0.20070848
-4.304746	آذانهم	-0.077964544
-4.4276314	الصواعق	-0.077964544
-4.4276314	حذر	-0.20070848
-3.2921274	الموت	-0.11550034
-2.5164623	والله	-0.45125303
-3.9492035	محيط	-0.4176034
-4.4276314	بالكافرين	-0.20070848
-4.0387535	يكاد	-0.077964544
-4.4276314	البرق	-0.077964544
-4.5883145	يخطف	-0.077964544
-3.6632786	كلما	-0.09616103
-4.5883145	أضاء	-0.077964544
-4.5883145	مشوا	-0.077964544
-4.151696	أظلم	-0.1350145
-4.151696	قاموا	-0.077964544
-2.9279037	ولو	-0.24542548
-3.6632786	شاء	-0.15527877
-4.4276314	لذهب	-0.077964544
-4.5883145	بسمعهم	-0.077964544
-4.151696	وأبصارهم	-0.077964544
-2.6645463	كل	-0.28179517
-3.3491862	شئ	-0.11410076
-4.151696	قدير	-0.20350471
-2.8134277	يا	-0.36651078
-3.8116424	أيها	-0.088790685
-4.0387535	اعبدوا	-0.33842218
-3.0729024	ربكم	-0.10991089
-3.8116424	خلقكم	-0.19227992
-4.5883145	قبلكم	-0.077964544
-3.1303308	لعلكم	-0.46427083
-4.0387535	تتقون	-0.33842218
-3.4148917	جعل	-0.18838038
-2.4820144	لكم	-0.20983548
-4.5883145	فراشا	-0.077964544
-4.304746	والسماء	-0.109641746
-4.4276314	بناء	-0.077964544
-3.6632786	وأنزل	-0.14631982
-3.7563627	ماء	-0.08595791
-4.4276314	فأخرج	-0.077964544
-2.3417344	به	-0.18630397
-4.4276314	الثمرات	-0.077964544
-3.5528967	رزقا	-0.13587105
-2.6244416	فلا	-0.1509368
-4.151696	تجعلوا	-0.122989215
-4.304746	أندادا	-0.077964544
-3.1427875	وأنتم	-0.17552002
-3.6632786	تعلمون	-0.31582963
-2.5637605	وإن	-0.20274028
-3.1965272	كنتم	-0.16521335
-2.807548	مما	-0.15043421
-4.0387535	نزلنا	-0.115153395
-4.151696	عبدنا	-0.077964544
-3.9492035	فأتوا	-0.09989366
-4.5883145	بسورة	-0.077964544
-3.7073314	مثله	-0.0978537
-4.304746	وادعوا	-0.1350145
-4.4276314	شهداءكم	-0.077964544
-3.8116424	دون	-0.27532712
-4.304746	صادقين	-0.3133375
-2.6645463	فإن	-0.28574765
-4.0387535	تفعلوا	-0.077964544
-3.4923413	ولن	-0.12730278
-3.7563627	فاتقوا	-0.5936946
-3.1064408	النار	-0.19734542
-3.1427875	التي	-0.124239445
-4.4276314	وقودها	-0.20070848
-4.5883145	والحجارة	-0.077964544
-4.304746	أعدت	-0.1350145
-3.4649613	للكافرين	-0.16178386
-3.7563627	وبشر	-0.30713785
-4.151696	وعملوا	-0.43827623
-4.0387535	الصالحات	-0.088523395
-2.1969597	أن	-0.16394378
-3.3103266	جنات	-0.3974872
-3.4148917	تجري	-0.42488614
-4.4276314	تحتها	-0.15582757
-3.874999	الأنهار	-0.09616103
-4.5883145	رزقوا	-0.077964544
-2.8702652	منها	-0.13886707
-4.5883145	ثمرة	-0.077964544
-2.757934	هذا	-0.18356112
-4.5883145	رزقنا	-0.077964544
-3.4148917	قبل	-0.11623646
-4.4276314	وأتوا	-0.077964544
-4.304746	متشابها	-0.077964544
-2.6020439	فيها	-0.15337051
-4.0387535	أزواج	-0.077964544
-4.151696	مطهرة	-0.122989215
-2.6645463	وهم	-0.2825993
-4.151696	خالدون	-0.43827623
-4.5883145	يستحيي	-0.077964544
-4.4276314	يضرب	-0.077964544
-3.6632786	مثلا	-0.08936802
-4.5883145	بعوضة	-0.077964544
-4.4276314	فوقها	-0.077964544
-3.9492035	فأما	-0.21539539
-4.5883145	فيعلمون	-0.077964544
-3.3293219	أنه	-0.28635225
-2.9202664	الحق	-0.1631378
-4.0387535	وأما	-0.11591702
-4.5883145	فيقولون	-0.077964544
-3.4392054	ماذا	-0.122989215
-3.6632786	أراد	-0.1828096
-3.7073314	بهذا	-0.11869761
-3.6632786	يضل	-0.14631982
-3.1824563	كثيرا	-0.29109177
-4.151696	ويهدي	-0.122989215
-4.151696	الفاسقين	-0.43827623
-4.151696	ينقضون	-0.1350145
-3.9492035	عهد	-0.115153395
-3.0127196	بعد	-0.19777644
-4.5883145	ميثاقه	-0.077964544
-4.5883145	ويقطعون	-0.077964544
-3.3293219	أمر	-0.20699015
-4.5883145	يوصل	-0.077964544
-4.5883145	ويفسدون	-0.077964544
-4.4276314	الخاسرون	-0.20070848
-3.226116	كيف	-0.14046107
-3.9492035	تكفرون	-0.16378684
-3.8116424	وكنتم	-0.10555342
-4.4276314	أمواتا	-0.077964544
-4.5883145	فأحياكم	-0.077964544
-2.484783	ثم	-0.17099595
-4.5883145	يميتكم	-0.077964544
-4.304746	يحييكم	-0.122989215
-2.9127612	إليه	-0.14645123
-3.874999	ترجعون	-0.4845502
-2.8134277	هو	-0.16735277
-3.1688266	خلق	-0.24352868
-3.2578688	جميعا	-0.14733012
-4.4276314	استوي	-0.077964544
-4.5883145	فسواهن	-0.077964544
-3.6232855	سبع	-0.19089091
-4.5883145	سماوات	-0.077964544
-2.6995301	وهو	-0.2741749
-3.5528967	بكل	-0.27125856
-3.3700027	عليم	-0.4609107
-3.8116424	وإذ	-0.07796451
-2.5378957	قال	-0.22791998
-2.801747	ربك	-0.13149954
-4.304746	للملائكة	-0.077964544
-2.9053833	إني	-0.21058716
-4.4276314	جاعل	-0.077964544
-4.4276314	خليفة	-0.077964544
-4.5883145	أتجعل	-0.077964544
-4.5883145	يفسد	-0.077964544
-4.5883145	ويسفك	-0.077964544
-4.5883145	الدماء	-0.077964544
-3.5528967	ونحن	-0.23464231
-4.5883145	نسبح	-0.077964544
-4.5883145	بحمدك	-0.077964544
-4.5883145	ونقدس	-0.077964544
-2.9516559	لك	-0.13569391
-3.4649613	أعلم	-0.27037042
-4.4276314	وعلم	-0.077964544
-3.6632786	آدم	-0.11767431
-4.151696	الأسماء	-0.24151213
-4.151696	كلها	-0.077964544
-4.5883145	عرضهم	-0.077964544
-3.2110696	الملائكة	-0.1162642
-3.3918676	فقال	-0.115153395
-4.5883145	أنبئوني	-0.077964544
-4.5883145	بأسماء	-0.077964544
-3.241702	هؤلاء	-0.104859255
-3.9492035	سبحانك	-0.10240003
-3.3491862	علم	-0.12507498
-2.9202664	لنا	-0.18425958
-4.5883145	علمتنا	-0.077964544
-3.1303308	إنك	-0.3058459
-3.3293219	أنت	-0.11478289
-3.7563627	العليم	-0.33842218
-3.874999	الحكيم	-0.35241938
-4.5883145	أنبئهم	-0.077964544
-4.4276314	بأسمائهم	-0.077964544
-4.5883145	أنبأهم	-0.077964544
-3.5866666	ألم	-0.12986572
-4.4276314	أقل	-0.077964544
-4.0387535	غيب	-0.5351863
-3.1965272	السماوات	-0.50365734
-4.0387535	والأرض	-0.10631141
-4.304746	وأعلم	-0.15582757
-4.5883145	تبدون	-0.077964544
-4.304746	تكتمون	-0.3133375
-3.874999	قلنا	-0.11869761
-4.4276314	اسجدوا	-0.077964544
-4.5883145	لآدم	-0.077964544
-4.5883145	فسجدوا	-0.077964544
-4.151696	إبليس	-0.077964544
-4.0387535	أبي	-0.077964544
-4.304746	واستكبر	-0.077964544
-2.807548	وكان	-0.4078532
-3.3103266	الكافرين	-0.29063618
-4.0387535	وقلنا	-0.115153395
-4.5883145	اسكن	-0.077964544
-4.5883145	وزوجك	-0.077964544
-3.2746603	الجنة	-0.10013925
-3.7563627	وكلا	-0.122989215
-4.304746	رغدا	-0.077964544
-3.6632786	حيث	-0.09989366
-4.5883145	شئتما	-0.077964544
-4.5883145	تقربا	-0.077964544
-3.226116	هذه	-0.16814661
-4.0387535	الشجرة	-0.077964544
-4.5883145	فتكونا	-0.077964544
-3.3103266	الظالمين	-0.3275661
-4.5883145	فأزلهما	-0.077964544
-3.0837965	الشيطان	-0.124437325
-3.3918676	عنها	-0.08779529
-4.5883145	فأخرجهما	-0.077964544
-4.4276314	كانا	-0.077964544
-4.151696	اهبطوا	-0.1350145
-3.4148917	بعضكم	-0.30557984
-4.304746	لبعض	-0.109641746
-3.5528967	عدو	-0.12231926
-3.6232855	ولكم	-0.17284705
-4.151696	مستقر	-0.1350145
-4.4276314	ومتاع	-0.20070848
-3.4392054	حين	-0.12231926
-4.4276314	فتلقي	-0.077964544
-3.0729024	ربه	-0.09422383
-4.304746	كلمات	-0.077964544
-4.0387535	فتاب	-0.2647292
-2.695	عليه	-0.14037688
-2.757934	إنه	-0.40150902
-4.304746	التواب	-0.3133375
-3.9492035	فإما	-0.109641746
-4.4276314	يأتينكم	-0.077964544
-3.7563627	مني	-0.09989366
-2.9127612	فمن	-0.17566119
-4.151696	تبع	-0.077964544
-4.4276314	هداي	-0.20070848
-3.9492035	خوف	-0.24684373
-4.5883145	يحزنون	-0.077964544
-4.4276314	وكذبوا	-0.1350145
-3.4392054	بآياتنا	-0.102971636
-3.241702	أصحاب	-0.3507914
-3.3700027	بني	-0.47277695
-4.0387535	إسرائيل	-0.09246021
-4.0387535	اذكروا	-0.20270391
-4.151696	نعمتي	-0.077964544
-2.7229185	عليكم	-0.13397987
-4.304746	وأوفوا	-0.122989215
-4.5883145	بعهدي	-0.077964544
-4.5883145	أوف	-0.077964544
-4.5883145	بعهدكم	-0.077964544
-4.304746	وإياي	-0.077964544
-4.4276314	فارهبون	-0.20070848
-4.0387535	وآمنوا	-0.109641746
-3.874999	أنزلت	-0.15208478
-3.7563627	مصدقا	-0.5936946
-2.959871	لما	-0.120845534
-3.8116424	تكونوا	-0.09246021
-3.4649613	أول	-0.30488634
-4.304746	كافر	-0.077964544
-4.5883145	تشتروا	-0.077964544
-4.304746	بآياتي	-0.077964544
-4.151696	ثمنا	-0.33842218
-3.3293219	قليلا	-0.19870773
-4.151696	فاتقون	-0.43827623
-4.5883145	تلبسوا	-0.077964544
-3.9492035	بالباطل	-0.10240003
-4.5883145	وتكتموا	-0.077964544
-3.8116424	وأقيموا	-0.35598817
-4.304746	وآتوا	-0.077964544
-3.7563627	الزكاة	-0.08736319
-4.5883145	واركعوا	-0.077964544
-3.0729024	مع	-0.25002074
-4.5883145	الراكعين	-0.077964544
-4.5883145	أتأمرون	-0.077964544
-4.4276314	بالبر	-0.077964544
-4.4276314	وتنسون	-0.077964544
-3.2578688	أنفسكم	-0.100209475
-4.5883145	تتلون	-0.077964544
-3.155612	أفلا	-0.3582687
-4.0387535	تعقلون	-0.5351863
-4.5883145	واستعينوا	-0.077964544
-4.304746	بالصبر	-0.1350145
-4.4276314	والصلاة	-0.077964544
-4.4276314	وإنها	-0.077964544
-4.4276314	لكبيرة	-0.20070848
-4.5883145	الخاشعين	-0.077964544
-4.304746	يظنون	-0.077964544
-3.2921274	أنهم	-0.123946264
-4.4276314	ملاقو	-0.15582757
-4.151696	وأنهم	-0.077964544
-4.304746	راجعون	-0.3133375
-4.304746	وأني	-0.077964544
-4.5883145	فضلتكم	-0.077964544
-3.1824563	واتقوا	-0.62654936
-3.5866666	يوما	-0.109641746
-4.304746	تجزي	-0.077964544
-3.4649613	نفس	-0.15705276
-2.4765298	عن	-0.21025136
-2.9943795	شيئا	-0.24418697
-4.151696	يقبل	-0.122989215
-4.0387535	شفاعة	-0.115153395
-4.304746	يؤخذ	-0.1350145
-4.0387535	عدل	-0.122989215
-4.151696	ينصرون	-0.43827623
-4.5883145	نجيناكم	-0.077964544
-3.5866666	آل	-0.35111672
-3.241702	فرعون	-0.108355395
-4.5883145	يسومونكم	-0.077964544
-3.4649613	سوء	-0.1971507
-3.051901	العذاب	-0.19115336
-4.5883145	يذبحون	-0.077964544
-4.151696	أبناءكم	-0.24151213
-4.5883145	ويستحيون	-0.077964544
-4.5883145	نساءكم	-0.077964544
-3.4148917	وفي	-0.13126253
-3.1965272	ذلكم	-0.2368863
-4.304746	بلاء	-0.077964544
-4.5883145	فرقنا	-0.077964544
-3.6632786	البحر	-0.07796451
-4.5883145	فأنجيناكم	-0.077964544
-4.151696	وأغرقنا	-0.20070848
-4.0387535	تنظرون	-0.5351863
-4.5883145	واعدنا	-0.077964544
-2.9682443	موسي	-0.15317614
-4.151696	أربعين	-0.20070848
-3.9492035	ليلة	-0.15208478
-4.304746	اتخذتم	-0.077964544
-4.151696	العجل	-0.122989215
-4.4276314	بعده	-0.077964544
-4.0387535	ظالمون	-0.5351863
-4.5883145	عفونا	-0.077964544
-3.3918676	عنكم	-0.15720612
-4.151696	تشكرون	-0.43827623
-4.0387535	آتينا	-0.14319624
-4.4276314	والفرقان	-0.077964544
-4.4276314	تهتدون	-0.20070848
-4.4276314	لقومه	-0.09989366
-3.0837965	قوم	-0.18407191
-3.3491862	إنكم	-0.12916031
-4.4276314	ظلمتم	-0.077964544
-4.5883145	باتخاذكم	-0.077964544
-4.5883145	فتوبوا	-0.077964544
-4.4276314	بارئكم	-0.077964544
-4.4276314	فاقتلوا	-0.077964544
-2.9943795	خير	-0.23987375
-2.807548	عند	-0.5669275
-3.8116424	قلتم	-0.10555342
-3.226116	لن	-0.13137174
-3.9492035	نؤمن	-0.077964544
-2.6440313	حتي	-0.23220764
-3.9492035	نري	-0.077964544
-4.4276314	جهرة	-0.077964544
-4.5883145	فأخذتكم	-0.077964544
-4.4276314	الصاعقة	-0.077964544
-4.5883145	بعثناكم	-0.077964544
-4.5883145	موتكم	-0.077964544
-4.4276314	وظللنا	-0.077964544
-4.304746	الغمام	-0.15582757
-3.7563627	وأنزلنا	-0.15310234
-4.4276314	المن	-0.20070848
-4.5883145	والسلوي	-0.077964544
-3.7563627	كلوا	-0.32719845
-4.304746	طيبات	-0.15582757
-4.4276314	رزقناكم	-0.115153395
-4.5883145	ظلمونا	-0.077964544
-3.9492035	يظلمون	-0.22177881
-3.6232855	ادخلوا	-0.16009521
-3.9492035	القرية	-0.18895374
-4.0387535	فكلوا	-0.2647292
-4.304746	شئتم	-0.077964544
-4.304746	وادخلوا	-0.15582757
-4.0387535	الباب	-0.122989215
-3.8116424	سجدا	-0.077964544
-3.8116424	وقولوا	-0.1350145
-4.5883145	حطة	-0.077964544
-4.4276314	نغفر	-0.20070848
-4.4276314	خطاياكم	-0.077964544
-4.5883145	وسنزيد	-0.077964544
-3.7073314	المحسنين	-0.68084484
-4.5883145	فبدل	-0.077964544
-3.6632786	ظلموا	-0.13082226
-3.4923413	قولا	-0.14946598
-4.304746	فأنزلنا	-0.077964544
-4.304746	رجزا	-0.3133375
-4.5883145	يفسقون	-0.077964544
-4.5883145	استسقي	-0.077964544
-4.151696	فقلنا	-0.077964544
-4.4276314	اضرب	-0.20070848
-4.5883145	بعصاك	-0.077964544
-4.4276314	الحجر	-0.077964544
-4.5883145	فانفجرت	-0.077964544
-2.7792885	منه	-0.10056922
-4.5883145	اثنتا	-0.077964544
-4.151696	عشرة	-0.077964544
-4.304746	عينا	-0.077964544
-2.8254309	قد	-0.15015431
-4.4276314	أناس	-0.077964544
-4.5883145	مشربهم	-0.077964544
-4.4276314	واشربوا	-0.077964544
-4.4276314	رزق	-0.077964544
-4.5883145	تعثوا	-0.077964544
-4.5883145	مفسدين	-0.077964544
-4.5883145	نصبر	-0.077964544
-3.8116424	طعام	-0.10240003
-3.8116424	واحد	-0.10935682
-4.4276314	فادع	-0.077964544
-3.6232855	يخرج	-0.19375007
-4.4276314	تنبت	-0.077964544
-4.5883145	بقلها	-0.077964544
-4.5883145	وقثائها	-0.077964544
-4.5883145	وفومها	-0.077964544
-4.5883145	وعدسها	-0.077964544
-4.5883145	وبصلها	-0.077964544
-4.5883145	أتستبدلون	-0.077964544
-3.9492035	أدني	-0.109641746
-3.7073314	بالذي	-0.11869761
-4.5883145	مصرا	-0.077964544
-4.5883145	سألتم	-0.077964544
-4.4276314	وضربت	-0.20070848
-4.5883145	الذلة	-0.077964544
-4.5883145	والمسكنة	-0.077964544
-4.4276314	وباءوا	-0.20070848
-4.304746	بغضب	-0.15582757
-3.874999	بأنهم	-0.14946598
-3.874999	يكفرون	-0.23615961
-3.3700027	بآيات	-0.62645704
-4.304746	ويقتلون	-0.077964544
-3.9492035	النبيين	-0.077964544
-3.3103266	بغير	-0.3964853
-4.5883145	عصوا	-0.077964544
-3.3491862	وكانوا	-0.10336786
-4.5883145	يعتدون	-0.077964544
-4.304746	هادوا	-0.077964544
-4.151696	والنصاري	-0.077964544
-4.4276314	والصابئين	-0.077964544
-4.151696	واليوم	-0.24151213
-4.0387535	وعمل	-0.4176034
-3.5528967	صالحا	-0.09246021
-4.0387535	فلهم	-0.15582757
-3.8116424	أجرهم	-0.17172466
-3.8116424	أخذنا	-0.09989366
-4.4276314	ميثاقكم	-0.077964544
-4.304746	ورفعنا	-0.077964544
-4.151696	فوقكم	-0.077964544
-4.151696	الطور	-0.077964544
-4.151696	خذوا	-0.1350145
-4.5883145	آتيناكم	-0.077964544
-4.151696	بقوة	-0.077964544
-3.7563627	واذكروا	-0.21641818
-4.0387535	توليتم	-0.1350145
-3.9492035	فلولا	-0.07796451
-3.5866666	فضل	-0.29758748
-4.4276314	ورحمته	-0.077964544
-4.5883145	لكنتم	-0.077964544
-4.304746	الخاسرين	-0.15582757
-3.4923413	ولقد	-0.09365584
-4.0387535	علمتم	-0.115153395
-4.5883145	اعتدوا	-0.077964544
-2.76848	منكم	-0.1257435
-4.304746	السبت	-0.077964544
-3.9492035	كونوا	-0.077964544
-4.5883145	قردة	-0.077964544
-4.5883145	خاسئين	-0.077964544
-4.4276314	فجعلناها	-0.077964544
-4.4276314	نكالا	-0.077964544
-3.0034528	بين	-0.27903226
-4.5883145	يديها	-0.077964544
-4.5883145	خلفها	-0.077964544
-4.151696	وموعظة	-0.24151213
-4.151696	يأمركم	-0.1350145
-4.5883145	تذبحوا	-0.077964544
-4.4276314	بقرة	-0.077964544
-4.5883145	أتتخذنا	-0.077964544
-3.7563627	هزوا	-0.1473823
-4.151696	أعوذ	-0.122989215
-4.151696	أكون	-0.115153395
-4.304746	الجاهلين	-0.3133375
-4.151696	ادع	-0.24151213
-3.9492035	يبين	-0.115153395
-3.3293219	هي	-0.11434877
-3.874999	إنها	-0.07796451
-4.5883145	فارض	-0.077964544
-4.5883145	بكر	-0.077964544
-4.5883145	عوان	-0.077964544
-4.5883145	فافعلوا	-0.077964544
-4.4276314	تؤمرون	-0.20070848
-4.4276314	لونها	-0.077964544
-4.5883145	صفراء	-0.077964544
-4.5883145	فاقع	-0.077964544
-4.5883145	تسر	-0.077964544
-4.5883145	الناظرين	-0.077964544
-4.4276314	البقر	-0.077964544
-4.4276314	تشابه	-0.077964544
-3.1427875	علينا	-0.09125856
-3.2921274	وإنا	-0.1889537
-4.4276314	لمهتدون	-0.20070848
-4.5883145	ذلول	-0.077964544
-4.5883145	تثير	-0.077964544
-4.4276314	تسقي	-0.077964544
-4.151696	الحرث	-0.077964544
-4.151696	مسلمة	-0.1350145
-4.5883145	شية	-0.077964544
-4.0387535	الآن	-0.077964544
-4.151696	جئت	-0.077964544
-3.0622747	بالحق	-0.123865895
-4.5883145	فذبحوها	-0.077964544
-4.304746	كادوا	-0.077964544
-3.874999	يفعلون	-0.54254216
-4.304746	قتلتم	-0.077964544
-3.7073314	نفسا	-0.0978537
-4.5883145	فادارأتم	-0.077964544
-4.304746	مخرج	-0.15582757
-4.5883145	اضربوه	-0.077964544
-4.5883145	ببعضها	-0.077964544
-2.9356775	كذلك	-0.2255149
-3.4923413	يحيي	-0.20300388
-3.6632786	الموتي	-0.09246021
-4.4276314	ويريكم	-0.20070848
-3.5866666	آياته	-0.10555342
-4.4276314	قست	-0.077964544
-3.8116424	قلوبكم	-0.12639116
-4.0387535	فهي	-0.077964544
-4.5883145	كالحجارة	-0.077964544
-3.3491862	أشد	-0.15215585
-4.5883145	قسوة	-0.077964544
-4.5883145	الحجارة	-0.077964544
-4.5883145	يتفجر	-0.077964544
-4.5883145	يشقق	-0.077964544
-4.5883145	فيخرج	-0.077964544
-3.5866666	الماء	-0.077964544
-4.5883145	يهبط	-0.077964544
-4.151696	خشية	-0.077964544
-4.4276314	بغافل	-0.20070848
-3.3103266	عما	-0.22742388
-3.8116424	تعملون	-0.2652824
-4.5883145	أفتطمعون	-0.077964544
-4.0387535	يؤمنوا	-0.077964544
-3.1688266	وقد	-0.12039933
-2.8504813	كان	-0.18520105
-3.8116424	فريق	-0.35760587
-2.6995301	منهم	-0.13533187
-3.8116424	يسمعون	-0.14631982
-4.304746	كلام	-0.3133375
-4.5883145	يحرفونه	-0.077964544
-4.5883145	عقلوه	-0.077964544
-4.4276314	خلا	-0.077964544
-3.241702	بعضهم	-0.3211535
-3.3491862	بعض	-0.116304226
-4.5883145	أتحدثونهم	-0.077964544
-4.4276314	فتح	-0.077964544
-4.5883145	ليحاجوكم	-0.077964544
-4.5883145	أولا	-0.077964544
-3.1965272	يعلم	-0.21540649
-4.5883145	يسرون	-0.077964544
-4.5883145	يعلنون	-0.077964544
-3.5215645	ومنهم	-0.4794437
-4.5883145	أميون	-0.077964544
-4.4276314	أماني	-0.077964544
-4.0387535	فويل	-0.16378684
-2.959871	للذين	-0.36632028
-4.151696	يكتبون	-0.1350145
-4.304746	بأيديهم	-0.077964544
-3.1824563	يقولون	-0.13303328
-4.5883145	ليشتروا	-0.077964544
-4.4276314	كتبت	-0.077964544
-3.4649613	أيديهم	-0.08660381
-4.304746	وويل	-0.077964544
-4.304746	يكسبون	-0.15582757
-3.3700027	وقالوا	-0.12952818
-4.5883145	تمسنا	-0.077964544
-4.4276314	أياما	-0.15582757
-4.304746	معدودة	-0.077964544
-2.718139	قل	-0.21908627
-4.5883145	أتخذتم	-0.077964544
-4.304746	عهدا	-0.077964544
-3.4649613	فلن	-0.13244388
-4.304746	يخلف	-0.24151213
-4.5883145	عهده	-0.077964544
-4.0387535	تقولون	-0.115153395
-3.7563627	بلي	-0.11744343
-4.304746	كسب	-0.077964544
-3.7563627	سيئة	-0.077964544
-4.5883145	وأحاطت	-0.077964544
-4.5883145	خطيئته	-0.077964544
-3.226116	فأولئك	-0.25381067
-4.151696	ميثاق	-0.10555342
-3.6232855	تعبدون	-0.57188284
-4.304746	وبالوالدين	-0.3133375
-4.304746	إحسانا	-0.077964544
-4.5883145	وذي	-0.077964544
-3.7563627	القربي	-0.2489948
-4.4276314	واليتامي	-0.20070848
-4.304746	والمساكين	-0.077964544
-3.0837965	للناس	-0.12051667
-3.5528967	حسنا	-0.16481516
-3.6232855	معرضون	-0.91539747
-4.5883145	تسفكون	-0.077964544
-4.5883145	دماءكم	-0.077964544
-4.0387535	تخرجون	-0.33842218
-4.5883145	دياركم	-0.077964544
-4.5883145	أقررتم	-0.077964544
-4.4276314	تشهدون	-0.20070848
-3.1688266	أنتم	-0.11911738
-4.151696	تقتلون	-0.077964544
-4.5883145	وتخرجون	-0.077964544
-3.7563627	فريقا	-0.18895374
-4.4276314	ديارهم	-0.077964544
-4.4276314	تظاهرون	-0.077964544
-4.0387535	بالإثم	-0.20350471
-4.4276314	والعدوان	-0.077964544
-4.5883145	يأتوكم	-0.077964544
-4.5883145	أساري	-0.077964544
-4.5883145	تفادوهم	-0.077964544
-4.5883145	محرم	-0.077964544
-4.5883145	إخراجهم	-0.077964544
-4.5883145	أفتؤمنون	-0.077964544
-3.6632786	ببعض	-0.09351436
-4.5883145	وتكفرون	-0.077964544
-3.3700027	جزاء	-0.23498063
-3.874999	يفعل	-0.12829274
-4.151696	خزي	-0.122989215
-3.2578688	الحياة	-0.9516927
-3.5215645	الدنيا	-0.13558863
-3.4392054	ويوم	-0.17649226
-4.151696	القيامة	-0.09024096
-4.4276314	يردون	-0.20070848
-4.151696	بالآخرة	-0.077964544
-4.0387535	يخفف	-0.20350471
-3.0622747	عنهم	-0.16006404
-4.304746	وقفينا	-0.077964544
-4.5883145	بالرسل	-0.077964544
-3.874999	وآتينا	-0.18090329
-3.8116424	عيسي	-0.2729313
-3.6232855	ابن	-0.39480594
-3.874999	مريم	-0.085401885
-3.874999	البينات	-0.077964544
-4.5883145	وأيدناه	-0.077964544
-4.304746	بروح	-0.15582757
-4.4276314	القدس	-0.077964544
-4.5883145	أفكلما	-0.077964544
-3.5528967	جاءكم	-0.11228415
-3.2746603	رسول	-0.35522965
-4.151696	تهوي	-0.077964544
-4.5883145	استكبرتم	-0.077964544
-4.5883145	ففريقا	-0.077964544
-4.4276314	كذبتم	-0.077964544
-4.304746	وفريقا	-0.077964544
-4.0387535	قلوبنا	-0.115153395
-4.5883145	غلف	-0.077964544
-2.8839736	بل	-0.22505565
-4.151696	لعنهم	-0.43827623
-4.304746	بكفرهم	-0.1350145
-4.5883145	فقليلا	-0.077964544
-3.9492035	ولما	-0.086967506
-3.4923413	جاءهم	-0.17384066
-3.4148917	كتاب	-0.17125356
-4.151696	مصدق	-0.1350145
-3.6632786	معهم	-0.094733894
-4.5883145	يستفتحون	-0.077964544
-4.4276314	عرفوا	-0.077964544
-4.5883145	فلعنة	-0.077964544
-4.304746	بئسما	-0.077964544
-4.4276314	يكفروا	-0.15582757
-3.9492035	بغيا	-0.15582757
-3.8116424	ينزل	-0.07796451
-4.304746	فضله	-0.077964544
-3.6632786	يشاء	-0.124888316
-3.7563627	عباده	-0.0978537
-4.5883145	فباءوا	-0.077964544
-3.874999	غضب	-0.20270391
-4.0387535	وللكافرين	-0.33842218
-4.151696	مهين	-0.24151213
-4.5883145	ويكفرون	-0.077964544
-4.5883145	وراءه	-0.077964544
-3.6632786	فلم	-0.077964544
-4.4276314	أنبياء	-0.077964544
-3.7073314	مؤمنين	-0.54592735
-3.5866666	بالبينات	-0.13555934
-4.151696	واسمعوا	-0.077964544
-3.6632786	سمعنا	-0.18364811
-4.5883145	وعصينا	-0.077964544
-4.5883145	وأشربوا	-0.077964544
-4.304746	إيمانكم	-0.17989692
-3.3918676	كانت	-0.12618612
-3.7563627	الدار	-0.29266465
-3.2578688	الآخرة	-0.13318934
-4.151696	خالصة	-0.077964544
-4.5883145	فتمنوا	-0.077964544
-4.5883145	يتمنوه	-0.077964544
-3.4923413	أبدا	-0.15374272
-4.151696	قدمت	-0.077964544
-4.4276314	بالظالمين	-0.20070848
-4.5883145	ولتجدنهم	-0.077964544
-4.5883145	أحرص	-0.077964544
-4.151696	حياة	-0.077964544
-3.9492035	أشركوا	-0.077964544
-4.0387535	يود	-0.20350471
-3.9492035	أحدهم	-0.109641746
-3.0034528	لو	-0.24714737
-4.151696	يعمر	-0.077964544
-3.8116424	ألف	-0.22177881
-3.8116424	سنة	-0.13034989
-4.5883145	بمزحزحه	-0.077964544
-3.8116424	بصير	-0.4035719
-3.7073314	يعملون	-0.24810772
-3.7563627	عدوا	-0.0978537
-4.5883145	لجبريل	-0.077964544
-3.5215645	فإنه	-0.09246021
-4.4276314	نزله	-0.077964544
-4.5883145	قلبك	-0.077964544
-3.5215645	بإذن	-0.42410845
-4.4276314	يديه	-0.077964544
-3.6632786	وهدي	-0.2672835
-4.151696	وبشري	-0.1732274
-3.7073314	للمؤمنين	-0.29038748
-4.151696	وملائكته	-0.077964544
-3.9492035	ورسله	-0.077964544
-4.4276314	وجبريل	-0.077964544
-4.5883145	وميكال	-0.077964544
-3.4923413	أنزلنا	-0.21593025
-3.226116	آيات	-0.3441251
-4.151696	بينات	-0.09351436
-3.7563627	يكفر	-0.13587105
-2.8770654	بها	-0.16544615
-4.151696	الفاسقون	-0.43827623
-4.5883145	أوكلما	-0.077964544
-4.151696	عاهدوا	-0.1350145
-4.5883145	نبذه	-0.077964544
-3.6232855	أكثرهم	-0.13587105
-4.5883145	نبذ	-0.077964544
-3.9492035	أوتوا	-0.21998769
-3.8116424	وراء	-0.09989366
-4.151696	ظهورهم	-0.077964544
-3.7563627	كأنهم	-0.11869761
-3.7073314	واتبعوا	-0.1305838
-4.151696	تتلو	-0.077964544
-3.5866666	الشياطين	-0.20245765
-3.5215645	ملك	-0.14394575
-3.7073314	سليمان	-0.077964544
-3.7563627	كفر	-0.10555342
-4.0387535	السحر	-0.077964544
-4.5883145	الملكين	-0.077964544
-4.5883145	ببابل	-0.077964544
-4.5883145	هاروت	-0.077964544
-4.5883145	وماروت	-0.077964544
-4.5883145	يعلمان	-0.077964544
-3.5215645	أحد	-0.2327469
-4.5883145	يقولا	-0.077964544
-3.4649613	فتنة	-0.104730844
-4.5883145	تكفر	-0.077964544
-4.5883145	فيتعلمون	-0.077964544
-3.8116424	منهما	-0.077964544
-4.4276314	يفرقون	-0.077964544
-4.304746	المرء	-0.077964544
-4.5883145	وزوجه	-0.077964544
-4.5883145	بضارين	-0.077964544
-4.5883145	ويتعلمون	-0.077964544
-4.304746	يضرهم	-0.15582757
-4.304746	ينفعهم	-0.077964544
-4.5883145	علموا	-0.077964544
-2.9053833	لمن	-0.18564704
-4.4276314	اشتراه	-0.077964544
-2.4988968	له	-0.18529344
-4.4276314	خلاق	-0.077964544
-4.151696	ولبئس	-0.077964544
-4.5883145	شروا	-0.077964544
-4.5883145	لمثوبة	-0.077964544
-4.0387535	تقولوا	-0.115153395
-4.5883145	راعنا	-0.077964544
-4.5883145	انظرنا	-0.077964544
-3.3103266	أهل	-0.28744435
-3.874999	المشركين	-0.0978537
-4.4276314	يختص	-0.20070848
-4.5883145	برحمته	-0.077964544
-3.5215645	ذو	-0.11744343
-3.8116424	الفضل	-0.10555342
-3.6232855	العظيم	-0.91539747
-4.5883145	ننسخ	-0.077964544
-3.1824563	آية	-0.10555342
-4.5883145	ننسها	-0.077964544
-4.5883145	نأت	-0.077964544
-3.9492035	بخير	-0.077964544
-4.151696	مثلها	-0.077964544
-3.9492035	تعلم	-0.115153395
-3.6632786	ولي	-0.13587105
-4.4276314	نصير	-0.20070848
-4.0387535	تريدون	-0.122989215
-4.304746	تسألوا	-0.077964544
-4.4276314	رسولكم	-0.077964544
-4.5883145	سئل	-0.077964544
-4.5883145	يتبدل	-0.077964544
-3.7563627	الكفر	-0.11869761
-4.151696	بالإيمان	-0.122989215
-3.0622747	فقد	-0.14510731
-3.8116424	ضل	-0.077964544
-3.6632786	السبيل	-0.13886361
-4.4276314	ود	-0.077964544
-3.9492035	كثير	-0.15208478
-4.5883145	يردونكم	-0.077964544
-4.4276314	كفارا	-0.077964544
-4.5883145	حسدا	-0.077964544
-4.0387535	تبين	-0.115153395
-4.5883145	فاعفوا	-0.077964544
-4.5883145	واصفحوا	-0.077964544
-3.7563627	يأتي	-0.12003419
-3.8116424	بأمره	-0.115153395
-4.304746	تقدموا	-0.15582757
-4.0387535	لأنفسكم	-0.077964544
-4.5883145	تجدوه	-0.077964544
-3.9492035	يدخل	-0.115153395
-4.0387535	هودا	-0.20350471
-4.4276314	نصاري	-0.077964544
-3.6232855	تلك	-0.17494997
-4.5883145	أمانيهم	-0.077964544
-4.4276314	هاتوا	-0.20070848
-4.5883145	برهانكم	-0.077964544
-3.9492035	أسلم	-0.109641746
-3.9492035	وجهه	-0.077964544
-4.4276314	محسن	-0.077964544
-3.874999	فله	-0.077964544
-4.304746	أجره	-0.077964544
-3.9492035	وقالت	-0.09989366
-4.0387535	اليهود	-0.10555342
-4.4276314	ليست	-0.077964544
-4.304746	النصاري	-0.077964544
-4.0387535	يتلون	-0.077964544
-3.1303308	مثل	-0.22301754
-3.9492035	قولهم	-0.077964544
-3.9492035	فالله	-0.115153395
-3.7073314	يحكم	-0.19202858
-3.1427875	بينهم	-0.14775999
-3.4923413	فيما	-0.088790685
-4.4276314	يختلفون	-0.077964544
-3.5215645	ممن	-0.09882389
-4.304746	منع	-0.077964544
-4.304746	مساجد	-0.3133375
-3.874999	يذكر	-0.10555342
-4.151696	اسمه	-0.077964544
-4.4276314	وسعي	-0.077964544
-4.5883145	خرابها	-0.077964544
-4.4276314	يدخلوها	-0.077964544
-4.5883145	خائفين	-0.077964544
-3.6632786	ولله	-0.13932684
-4.0387535	المشرق	-0.33842218
-4.5883145	والمغرب	-0.077964544
-4.5883145	فأينما	-0.077964544
-3.7563627	تولوا	-0.101079084
-4.5883145	فثم	-0.077964544
-3.8116424	وجه	-0.18895374
-4.304746	واسع	-0.15582757
-3.9492035	اتخذ	-0.16138376
-3.9492035	ولدا	-0.25887486
-3.6232855	سبحانه	-0.27532712
-4.5883145	قانتون	-0.077964544
-4.5883145	بديع	-0.077964544
-3.6232855	قضي	-0.15750653
-3.6232855	أمرا	-0.16837236
-3.4649613	فإنما	-0.09989366
-4.0387535	كن	-0.122989215
-4.304746	فيكون	-0.077964544
-3.2578688	وقال	-0.1384741
-3.2746603	لولا	-0.2292825
-4.5883145	يكلمنا	-0.077964544
-4.151696	تأتينا	-0.077964544
-3.874999	قبلهم	-0.11127604
-4.5883145	تشابهت	-0.077964544
-4.5883145	بينا	-0.077964544
-3.5866666	الآيات	-0.20906349
-3.4923413	لقوم	-0.33417922
-4.151696	أرسلناك	-0.115153395
-4.304746	بشيرا	-0.3133375
-4.304746	ونذيرا	-0.115153395
-4.5883145	تسأل	-0.077964544
-3.5528967	الجحيم	-0.42508605
-4.4276314	ترضي	-0.077964544
-3.8116424	عنك	-0.077964544
-4.4276314	تتبع	-0.077964544
-4.4276314	ملتهم	-0.077964544
-3.4923413	الهدي	-0.10943658
-3.5528967	ولئن	-0.099453785
-4.5883145	اتبعت	-0.077964544
-3.9492035	أهواءهم	-0.077964544
-3.7563627	جاءك	-0.2489948
-3.874999	العلم	-0.11228415
-3.8116424	آتيناهم	-0.17172466
-4.5883145	يتلونه	-0.077964544
-3.5528967	حق	-0.100669965
-4.5883145	تلاوته	-0.077964544
-4.5883145	تنفعها	-0.077964544
-4.4276314	ابتلي	-0.077964544
-3.1303308	إبراهيم	-0.15902418
-4.4276314	بكلمات	-0.077964544
-4.5883145	فأتمهن	-0.077964544
-4.5883145	جاعلك	-0.077964544
-4.304746	إماما	-0.077964544
-4.304746	ذريتي	-0.077964544
-4.4276314	ينال	-0.077964544
-4.5883145	عهدي	-0.077964544
-3.4923413	جعلنا	-0.09863861
-3.7073314	البيت	-0.09616103
-4.5883145	مثابة	-0.077964544
-4.5883145	وأمنا	-0.077964544
-4.151696	واتخذوا	-0.20070848
-3.9492035	مقام	-0.115153395
-4.5883145	مصلي	-0.077964544
-4.5883145	وعهدنا	-0.077964544
-4.304746	وإسماعيل	-0.077964544
-4.5883145	طهرا	-0.077964544
-4.304746	بيتي	-0.15582757
-4.5883145	للطائفين	-0.077964544
-4.5883145	والعاكفين	-0.077964544
-4.4276314	والركع	-0.20070848
-4.151696	السجود	-0.122989215
-4.304746	اجعل	-0.077964544
-4.5883145	بلدا	-0.077964544
-4.5883145	وارزق	-0.077964544
-3.7073314	أهله	-0.109641746
-4.5883145	فأمتعه	-0.077964544
-4.5883145	أضطره	-0.077964544
-3.9492035	وبئس	-0.2729313
-3.7073314	المصير	-0.8362163
-4.4276314	يرفع	-0.077964544
-4.4276314	القواعد	-0.077964544
-2.9202664	ربنا	-0.16333173
-4.151696	تقبل	-0.1350145
-3.241702	منا	-0.107562825
-4.304746	السميع	-0.2647292
-4.4276314	واجعلنا	-0.077964544
-3.7563627	مسلمين	-0.5936946
-4.5883145	ذريتنا	-0.077964544
-3.241702	أمة	-0.13875477
-4.5883145	وأرنا	-0.077964544
-4.5883145	مناسكنا	-0.077964544
-4.4276314	وتب	-0.077964544
-4.4276314	وابعث	-0.077964544
-3.4923413	فيهم	-0.1281962
-3.4392054	رسولا	-0.18763152
-4.0387535	يتلو	-0.22748065
-4.4276314	آياتك	-0.077964544
-4.4276314	ويعلمهم	-0.20070848
-4.304746	والحكمة	-0.077964544
-4.4276314	ويزكيهم	-0.077964544
-3.3918676	العزيز	-0.32661486
-4.5883145	يرغب	-0.077964544
-3.7563627	ملة	-0.35598817
-4.5883145	سفه	-0.077964544
-3.6632786	نفسه	-0.086967506
-4.5883145	اصطفيناه	-0.077964544
-3.6632786	وإنه	-0.11391047
-3.874999	الصالحين	-0.6813143
-2.7792885	إذ	-0.15765607
-4.4276314	أسلمت	-0.077964544
-4.151696	لرب	-0.43827623
-4.5883145	ووصي	-0.077964544
-4.5883145	بنيه	-0.077964544
-4.304746	ويعقوب	-0.077964544
-4.4276314	اصطفي	-0.077964544
-4.4276314	تموتن	-0.20070848
-3.9492035	مسلمون	-0.6143675
-3.7073314	شهداء	-0.0978537
-4.304746	حضر	-0.077964544
-4.151696	يعقوب	-0.077964544
-4.5883145	لبنيه	-0.077964544
-4.5883145	بعدي	-0.077964544
-4.4276314	إلهك	-0.077964544
-4.4276314	وإله	-0.077964544
-4.5883145	آبائك	-0.077964544
-4.304746	وإسحاق	-0.1732274
-3.8116424	إلها	-0.15208478
-4.304746	واحدا	-0.077964544
-4.4276314	خلت	-0.109641746
-3.1427875	لها	-0.10435049
-4.151696	كسبت	-0.094733894
-4.5883145	كسبتم	-0.077964544
-4.151696	تسألون	-0.20070848
-4.4276314	تهتدوا	-0.077964544
-4.0387535	حنيفا	-0.109641746
-4.4276314	قولوا	-0.077964544
-3.5528967	إلينا	-0.10388109
-4.5883145	والأسباط	-0.077964544
-3.874999	أوتي	-0.16138376
-4.0387535	وعيسي	-0.109641746
-4.4276314	النبيون	-0.077964544
-4.5883145	نفرق	-0.077964544
-3.9492035	بمثل	-0.28268594
-3.9492035	آمنتم	-0.28268594
-4.304746	اهتدوا	-0.077964544
-4.304746	شقاق	-0.1350145
-4.5883145	فسيكفيكهم	-0.077964544
-4.4276314	صبغة	-0.077964544
-3.4148917	أحسن	-0.13817133
-4.304746	عابدون	-0.15582757
-4.5883145	أتحاجوننا	-0.077964544
-4.304746	وربكم	-0.077964544
-4.5883145	ولنا	-0.077964544
-4.4276314	أعمالنا	-0.20070848
-3.874999	أعمالكم	-0.14319624
-4.5883145	مخلصون	-0.077964544
-4.304746	أأنتم	-0.077964544
-4.5883145	كتم	-0.077964544
-4.0387535	شهادة	-0.077964544
-3.5528967	عنده	-0.13850209
-4.5883145	سيقول	-0.077964544
-4.5883145	ولاهم	-0.077964544
-4.4276314	قبلتهم	-0.077964544
-3.0949712	عليها	-0.09279538
-3.5528967	يهدي	-0.24850573
-4.151696	مستقيم	-0.33842218
-3.5866666	وكذلك	-0.15838018
-4.4276314	جعلناكم	-0.077964544
-4.5883145	وسطا	-0.077964544
-4.4276314	لتكونوا	-0.077964544
-4.4276314	ويكون	-0.077964544
-3.155612	الرسول	-0.088268995
-3.6632786	شهيدا	-0.19386299
-4.5883145	القبلة	-0.077964544
-3.4649613	كنت	-0.13938354
-4.304746	لنعلم	-0.077964544
-4.151696	يتبع	-0.077964544
-4.151696	ينقلب	-0.1350145
-4.5883145	عقبيه	-0.077964544
-4.5883145	ليضيع	-0.077964544
-4.4276314	بالناس	-0.077964544
-4.304746	لرءوف	-0.3133375
-3.874999	رحيم	-0.4845502
-4.304746	تقلب	-0.077964544
-4.151696	وجهك	-0.1350145
-4.5883145	فلنولينك	-0.077964544
-4.304746	قبلة	-0.077964544
-4.5883145	ترضاها	-0.077964544
-4.4276314	فول	-0.20070848
-4.5883145	شطر	-0.077964544
-3.7073314	المسجد	-0.5045347
-3.874999	الحرام	-0.08779529
-4.5883145	وحيث	-0.077964544
-4.5883145	فولوا	-0.077964544
-4.0387535	وجوهكم	-0.077964544
-4.5883145	شطره	-0.077964544
-4.5883145	ليعلمون	-0.077964544
-4.5883145	أتيت	-0.077964544
-4.5883145	تبعوا	-0.077964544
-4.5883145	قبلتك	-0.077964544
-4.4276314	بتابع	-0.077964544
-2.6244416	إذا	-0.15910378
-4.5883145	يعرفونه	-0.077964544
-4.304746	يعرفون	-0.077964544
-4.151696	أبناءهم	-0.077964544
-4.5883145	ليكتمون	-0.077964544
-4.4276314	تكونن	-0.15582757
-4.5883145	الممترين	-0.077964544
-4.4276314	ولكل	-0.077964544
-4.5883145	وجهة	-0.077964544
-4.5883145	موليها	-0.077964544
-4.304746	فاستبقوا	-0.15582757
-4.151696	الخيرات	-0.10555342
-3.6232855	أين	-0.4176034
-3.7563627	يأت	-0.077964544
-4.5883145	خرجت	-0.077964544
-3.9492035	للحق	-0.15582757
-4.304746	لئلا	-0.15582757
-3.5215645	يكون	-0.1350145
-4.304746	حجة	-0.077964544
-4.5883145	تخشوهم	-0.077964544
-4.5883145	واخشوني	-0.077964544
-4.5883145	ولأتم	-0.077964544
-4.0387535	ولعلكم	-0.122989215
-3.5528967	أرسلنا	-0.23141935
-3.7073314	فيكم	-0.0978537
-3.6232855	آياتنا	-0.0862683
-4.5883145	ويزكيكم	-0.077964544
-4.304746	ويعلمكم	-0.077964544
-4.5883145	فاذكروني	-0.077964544
-4.5883145	أذكركم	-0.077964544
-4.0387535	واشكروا	-0.122989215
-3.0729024	لي	-0.12913944
-4.4276314	استعينوا	-0.077964544
-3.9492035	الصابرين	-0.4176034
-4.304746	يقتل	-0.15582757
-3.5215645	سبيل	-0.12231926
-4.4276314	أموات	-0.077964544
-4.304746	أحياء	-0.077964544
-4.4276314	تشعرون	-0.20070848
-4.5883145	ولنبلونكم	-0.077964544
-3.9492035	بشئ	-0.17989692
-4.151696	الخوف	-0.077964544
-4.5883145	والجوع	-0.077964544
-4.4276314	ونقص	-0.20070848
-4.4276314	الأموال	-0.077964544
-4.5883145	والأنفس	-0.077964544
-4.5883145	والثمرات	-0.077964544
-4.5883145	أصابتهم	-0.077964544
-3.9492035	مصيبة	-0.09989366
-4.5883145	صلوات	-0.077964544
-3.5866666	ورحمة	-0.14176232
-4.5883145	المهتدون	-0.077964544
-4.5883145	الصفا	-0.077964544
-4.5883145	والمروة	-0.077964544
-4.304746	شعائر	-0.3133375
-4.4276314	حج	-0.20070848
-4.5883145	اعتمر	-0.077964544
-3.8116424	جناح	-0.15368488
-4.4276314	يطوف	-0.077964544
-4.304746	بهما	-0.077964544
-4.4276314	تطوع	-0.20070848
-3.2110696	خيرا	-0.12986572
-4.5883145	شاكر	-0.077964544
-4.151696	يكتمون	-0.1350145
-4.4276314	والهدي	-0.077964544
-4.5883145	بيناه	-0.077964544
-4.5883145	يلعنهم	-0.077964544
-4.5883145	ويلعنهم	-0.077964544
-4.5883145	اللاعنون	-0.077964544
-4.151696	تابوا	-0.122989215
-4.304746	وأصلحوا	-0.077964544
-4.5883145	وبينوا	-0.077964544
-4.5883145	أتوب	-0.077964544
-3.4649613	وأنا	-0.106793605
-4.304746	وماتوا	-0.3133375
-4.151696	كفار	-0.115153395
-4.0387535	لعنة	-0.2647292
-3.5866666	والملائكة	-0.07796451
-4.4276314	والناس	-0.20070848
-3.4649613	أجمعين	-1.0666652
-3.7563627	خالدين	-0.35760587
-3.5866666	ينظرون	-0.33250347
-4.4276314	وإلهكم	-0.077964544
-3.5215645	إله	-0.21809937
-4.4276314	واختلاف	-0.15582757
-3.1824563	الليل	-0.20879266
-4.151696	والنهار	-0.077964544
-4.4276314	والفلك	-0.077964544
-4.151696	ينفع	-0.109641746
-4.4276314	فأحيا	-0.20070848
-4.4276314	موتها	-0.077964544
-4.304746	وبث	-0.15582757
-4.151696	دابة	-0.09616103
-4.4276314	وتصريف	-0.20070848
-4.0387535	الرياح	-0.12829274
-4.5883145	والسحاب	-0.077964544
-4.5883145	المسخر	-0.077964544
-4.151696	لآيات	-0.15310234
-3.9492035	يعقلون	-0.24684373
-3.874999	يتخذ	-0.16138376
-4.5883145	يحبونهم	-0.077964544
-4.5883145	كحب	-0.077964544
-3.874999	حبا	-0.077964544
-3.874999	يري	-0.3496327
-3.9492035	يرون	-0.10555342
-4.304746	القوة	-0.077964544
-3.0729024	وأن	-0.26322585
-3.6232855	شديد	-0.1844869
-4.4276314	تبرأ	-0.077964544
-3.874999	اتبعوا	-0.15310234
-4.304746	ورأوا	-0.15582757
-4.5883145	وتقطعت	-0.077964544
-4.304746	الأسباب	-0.3133375
-4.304746	كرة	-0.077964544
-4.5883145	فنتبرأ	-0.077964544
-4.5883145	تبرءوا	-0.077964544
-4.5883145	يريهم	-0.077964544
-3.4649613	أعمالهم	-0.1668113
-4.4276314	حسرات	-0.077964544
-4.5883145	بخارجين	-0.077964544
-4.304746	حلالا	-0.3133375
-4.4276314	طيبا	-0.077964544
-4.304746	تتبعوا	-0.115153395
-4.4276314	خطوات	-0.20070848
-3.226116	مبين	-1.2986143
-4.151696	بالسوء	-0.077964544
-4.4276314	والفحشاء	-0.077964544
-4.304746	نتبع	-0.077964544
-4.5883145	ألفينا	-0.077964544
-4.151696	آباءنا	-0.077964544
-3.5528967	أولو	-0.17675114
-4.304746	آباؤهم	-0.077964544
-4.0387535	يهتدون	-0.4176034
-4.5883145	ومثل	-0.077964544
-4.5883145	ينعق	-0.077964544
-3.9492035	يسمع	-0.077964544
-3.9492035	دعاء	-0.077964544
-4.5883145	ونداء	-0.077964544
-4.151696	إياه	-0.115153395
-3.7073314	حرم	-0.15750653
-4.4276314	الميتة	-0.077964544
-4.4276314	والدم	-0.077964544
-4.304746	ولحم	-0.077964544
-4.5883145	الخنزير	-0.077964544
-4.4276314	لغير	-0.20070848
-4.5883145	اضطر	-0.077964544
-4.5883145	باغ	-0.077964544
-3.6232855	عاد	-0.09246021
-4.304746	إثم	-0.077964544
-3.5866666	غفور	-0.46884918
-4.5883145	ويشترون	-0.077964544
-3.9492035	يأكلون	-0.1438125
-4.5883145	بطونهم	-0.077964544
-4.4276314	يكلمهم	-0.077964544
-4.5883145	يزكيهم	-0.077964544
-4.5883145	والعذاب	-0.077964544
-4.5883145	بالمغفرة	-0.077964544
-4.5883145	أصبرهم	-0.077964544
-3.8116424	بأن	-0.16138376
-3.6232855	نزل	-0.14539438
-3.9492035	اختلفوا	-0.22177881
-3.3700027	لفي	-0.24056497
-3.9492035	بعيد	-0.30483565
-3.3700027	ليس	-0.19863504
-3.6632786	البر	-0.094733894
-3.9492035	والكتاب	-0.109641746
-4.304746	والنبيين	-0.077964544
-4.4276314	وآتي	-0.077964544
-4.151696	المال	-0.077964544
-4.5883145	حبه	-0.077964544
-4.4276314	ذوي	-0.077964544
-4.151696	وابن	-0.43827623
-4.5883145	والسائلين	-0.077964544
-4.4276314	الرقاب	-0.077964544
-4.4276314	وأقام	-0.20070848
-4.5883145	والموفون	-0.077964544
-4.5883145	بعهدهم	-0.077964544
-4.151696	والصابرين	-0.077964544
-4.4276314	البأساء	-0.20070848
-4.304746	والضراء	-0.077964544
-4.0387535	وحين	-0.077964544
-4.4276314	البأس	-0.077964544
-4.304746	صدقوا	-0.077964544
-4.304746	المتقون	-0.077964544
-3.5215645	كتب	-0.20274825
-4.4276314	القصاص	-0.077964544
-4.5883145	القتلي	-0.077964544
-4.304746	الحر	-0.077964544
-4.5883145	بالحر	-0.077964544
-4.5883145	والعبد	-0.077964544
-4.5883145	بالعبد	-0.077964544
-4.4276314	والأنثي	-0.077964544
-4.4276314	بالأنثي	-0.077964544
-4.5883145	عفي	-0.077964544
-3.8116424	أخيه	-0.09989366
-4.5883145	فاتباع	-0.077964544
-3.4148917	بالمعروف	-0.11986836
-4.5883145	وأداء	-0.077964544
-4.304746	بإحسان	-0.077964544
-4.5883145	تخفيف	-0.077964544
-4.4276314	اعتدي	-0.15582757
-3.4392054	أولي	-0.09989366
-4.304746	الألباب	-0.17989692
-3.9492035	أحدكم	-0.22748065
-4.304746	ترك	-0.09989366
-4.4276314	الوصية	-0.077964544
-4.5883145	للوالدين	-0.077964544
-4.304746	والأقربين	-0.077964544
-3.7073314	حقا	-0.09351436
-3.6232855	المتقين	-0.39787006
-4.4276314	بدله	-0.077964544
-4.304746	بعدما	-0.077964544
-4.4276314	سمعه	-0.077964544
-4.5883145	إثمه	-0.077964544
-4.5883145	يبدلونه	-0.077964544
-4.151696	سميع	-0.17989692
-4.151696	خاف	-0.122989215
-4.5883145	موص	-0.077964544
-4.5883145	جنفا	-0.077964544
-3.9492035	إثما	-0.077964544
-4.5883145	فأصلح	-0.077964544
-4.304746	الصيام	-0.077964544
-4.4276314	معدودات	-0.15582757
-4.4276314	مريضا	-0.20070848
-4.5883145	سفر	-0.077964544
-4.5883145	فعدة	-0.077964544
-3.8116424	أيام	-0.077964544
-4.5883145	أخر	-0.077964544
-4.5883145	يطيقونه	-0.077964544
-4.304746	فدية	-0.077964544
-4.4276314	مسكين	-0.077964544
-3.3491862	فهو	-0.15527877
-4.5883145	تصوموا	-0.077964544
-4.151696	شهر	-0.077964544
-4.5883145	رمضان	-0.077964544
-3.3700027	القرآن	-0.08968045
-4.5883145	وبينات	-0.077964544
-4.151696	شهد	-0.077964544
-4.151696	الشهر	-0.24151213
-4.5883145	فليصمه	-0.077964544
-3.4649613	يريد	-0.26754582
-4.5883145	اليسر	-0.077964544
-4.4276314	العسر	-0.077964544
-4.5883145	ولتكملوا	-0.077964544
-4.4276314	العدة	-0.077964544
-4.5883145	ولتكبروا	-0.077964544
-4.304746	هداكم	-0.077964544
-4.5883145	سألك	-0.077964544
-3.7563627	عبادي	-0.077964544
-3.9492035	عني	-0.077964544
-3.9492035	فإني	-0.077964544
-3.7073314	قريب	-0.20313445
-4.5883145	أجيب	-0.077964544
-4.304746	دعوة	-0.077964544
-4.304746	الداع	-0.077964544
-4.5883145	دعان	-0.077964544
-4.4276314	فليستجيبوا	-0.077964544
-4.5883145	وليؤمنوا	-0.077964544
-3.7073314	بي	-0.115153395
-3.1965272	لعلهم	-0.31394443
-4.5883145	يرشدون	-0.077964544
-4.0387535	أحل	-0.20350471
-4.5883145	الرفث	-0.077964544
-4.304746	نسائكم	-0.077964544
-3.9492035	هن	-0.077964544
-4.304746	لباس	-0.077964544
-3.5866666	لهن	-0.112176895
-3.6632786	أنكم	-0.109641746
-4.5883145	تختانون	-0.077964544
-4.5883145	وعفا	-0.077964544
-4.5883145	فالآن	-0.077964544
-4.5883145	باشروهن	-0.077964544
-4.304746	وابتغوا	-0.077964544
-4.0387535	وكلوا	-0.122989215
-4.5883145	يتبين	-0.077964544
-4.4276314	الخيط	-0.077964544
-4.5883145	الأبيض	-0.077964544
-4.5883145	الأسود	-0.077964544
-4.0387535	الفجر	-0.077964544
-4.5883145	أتموا	-0.077964544
-4.5883145	تباشروهن	-0.077964544
-4.4276314	عاكفون	-0.077964544
-4.4276314	المساجد	-0.077964544
-4.0387535	حدود	-0.33842218
-4.5883145	تقربوها	-0.077964544
-3.7563627	يتقون	-0.29038748
-4.151696	تأكلوا	-0.1350145
-3.7073314	أموالكم	-0.122989215
-3.3293219	بينكم	-0.095418304
-4.5883145	وتدلوا	-0.077964544
-4.5883145	الحكام	-0.077964544
-4.4276314	لتأكلوا	-0.077964544
-4.0387535	أموال	-0.33842218
-4.4276314	يسألونك	-0.077964544
-4.5883145	الأهلة	-0.077964544
-4.5883145	مواقيت	-0.077964544
-4.5883145	والحج	-0.077964544
-4.0387535	وليس	-0.077964544
-4.5883145	تأتوا	-0.077964544
-4.151696	البيوت	-0.1350145
-4.4276314	ظهورها	-0.077964544
-4.151696	اتقي	-0.077964544
-4.304746	أبوابها	-0.15582757
-4.5883145	تفلحون	-0.077964544
-4.151696	وقاتلوا	-0.077964544
-4.151696	يقاتلونكم	-0.077964544
-4.4276314	تعتدوا	-0.077964544
-4.304746	يحب	-0.088268995
-4.4276314	المعتدين	-0.20070848
-4.4276314	واقتلوهم	-0.20070848
-4.5883145	ثقفتموهم	-0.077964544
-4.5883145	وأخرجوهم	-0.077964544
-4.5883145	أخرجوكم	-0.077964544
-4.4276314	والفتنة	-0.077964544
-4.151696	القتل	-0.077964544
-4.5883145	تقاتلوهم	-0.077964544
-4.0387535	يقاتلوكم	-0.077964544
-4.4276314	قاتلوكم	-0.077964544
-4.5883145	فاقتلوهم	-0.077964544
-4.4276314	انتهوا	-0.077964544
-4.5883145	وقاتلوهم	-0.077964544
-3.5215645	تكون	-0.16518177
-4.5883145	عدوان	-0.077964544
-4.5883145	بالشهر	-0.077964544
-4.5883145	والحرمات	-0.077964544
-4.4276314	قصاص	-0.20070848
-4.5883145	فاعتدوا	-0.077964544
-3.7073314	واعلموا	-0.52851063
-3.9492035	وأنفقوا	-0.16378684
-4.5883145	تلقوا	-0.077964544
-4.4276314	بأيديكم	-0.077964544
-4.5883145	التهلكة	-0.077964544
-4.4276314	وأحسنوا	-0.077964544
-4.5883145	وأتموا	-0.077964544
-3.9492035	الحج	-0.077964544
-4.5883145	والعمرة	-0.077964544
-4.5883145	أحصرتم	-0.077964544
-4.5883145	استيسر	-0.077964544
-4.5883145	تحلقوا	-0.077964544
-4.4276314	رءوسكم	-0.077964544
-4.4276314	يبلغ	-0.077964544
-4.4276314	محله	-0.077964544
-3.874999	أذي	-0.109641746
-4.4276314	رأسه	-0.077964544
-4.5883145	ففدية	-0.077964544
-4.5883145	صيام	-0.077964544
-4.151696	صدقة	-0.077964544
-4.5883145	نسك	-0.077964544
-2.959871	فإذا	-0.22021611
-4.4276314	أمنتم	-0.077964544
-4.4276314	تمتع	-0.077964544
-4.5883145	بالعمرة	-0.077964544
-4.151696	يجد	-0.122989215
-4.5883145	فصيام	-0.077964544
-3.7073314	ثلاثة	-0.13621415
-4.5883145	وسبعة	-0.077964544
-4.5883145	رجعتم	-0.077964544
-4.4276314	كاملة	-0.077964544
-3.6232855	يكن	-0.16589722
-4.5883145	حاضري	-0.077964544
-4.151696	العقاب	-0.15582757
-4.304746	أشهر	-0.077964544
-4.4276314	معلومات	-0.077964544
-4.151696	فرض	-0.1350145
-3.874999	فيهن	-0.077964544
-4.5883145	رفث	-0.077964544
-4.4276314	فسوق	-0.077964544
-4.5883145	جدال	-0.077964544
-4.0387535	يعلمه	-0.122989215
-4.5883145	وتزودوا	-0.077964544
-4.5883145	الزاد	-0.077964544
-3.9492035	التقوي	-0.077964544
-4.5883145	واتقون	-0.077964544
-4.5883145	تبتغوا	-0.077964544
-3.9492035	فضلا	-0.28268594
-4.4276314	أفضتم	-0.077964544
-4.5883145	عرفات	-0.077964544
-3.874999	فاذكروا	-0.29442742
-4.5883145	المشعر	-0.077964544
-4.5883145	واذكروه	-0.077964544
-4.4276314	قبله	-0.07796451
-4.4276314	أفيضوا	-0.077964544
-4.5883145	أفاض	-0.077964544
-4.304746	واستغفروا	-0.15582757
-4.5883145	قضيتم	-0.077964544
-4.5883145	مناسككم	-0.077964544
-4.5883145	كذكركم	-0.077964544
-4.304746	آباءكم	-0.077964544
-3.7563627	ذكرا	-0.35598817
-4.4276314	آتنا	-0.077964544
-3.7073314	حسنة	-0.09246021
-4.4276314	وقنا	-0.20070848
-3.874999	نصيب	-0.15208478
-4.151696	كسبوا	-0.077964544
-4.151696	سريع	-0.24151213
-3.874999	الحساب	-0.54254216
-4.304746	تعجل	-0.077964544
-4.5883145	يومين	-0.077964544
-4.4276314	تأخر	-0.077964544
-4.304746	تحشرون	-0.3133375
-4.5883145	يعجبك	-0.077964544
-4.4276314	قوله	-0.077964544
-4.5883145	ويشهد	-0.077964544
-4.151696	قلبه	-0.122989215
-4.5883145	ألد	-0.077964544
-4.4276314	الخصام	-0.077964544
-3.8116424	تولي	-0.077964544
-4.4276314	سعي	-0.077964544
-4.5883145	ليفسد	-0.077964544
-4.5883145	ويهلك	-0.077964544
-4.5883145	والنسل	-0.077964544
-3.9492035	الفساد	-0.3133375
-4.4276314	اتق	-0.20070848
-4.4276314	أخذته	-0.077964544
-3.8116424	العزة	-0.10555342
-4.5883145	فحسبه	-0.077964544
-3.1688266	جهنم	-0.1516951
-4.304746	المهاد	-0.3133375
-4.5883145	يشري	-0.077964544
-3.7563627	ابتغاء	-0.16138376
-4.4276314	مرضات	-0.077964544
-4.0387535	رءوف	-0.33842218
-4.4276314	بالعباد	-0.20070848
-4.0387535	السلم	-0.077964544
-4.0387535	كافة	-0.077964544
-4.5883145	زللتم	-0.077964544
-4.304746	جاءتكم	-0.077964544
-4.0387535	فاعلموا	-0.22748065
-3.8116424	عزيز	-0.21641818
-3.7073314	حكيم	-0.37981486
-3.0837965	هل	-0.143264
-3.9492035	يأتيهم	-0.1473823
-4.304746	ظلل	-0.15582757
-3.9492035	وقضي	-0.22748065
-3.4923413	الأمر	-0.10316458
-3.5215645	وإلي	-0.26204506
-4.5883145	ترجع	-0.077964544
-4.0387535	الأمور	-0.33842218
-4.5883145	سل	-0.077964544
-3.8116424	كم	-0.16138376
-3.9492035	بينة	-0.15208478
-4.151696	يبدل	-0.077964544
-3.5866666	نعمة	-0.17284705
-4.5883145	جاءته	-0.077964544
-3.8116424	زين	-0.14059259
-4.4276314	ويسخرون	-0.077964544
-3.7073314	اتقوا	-0.13244388
-3.7563627	فوقهم	-0.077964544
-4.304746	يرزق	-0.3133375
-4.5883145	حساب	-0.077964544
-3.5866666	واحدة	-0.11873212
-4.4276314	فبعث	-0.20070848
-4.304746	مبشرين	-0.3133375
-4.5883145	ومنذرين	-0.077964544
-4.151696	ليحكم	-0.24151213
-4.5883145	اختلف	-0.077964544
-4.5883145	أوتوه	-0.077964544
-3.6632786	جاءتهم	-0.1762335
-4.304746	فهدي	-0.15582757
-3.874999	بإذنه	-0.077964544
-4.5883145	حسبتم	-0.077964544
-4.4276314	تدخلوا	-0.122989215
-4.4276314	يأتكم	-0.077964544
-4.304746	مستهم	-0.077964544
-4.4276314	وزلزلوا	-0.077964544
-3.4923413	معه	-0.09246021
-4.4276314	متي	-0.077964544
-3.9492035	نصر	-0.20270391
-4.4276314	أنفقتم	-0.15582757
-4.5883145	فللوالدين	-0.077964544
-3.9492035	القتال	-0.077964544
-4.304746	كره	-0.077964544
-4.5883145	وعسي	-0.077964544
-4.4276314	تكرهوا	-0.077964544
-4.5883145	تحبوا	-0.077964544
-3.7563627	شر	-0.12206189
-4.4276314	قتال	-0.20070848
-3.8116424	كبير	-0.40762466
-4.4276314	وصد	-0.20070848
-4.304746	وكفر	-0.077964544
-4.4276314	والمسجد	-0.20070848
-4.5883145	وإخراج	-0.077964544
-3.5866666	أكبر	-0.222857
-4.5883145	يزالون	-0.077964544
-4.304746	يردوكم	-0.077964544
-3.874999	دينكم	-0.077964544
-4.304746	استطاعوا	-0.077964544
-4.5883145	يرتدد	-0.077964544
-4.5883145	دينه	-0.077964544
-4.5883145	فيمت	-0.077964544
-4.0387535	حبطت	-0.5351863
-4.151696	والآخرة	-0.09153994
-4.304746	هاجروا	-0.077964544
-3.874999	وجاهدوا	-0.23615961
-4.304746	يرجون	-0.077964544
-3.9492035	رحمت	-0.34391046
-4.304746	الخمر	-0.3133375
-4.5883145	والميسر	-0.077964544
-4.0387535	فيهما	-0.16378684
-4.304746	ومنافع	-0.15582757
-4.5883145	وإثمهما	-0.077964544
-4.5883145	نفعهما	-0.077964544
-4.304746	ويسألونك	-0.15582757
-4.4276314	العفو	-0.077964544
-4.4276314	تتفكرون	-0.20070848
-4.0387535	اليتامي	-0.077964544
-4.4276314	إصلاح	-0.077964544
-4.5883145	تخالطوهم	-0.077964544
-4.304746	فإخوانكم	-0.15582757
-4.5883145	المفسد	-0.077964544
-4.5883145	المصلح	-0.077964544
-4.5883145	لأعنتكم	-0.077964544
-4.4276314	تنكحوا	-0.077964544
-4.5883145	المشركات	-0.077964544
-3.4649613	يؤمن	-0.33384135
-4.5883145	ولأمة	-0.077964544
-4.151696	مؤمنة	-0.077964544
-4.4276314	مشركة	-0.077964544
-4.4276314	أعجبتكم	-0.077964544
-4.5883145	ولعبد	-0.077964544
-4.0387535	مؤمن	-0.077964544
-4.4276314	مشرك	-0.077964544
-4.5883145	أعجبكم	-0.077964544
-3.4923413	يدعون	-0.35760587
-3.9492035	يدعو	-0.109641746
-4.5883145	والمغفرة	-0.077964544
-4.4276314	ويبين	-0.077964544
-4.5883145	يتذكرون	-0.077964544
-4.304746	المحيض	-0.077964544
-4.5883145	فاعتزلوا	-0.077964544
-3.5528967	النساء	-0.088790685
-4.5883145	تقربوهن	-0.077964544
-4.5883145	يطهرن	-0.077964544
-4.5883145	تطهرن	-0.077964544
-4.5883145	فأتوهن	-0.077964544
-4.151696	أمركم	-0.077964544
-4.5883145	التوابين	-0.077964544
-4.5883145	ويحب	-0.077964544
-4.5883145	المتطهرين	-0.077964544
-4.5883145	نساؤكم	-0.077964544
-4.304746	حرث	-0.077964544
-4.4276314	حرثكم	-0.077964544
-3.3103266	أني	-0.12646995
-4.5883145	وقدموا	-0.077964544
-4.5883145	ملاقوه	-0.077964544
-3.1182215	المؤمنين	-0.24130982
-4.5883145	عرضة	-0.077964544
-4.5883145	لأيمانكم	-0.077964544
-4.5883145	تبروا	-0.077964544
-4.0387535	وتتقوا	-0.15208478
-4.5883145	وتصلحوا	-0.077964544
-4.4276314	يؤاخذكم	-0.077964544
-4.4276314	باللغو	-0.077964544
-3.8116424	أيمانكم	-0.094733894
-3.874999	حليم	-0.6813143
-4.5883145	يؤلون	-0.077964544
-4.5883145	نسائهم	-0.077964544
-4.5883145	تربص	-0.077964544
-3.874999	أربعة	-0.16378684
-4.5883145	فاءوا	-0.077964544
-4.5883145	عزموا	-0.077964544
-4.4276314	الطلاق	-0.077964544
-4.5883145	والمطلقات	-0.077964544
-4.4276314	يتربصن	-0.20070848
-4.5883145	بأنفسهن	-0.077964544
-4.5883145	قروء	-0.077964544
-4.304746	يحل	-0.122989215
-4.5883145	يكتمن	-0.077964544
-4.5883145	أرحامهن	-0.077964544
-4.5883145	وبعولتهن	-0.077964544
-3.6632786	أحق	-0.23034643
-4.5883145	بردهن	-0.077964544
-4.304746	أرادوا	-0.077964544
-4.4276314	إصلاحا	-0.077964544
-4.4276314	ولهن	-0.077964544
-3.6632786	عليهن	-0.0978537
-4.5883145	وللرجال	-0.077964544
-4.304746	درجة	-0.077964544
-4.5883145	مرتان	-0.077964544
-4.5883145	فإمساك	-0.077964544
-4.0387535	بمعروف	-0.122989215
-4.5883145	تسريح	-0.077964544
-4.4276314	تأخذوا	-0.077964544
-4.304746	آتيتموهن	-0.077964544
-4.5883145	يخافا	-0.077964544
-4.4276314	يقيما	-0.20070848
-4.304746	خفتم	-0.115153395
-4.151696	عليهما	-0.077964544
-4.5883145	افتدت	-0.077964544
-4.5883145	تعتدوها	-0.077964544
-4.5883145	يتعد	-0.077964544
-3.5866666	الظالمون	-0.23464231
-4.5883145	طلقها	-0.077964544
-4.4276314	تحل	-0.077964544
-4.5883145	تنكح	-0.077964544
-4.5883145	زوجا	-0.077964544
-4.151696	غيره	-0.077964544
-4.5883145	يتراجعا	-0.077964544
-4.4276314	ظنا	-0.077964544
-4.0387535	وتلك	-0.15310234
-4.5883145	يبينها	-0.077964544
-4.304746	طلقتم	-0.3133375
-4.5883145	فبلغن	-0.077964544
-4.304746	أجلهن	-0.1732274
-4.4276314	فأمسكوهن	-0.077964544
-4.5883145	سرحوهن	-0.077964544
-4.5883145	تمسكوهن	-0.077964544
-4.4276314	ضرارا	-0.077964544
-4.5883145	لتعتدوا	-0.077964544
-4.304746	ظلم	-0.077964544
-4.0387535	تتخذوا	-0.094733894
-3.9492035	نعمت	-0.6143675
-4.151696	يعظكم	-0.1350145
-4.4276314	تعضلوهن	-0.077964544
-4.5883145	ينكحن	-0.077964544
-4.5883145	أزواجهن	-0.077964544
-4.5883145	تراضوا	-0.077964544
-4.4276314	يوعظ	-0.20070848
-4.151696	أزكي	-0.1350145
-4.5883145	وأطهر	-0.077964544
-4.5883145	والوالدات	-0.077964544
-4.5883145	يرضعن	-0.077964544
-4.4276314	أولادهن	-0.077964544
-4.5883145	حولين	-0.077964544
-4.5883145	كاملين	-0.077964544
-4.4276314	يتم	-0.077964544
-4.4276314	الرضاعة	-0.077964544
-4.5883145	المولود	-0.077964544
-4.5883145	رزقهن	-0.077964544
-4.5883145	وكسوتهن	-0.077964544
-4.5883145	تكلف	-0.077964544
-4.5883145	وسعها	-0.077964544
-4.5883145	تضار	-0.077964544
-4.5883145	والدة	-0.077964544
-4.5883145	بولدها	-0.077964544
-4.5883145	مولود	-0.077964544
-4.5883145	بولده	-0.077964544
-4.5883145	الوارث	-0.077964544
-4.5883145	أرادا	-0.077964544
-4.5883145	فصالا	-0.077964544
-4.5883145	تراض	-0.077964544
-4.5883145	وتشاور	-0.077964544
-4.4276314	أردتم	-0.15582757
-4.5883145	تسترضعوا	-0.077964544
-4.151696	أولادكم	-0.077964544
-4.5883145	سلمتم	-0.077964544
-4.4276314	آتيتم	-0.077964544
-4.5883145	يتوفون	-0.077964544
-4.4276314	ويذرون	-0.077964544
-3.7563627	أزواجا	-0.07796451
-4.5883145	وعشرا	-0.077964544
-4.5883145	بلغن	-0.077964544
-4.4276314	فعلن	-0.20070848
-4.5883145	أنفسهن	-0.077964544
-3.7073314	خبير	-0.42575487
-4.5883145	عرضتم	-0.077964544
-4.5883145	خطبة	-0.077964544
-4.5883145	أكننتم	-0.077964544
-4.5883145	ستذكرونهن	-0.077964544
-4.5883145	تواعدوهن	-0.077964544
-4.151696	سرا	-0.1350145
-4.304746	معروفا	-0.077964544
-4.5883145	تعزموا	-0.077964544
-4.304746	عقدة	-0.15582757
-4.4276314	النكاح	-0.077964544
-4.4276314	أجله	-0.077964544
-4.5883145	فاحذروه	-0.077964544
-4.4276314	تمسوهن	-0.077964544
-4.5883145	تفرضوا	-0.077964544
-4.151696	فريضة	-0.122989215
-4.5883145	ومتعوهن	-0.077964544
-4.5883145	الموسع	-0.077964544
-4.304746	قدره	-0.077964544
-4.5883145	المقتر	-0.077964544
-3.9492035	متاعا	-0.115153395
-4.4276314	طلقتموهن	-0.20070848
-4.4276314	فرضتم	-0.077964544
-4.5883145	فنصف	-0.077964544
-4.5883145	يعفون	-0.077964544
-4.4276314	يعفو	-0.077964544
-4.304746	بيده	-0.122989215
-4.304746	تعفوا	-0.077964544
-3.9492035	أقرب	-0.10555342
-4.304746	للتقوي	-0.077964544
-4.5883145	تنسوا	-0.077964544
-4.5883145	حافظوا	-0.077964544
-4.5883145	الصلوات	-0.077964544
-4.5883145	الوسطي	-0.077964544
-4.5883145	وقوموا	-0.077964544
-4.5883145	قانتين	-0.077964544
-4.5883145	فرجالا	-0.077964544
-4.5883145	ركبانا	-0.077964544
-4.304746	علمكم	-0.077964544
-4.304746	وصية	-0.077964544
-4.5883145	لأزواجهم	-0.077964544
-4.5883145	الحول	-0.077964544
-4.5883145	إخراج	-0.077964544
-4.5883145	خرجن	-0.077964544
-4.0387535	معروف	-0.077964544
-4.5883145	وللمطلقات	-0.077964544
-3.6232855	متاع	-0.19289377
-4.5883145	تر	-0.077964544
-4.0387535	خرجوا	-0.20350471
-4.5883145	ألوف	-0.077964544
-4.4276314	موتوا	-0.077964544
-4.5883145	أحياهم	-0.077964544
-4.151696	لذو	-0.122989215
-3.5866666	أكثر	-0.13587105
-4.151696	يشكرون	-0.43827623
-3.6632786	ذا	-0.115153395
-4.5883145	يقرض	-0.077964544
-4.5883145	قرضا	-0.077964544
-4.5883145	فيضاعفه	-0.077964544
-4.4276314	أضعافا	-0.077964544
-3.7073314	كثيرة	-0.0978537
-4.5883145	يقبض	-0.077964544
-4.5883145	ويبسط	-0.077964544
-3.4392054	وإليه	-0.2964124
-4.5883145	الملإ	-0.077964544
-4.4276314	لنبي	-0.077964544
-4.5883145	ابعث	-0.077964544
-3.874999	ملكا	-0.077964544
-4.4276314	نقاتل	-0.20070848
-4.4276314	عسيتم	-0.20070848
-4.4276314	تقاتلوا	-0.077964544
-4.151696	أخرجنا	-0.115153395
-4.5883145	ديارنا	-0.077964544
-4.5883145	وأبنائنا	-0.077964544
-4.5883145	نبيهم	-0.077964544
-4.304746	بعث	-0.077964544
-4.4276314	طالوت	-0.077964544
-3.4649613	الملك	-0.095418304
-4.5883145	بالملك	-0.077964544
-3.1182215	ولم	-0.12738274
-4.151696	يؤت	-0.077964544
-4.4276314	سعة	-0.20070848
-4.5883145	اصطفاه	-0.077964544
-4.5883145	وزاده	-0.077964544
-4.4276314	بسطة	-0.077964544
-4.5883145	والجسم	-0.077964544
-4.151696	يؤتي	-0.077964544
-4.304746	ملكه	-0.077964544
-4.151696	يأتيكم	-0.109641746
-4.4276314	التابوت	-0.077964544
-4.5883145	سكينة	-0.077964544
-4.5883145	وبقية	-0.077964544
-4.304746	وآل	-0.077964544
-3.6632786	هارون	-0.09616103
-4.4276314	تحمله	-0.077964544
-4.5883145	لآية	-0.077964544
-4.151696	فصل	-0.077964544
-4.5883145	بالجنود	-0.077964544
-4.5883145	مبتليكم	-0.077964544
-4.5883145	بنهر	-0.077964544
-4.0387535	شرب	-0.077964544
-3.874999	فليس	-0.109641746
-4.4276314	يطعمه	-0.077964544
-4.5883145	اغترف	-0.077964544
-4.5883145	غرفة	-0.077964544
-4.5883145	فشربوا	-0.077964544
-4.5883145	جاوزه	-0.077964544
-4.5883145	طاقة	-0.077964544
-3.1427875	اليوم	-0.10791706
-4.5883145	بجالوت	-0.077964544
-3.9492035	وجنوده	-0.077964544
-3.9492035	فئة	-0.109641746
-4.5883145	قليلة	-0.077964544
-4.304746	غلبت	-0.077964544
-4.4276314	برزوا	-0.077964544
-4.5883145	لجالوت	-0.077964544
-4.4276314	أفرغ	-0.077964544
-4.151696	صبرا	-0.122989215
-4.4276314	وثبت	-0.20070848
-4.4276314	أقدامنا	-0.077964544
-4.5883145	وانصرنا	-0.077964544
-3.3491862	القوم	-0.25120795
-4.5883145	فهزموهم	-0.077964544
-4.5883145	وقتل	-0.077964544
-3.6232855	داوود	-0.094733894
-4.5883145	جالوت	-0.077964544
-4.5883145	وآتاه	-0.077964544
-4.5883145	وعلمه	-0.077964544
-3.6632786	ولولا	-0.24080156
-4.5883145	دفع	-0.077964544
-4.4276314	لفسدت	-0.077964544
-4.5883145	نتلوها	-0.077964544
-3.0949712	عليك	-0.17732722
-4.151696	وإنك	-0.077964544
-3.4923413	المرسلين	-0.79620814
-3.5528967	الرسل	-0.077964544
-4.0387535	فضلنا	-0.1732274
-4.4276314	كلم	-0.077964544
-4.304746	ورفع	-0.077964544
-3.7563627	درجات	-0.09989366
-4.5883145	اقتتل	-0.077964544
-4.5883145	بعدهم	-0.077964544
-3.6632786	فمنهم	-0.36008152
-4.4276314	اقتتلوا	-0.077964544
-3.874999	أنفقوا	-0.15310234
-4.4276314	بيع	-0.077964544
-4.5883145	خلة	-0.077964544
-4.304746	والكافرون	-0.077964544
-4.0387535	الحي	-0.10240003
-4.4276314	القيوم	-0.077964544
-4.5883145	تأخذه	-0.077964544
-4.5883145	نوم	-0.077964544
-4.304746	يشفع	-0.15582757
-4.304746	خلفهم	-0.09989366
-4.5883145	يحيطون	-0.077964544
-4.304746	علمه	-0.077964544
-4.151696	وسع	-0.077964544
-4.4276314	كرسيه	-0.077964544
-4.5883145	يئوده	-0.077964544
-4.5883145	حفظهما	-0.077964544
-4.0387535	العلي	-0.22748065
-4.5883145	إكراه	-0.077964544
-4.304746	الرشد	-0.077964544
-4.304746	الغي	-0.077964544
-4.5883145	بالطاغوت	-0.077964544
-4.4276314	ويؤمن	-0.077964544
-4.5883145	استمسك	-0.077964544
-4.5883145	بالعروة	-0.077964544
-4.5883145	الوثقي	-0.077964544
-4.5883145	انفصام	-0.077964544
-4.5883145	يخرجهم	-0.077964544
-3.9492035	الظلمات	-0.10555342
-4.151696	النور	-0.077964544
-4.4276314	أولياؤهم	-0.077964544
-3.9492035	الطاغوت	-0.077964544
-4.5883145	يخرجونهم	-0.077964544
-4.5883145	حاج	-0.077964544
-4.4276314	آتاه	-0.20070848
-2.9682443	ربي	-0.12081746
-4.5883145	ويميت	-0.077964544
-3.155612	أنا	-0.11321261
-4.5883145	أحيي	-0.077964544
-4.5883145	وأميت	-0.077964544
-4.5883145	بالشمس	-0.077964544
-4.151696	فأت	-0.1350145
-4.5883145	المغرب	-0.077964544
-4.5883145	فبهت	-0.077964544
-4.0387535	كالذي	-0.077964544
-4.151696	مر	-0.077964544
-3.7563627	قرية	-0.10388109
-3.7073314	وهي	-0.16138376
-4.151696	خاوية	-0.1350145
-4.5883145	عروشها	-0.077964544
-4.5883145	فأماته	-0.077964544
-3.874999	مائة	-0.10555342
-4.304746	عام	-0.077964544
-4.5883145	بعثه	-0.077964544
-4.151696	لبثت	-0.077964544
-3.6632786	فانظر	-0.4795379
-4.5883145	طعامك	-0.077964544
-4.5883145	وشرابك	-0.077964544
-4.5883145	يتسنه	-0.077964544
-4.304746	وانظر	-0.3133375
-4.5883145	حمارك	-0.077964544
-4.5883145	ولنجعلك	-0.077964544
-4.304746	العظام	-0.077964544
-4.5883145	ننشزها	-0.077964544
-4.5883145	نكسوها	-0.077964544
-4.151696	لحما	-0.1350145
-4.5883145	أرني	-0.077964544
-4.5883145	تحيي	-0.077964544
-3.6632786	أولم	-0.088790685
-4.304746	تؤمن	-0.077964544
-4.5883145	ليطمئن	-0.077964544
-4.5883145	قلبي	-0.077964544
-4.304746	فخذ	-0.077964544
-3.8116424	الطير	-0.077964544
-4.5883145	فصرهن	-0.077964544
-4.304746	جبل	-0.077964544
-3.874999	منهن	-0.077964544
-4.4276314	جزءا	-0.077964544
-4.5883145	ادعهن	-0.077964544
-4.5883145	يأتينك	-0.077964544
-4.5883145	سعيا	-0.077964544
-4.5883145	واعلم	-0.077964544
-3.7073314	أموالهم	-0.15452512
-4.151696	حبة	-0.077964544
-4.5883145	أنبتت	-0.077964544
-4.5883145	سنابل	-0.077964544
-4.5883145	سنبلة	-0.077964544
-4.0387535	يضاعف	-0.122989215
-4.0387535	يتبعون	-0.077964544
-3.7073314	قول	-0.09616103
-4.0387535	ومغفرة	-0.122989215
-4.5883145	يتبعها	-0.077964544
-4.304746	غني	-0.115153395
-4.4276314	تبطلوا	-0.077964544
-4.5883145	صدقاتكم	-0.077964544
-4.5883145	بالمن	-0.077964544
-4.5883145	والأذي	-0.077964544
-4.151696	ينفق	-0.077964544
-4.0387535	ماله	-0.077964544
-4.4276314	رئاء	-0.20070848
-4.4276314	فمثله	-0.20070848
-4.5883145	صفوان	-0.077964544
-4.4276314	تراب	-0.077964544
-4.5883145	فأصابه	-0.077964544
-4.304746	وابل	-0.077964544
-4.5883145	فتركه	-0.077964544
-4.5883145	صلدا	-0.077964544
-4.4276314	يقدرون	-0.15582757
-4.5883145	وتثبيتا	-0.077964544
-3.6232855	جنة	-0.09351436
-4.5883145	بربوة	-0.077964544
-4.5883145	أصابها	-0.077964544
-4.5883145	فآتت	-0.077964544
-4.151696	أكلها	-0.077964544
-4.304746	ضعفين	-0.077964544
-4.5883145	يصبها	-0.077964544
-4.5883145	فطل	-0.077964544
-4.5883145	أيود	-0.077964544
-4.5883145	نخيل	-0.077964544
-4.5883145	وأعناب	-0.077964544
-4.5883145	وأصابه	-0.077964544
-3.874999	الكبر	-0.077964544
-3.4649613	وله	-0.104730844
-3.8116424	ذرية	-0.13621415
-4.5883145	ضعفاء	-0.077964544
-4.5883145	فأصابها	-0.077964544
-4.5883145	إعصار	-0.077964544
-3.6232855	نار	-0.20308007
-4.5883145	فاحترقت	-0.077964544
-4.5883145	تيمموا	-0.077964544
-3.874999	الخبيث	-0.109641746
-4.4276314	تنفقون	-0.077964544
-4.5883145	ولستم	-0.077964544
-4.5883145	بآخذيه	-0.077964544
-4.5883145	تغمضوا	-0.077964544
-4.151696	حميد	-0.24151213
-4.0387535	يعدكم	-0.077964544
-4.5883145	الفقر	-0.077964544
-4.5883145	ويأمركم	-0.077964544
-4.4276314	بالفحشاء	-0.077964544
-3.9492035	مغفرة	-0.12829274
-4.5883145	وفضلا	-0.077964544
-4.0387535	الحكمة	-0.077964544
-4.4276314	نفقة	-0.077964544
-4.5883145	نذرتم	-0.077964544
-4.5883145	نذر	-0.077964544
-3.8116424	للظالمين	-0.15208478
-4.304746	أنصار	-0.15582757
-4.4276314	تبدوا	-0.077964544
-4.0387535	الصدقات	-0.077964544
-4.5883145	فنعما	-0.077964544
-4.5883145	تخفوها	-0.077964544
-4.5883145	وتؤتوها	-0.077964544
-4.304746	الفقراء	-0.077964544
-4.304746	ويكفر	-0.15582757
-4.4276314	سيئاتكم	-0.077964544
-4.151696	هداهم	-0.077964544
-4.151696	تنفقوا	-0.077964544
-4.5883145	فلأنفسكم	-0.077964544
-4.4276314	يوف	-0.20070848
-3.3491862	إليكم	-0.100669965
-4.4276314	تظلمون	-0.1350145
-4.4276314	للفقراء	-0.077964544
-4.5883145	أحصروا	-0.077964544
-4.0387535	يستطيعون	-0.1187592
-4.4276314	ضربا	-0.077964544
-4.5883145	يحسبهم	-0.077964544
-4.5883145	الجاهل	-0.077964544
-4.304746	أغنياء	-0.077964544
-4.5883145	التعفف	-0.077964544
-4.5883145	تعرفهم	-0.077964544
-4.0387535	بسيماهم	-0.077964544
-4.151696	يسألون	-0.077964544
-4.5883145	إلحافا	-0.077964544
-3.9492035	بالليل	-0.28268594
-4.5883145	وعلانية	-0.077964544
-3.874999	الربا	-0.077964544
-4.5883145	يقومون	-0.077964544
-4.304746	يقوم	-0.077964544
-4.5883145	يتخبطه	-0.077964544
-4.5883145	المس	-0.077964544
-4.304746	البيع	-0.077964544
-4.4276314	وأحل	-0.077964544
-4.304746	وحرم	-0.077964544
-3.9492035	جاءه	-0.109641746
-4.304746	موعظة	-0.15582757
-4.5883145	فانتهي	-0.077964544
-4.304746	سلف	-0.077964544
-4.5883145	وأمره	-0.077964544
-4.5883145	يمحق	-0.077964544
-4.5883145	ويربي	-0.077964544
-4.304746	أثيم	-0.3133375
-3.874999	وأقاموا	-0.6813143
-4.304746	وذروا	-0.077964544
-4.5883145	بقي	-0.077964544
-4.5883145	فأذنوا	-0.077964544
-4.5883145	بحرب	-0.077964544
-3.7563627	ورسوله	-0.09636393
-4.4276314	تبتم	-0.077964544
-4.304746	فلكم	-0.077964544
-4.4276314	رءوس	-0.077964544
-4.5883145	عسرة	-0.077964544
-4.5883145	فنظرة	-0.077964544
-4.5883145	ميسرة	-0.077964544
-4.5883145	تصدقوا	-0.077964544
-4.5883145	توفي	-0.077964544
-4.5883145	تداينتم	-0.077964544
-4.5883145	بدين	-0.077964544
-3.8116424	أجل	-0.15310234
-4.151696	مسمي	-0.077964544
-4.5883145	فاكتبوه	-0.077964544
-4.5883145	وليكتب	-0.077964544
-4.304746	كاتب	-0.077964544
-4.0387535	بالعدل	-0.077964544
-4.5883145	يأب	-0.077964544
-4.4276314	يكتب	-0.077964544
-4.5883145	فليكتب	-0.077964544
-4.5883145	وليملل	-0.077964544
-4.4276314	وليتق	-0.20070848
-4.5883145	يبخس	-0.077964544
-4.5883145	سفيها	-0.077964544
-4.151696	ضعيفا	-0.1350145
-4.4276314	يستطيع	-0.077964544
-4.5883145	يمل	-0.077964544
-4.5883145	فليملل	-0.077964544
-4.5883145	وليه	-0.077964544
-4.5883145	واستشهدوا	-0.077964544
-4.5883145	شهيدين	-0.077964544
-4.5883145	رجالكم	-0.077964544
-4.5883145	يكونا	-0.077964544
-4.151696	رجلين	-0.077964544
-4.5883145	فرجل	-0.077964544
-4.5883145	وامرأتان	-0.077964544
-4.5883145	ترضون	-0.077964544
-4.4276314	الشهداء	-0.077964544
-4.4276314	تضل	-0.077964544
-4.0387535	إحداهما	-0.077964544
-4.5883145	فتذكر	-0.077964544
-4.0387535	الأخري	-0.122989215
-3.7073314	دعوا	-0.21748218
-4.5883145	تسأموا	-0.077964544
-4.5883145	تكتبوه	-0.077964544
-4.4276314	صغيرا	-0.077964544
-3.4923413	كبيرا	-0.60586566
-4.4276314	أقسط	-0.20070848
-4.304746	وأقوم	-0.077964544
-4.5883145	للشهادة	-0.077964544
-4.5883145	وأدني	-0.077964544
-4.5883145	ترتابوا	-0.077964544
-4.0387535	تجارة	-0.077964544
-4.4276314	حاضرة	-0.077964544
-4.5883145	تديرونها	-0.077964544
-4.5883145	تكتبوها	-0.077964544
-4.4276314	وأشهدوا	-0.077964544
-4.5883145	تبايعتم	-0.077964544
-4.5883145	يضار	-0.077964544
-3.9492035	شهيد	-0.20270391
-4.151696	تجدوا	-0.077964544
-4.5883145	كاتبا	-0.077964544
-4.5883145	فرهان	-0.077964544
-4.5883145	مقبوضة	-0.077964544
-4.0387535	أمن	-0.077964544
-4.151696	بعضا	-0.077964544
-4.5883145	فليؤد	-0.077964544
-4.5883145	اؤتمن	-0.077964544
-4.5883145	أمانته	-0.077964544
-4.5883145	تكتموا	-0.077964544
-4.4276314	الشهادة	-0.077964544
-4.5883145	يكتمها	-0.077964544
-4.5883145	آثم	-0.077964544
-4.5883145	تخفوه	-0.077964544
-4.5883145	يحاسبكم	-0.077964544
-4.5883145	فيغفر	-0.077964544
-4.304746	ويعذب	-0.15582757
-3.874999	والمؤمنون	-0.077964544
-4.4276314	وكتبه	-0.077964544
-4.151696	رسله	-0.077964544
-4.304746	وأطعنا	-0.077964544
-4.5883145	غفرانك	-0.077964544
-4.304746	وإليك	-0.15582757
-4.5883145	يكلف	-0.077964544
-4.304746	وعليها	-0.15582757
-4.5883145	اكتسبت	-0.077964544
-4.5883145	تؤاخذنا	-0.077964544
-4.5883145	نسينا	-0.077964544
-4.5883145	أخطأنا	-0.077964544
-4.0387535	تحمل	-0.077964544
-4.5883145	إصرا	-0.077964544
-4.304746	حملته	-0.15582757
-4.5883145	قبلنا	-0.077964544
-4.5883145	تحملنا	-0.077964544
-4.5883145	واعف	-0.077964544
-3.7563627	عنا	-0.077964544
-4.151696	واغفر	-0.24151213
-4.5883145	وارحمنا	-0.077964544
-4.4276314	مولانا	-0.077964544
-4.5883145	فانصرنا	-0.077964544
-3.7073314	التوراة	-0.21326661
-4.4276314	والإنجيل	-0.109641746
-4.151696	الفرقان	-0.077964544
-4.4276314	انتقام	-0.20070848
-4.4276314	يخفي	-0.1350145
-4.5883145	يصوركم	-0.077964544
-4.304746	الأرحام	-0.122989215
-4.5883145	محكمات	-0.077964544
-4.304746	وأخر	-0.077964544
-4.5883145	متشابهات	-0.077964544
-4.5883145	زيغ	-0.077964544
-4.4276314	فيتبعون	-0.077964544
-3.9492035	الفتنة	-0.077964544
-4.4276314	وابتغاء	-0.077964544
-4.0387535	تأويله	-0.077964544
-4.5883145	والراسخون	-0.077964544
-4.5883145	تزغ	-0.077964544
-4.5883145	هديتنا	-0.077964544
-4.304746	وهب	-0.15582757
-4.5883145	لدنك	-0.077964544
-3.3293219	رحمة	-0.26394266
-4.4276314	الوهاب	-0.20070848
-4.304746	جامع	-0.077964544
-3.874999	ليوم	-0.10555342
-4.151696	الميعاد	-0.24151213
-4.151696	تغني	-0.077964544
-4.304746	أولادهم	-0.077964544
-4.5883145	وقود	-0.077964544
-4.5883145	كدأب	-0.077964544
-3.5215645	كذبوا	-0.18108192
-3.8116424	فأخذهم	-0.23615961
-4.151696	بذنوبهم	-0.077964544
-4.5883145	ستغلبون	-0.077964544
-4.5883145	وتحشرون	-0.077964544
-4.4276314	فئتين	-0.077964544
-4.5883145	التقتا	-0.077964544
-4.5883145	تقاتل	-0.077964544
-4.4276314	وأخري	-0.077964544
-4.5883145	كافرة	-0.077964544
-4.5883145	يرونهم	-0.077964544
-4.5883145	مثليهم	-0.077964544
-3.7563627	رأي	-0.077964544
-4.5883145	العين	-0.077964544
-4.5883145	يؤيد	-0.077964544
-4.304746	بنصره	-0.077964544
-4.4276314	لعبرة	-0.077964544
-4.0387535	لأولي	-0.28268594
-3.8116424	الأبصار	-0.26069587
-4.4276314	حب	-0.077964544
-4.304746	الشهوات	-0.077964544
-4.5883145	والبنين	-0.077964544
-4.5883145	والقناطير	-0.077964544
-4.5883145	المقنطرة	-0.077964544
-4.4276314	الذهب	-0.20070848
-4.5883145	والفضة	-0.077964544
-4.4276314	والخيل	-0.077964544
-4.5883145	المسومة	-0.077964544
-3.9492035	والأنعام	-0.077964544
-4.5883145	والحرث	-0.077964544
-4.4276314	حسن	-0.077964544
-4.5883145	المآب	-0.077964544
-4.5883145	أؤنبئكم	-0.077964544
-4.5883145	وأزواج	-0.077964544
-4.151696	ورضوان	-0.122989215
-4.304746	إننا	-0.077964544
-4.0387535	فاغفر	-0.20350471
-4.5883145	ذنوبنا	-0.077964544
-4.4276314	والصادقين	-0.077964544
-4.4276314	والقانتين	-0.077964544
-4.5883145	والمنفقين	-0.077964544
-4.5883145	والمستغفرين	-0.077964544
-4.5883145	بالأسحار	-0.077964544
-4.151696	وأولو	-0.1350145
-4.151696	قائما	-0.077964544
-3.6632786	بالقسط	-0.14066233
-4.151696	الإسلام	-0.1350145
-4.5883145	حاجوك	-0.077964544
-3.4923413	فقل	-0.09001042
-4.4276314	وجهي	-0.077964544
-4.5883145	اتبعن	-0.077964544
-3.7563627	وقل	-0.12507495
-4.5883145	والأميين	-0.077964544
-4.5883145	أأسلمتم	-0.077964544
-4.151696	أسلموا	-0.077964544
-4.304746	البلاغ	-0.20270391
-4.4276314	يأمرون	-0.077964544
-4.304746	فبشرهم	-0.3133375
-3.7563627	بعذاب	-0.21748218
-4.5883145	ناصرين	-0.077964544
-3.9492035	نصيبا	-0.15582757
-4.4276314	يتولي	-0.077964544
-4.5883145	وغرهم	-0.077964544
-3.8116424	دينهم	-0.077964544
-3.9492035	يفترون	-0.3133375
-3.8116424	فكيف	-0.40174565
-4.5883145	جمعناهم	-0.077964544
-4.4276314	ووفيت	-0.20070848
-4.151696	اللهم	-0.077964544
-4.4276314	تؤتي	-0.077964544
-4.4276314	تشاء	-0.077964544
-4.5883145	وتنزع	-0.077964544
-4.5883145	وتعز	-0.077964544
-4.5883145	وتذل	-0.077964544
-4.4276314	بيدك	-0.077964544
-3.7563627	الخير	-0.077964544
-4.5883145	تولج	-0.077964544
-3.4923413	النهار	-0.08936802
-4.5883145	وتولج	-0.077964544
-4.4276314	وتخرج	-0.077964544
-4.151696	الميت	-0.17989692
-4.5883145	وترزق	-0.077964544
-3.6232855	المؤمنون	-0.12206189
-3.4392054	أولياء	-0.13137174
-4.4276314	تتقوا	-0.077964544
-4.5883145	تقاة	-0.077964544
-4.4276314	ويحذركم	-0.20070848
-4.5883145	تخفوا	-0.077964544
-4.5883145	صدوركم	-0.077964544
-4.5883145	تبدوه	-0.077964544
-3.6632786	ويعلم	-0.44313833
-4.0387535	تجد	-0.115153395
-4.304746	عملت	-0.122989215
-4.5883145	محضرا	-0.077964544
-4.5883145	تود	-0.077964544
-4.4276314	بينها	-0.077964544
-4.304746	وبينه	-0.077964544
-4.304746	أمدا	-0.15582757
-4.304746	بعيدا	-0.15582757
-3.9492035	تحبون	-0.077964544
-4.4276314	فاتبعوني	-0.077964544
-4.5883145	يحببكم	-0.077964544
-3.8116424	ويغفر	-0.35598817
-4.4276314	ذنوبكم	-0.077964544
-4.4276314	أطيعوا	-0.20070848
-4.151696	والرسول	-0.10240003
-4.304746	ونوحا	-0.077964544
-4.304746	عمران	-0.077964544
-4.304746	بعضها	-0.077964544
-3.5528967	قالت	-0.15186593
-4.0387535	امرأت	-0.15582757
-4.5883145	نذرت	-0.077964544
-4.5883145	بطني	-0.077964544
-4.5883145	محررا	-0.077964544
-4.4276314	فتقبل	-0.077964544
-4.4276314	وضعتها	-0.077964544
-4.151696	أنثي	-0.077964544
-4.5883145	وضعت	-0.077964544
-3.4923413	الذكر	-0.09072953
-4.5883145	كالأنثي	-0.077964544
-3.7563627	وإني	-0.07796451
-4.5883145	سميتها	-0.077964544
-4.5883145	أعيذها	-0.077964544
-3.8116424	بك	-0.077964544
-4.5883145	وذريتها	-0.077964544
-4.5883145	الرجيم	-0.077964544
-4.5883145	فتقبلها	-0.077964544
-3.874999	ربها	-0.077964544
-4.5883145	بقبول	-0.077964544
-4.5883145	وأنبتها	-0.077964544
-4.4276314	نباتا	-0.077964544
-4.5883145	وكفلها	-0.077964544
-4.0387535	زكريا	-0.077964544
-4.4276314	دخل	-0.077964544
-4.151696	المحراب	-0.077964544
-4.151696	وجد	-0.077964544
-4.304746	عندها	-0.077964544
-4.0387535	هنالك	-0.077964544
-4.151696	دعا	-0.077964544
-4.4276314	هب	-0.077964544
-3.8116424	طيبة	-0.077964544
-4.304746	الدعاء	-0.15582757
-4.5883145	فنادته	-0.077964544
-4.304746	قائم	-0.077964544
-4.4276314	يصلي	-0.077964544
-4.5883145	يبشرك	-0.077964544
-4.5883145	بيحيي	-0.077964544
-4.4276314	بكلمة	-0.077964544
-4.5883145	وسيدا	-0.077964544
-4.5883145	وحصورا	-0.077964544
-4.5883145	ونبيا	-0.077964544
-4.4276314	غلام	-0.077964544
-4.5883145	بلغني	-0.077964544
-4.5883145	وامرأتي	-0.077964544
-4.5883145	عاقر	-0.077964544
-4.5883145	آيتك	-0.077964544
-4.304746	تكلم	-0.15582757
-4.5883145	رمزا	-0.077964544
-4.151696	واذكر	-0.16138376
-4.0387535	وسبح	-0.20350471
-4.151696	بالعشي	-0.1350145
-4.5883145	والإبكار	-0.077964544
-4.5883145	اصطفاك	-0.077964544
-4.5883145	وطهرك	-0.077964544
-4.5883145	واصطفاك	-0.077964544
-4.0387535	نساء	-0.077964544
-4.5883145	اقنتي	-0.077964544
-4.4276314	لربك	-0.077964544
-4.5883145	واسجدي	-0.077964544
-4.5883145	واركعي	-0.077964544
-4.304746	أنباء	-0.17989692
-3.6632786	الغيب	-0.09153994
-4.5883145	نوحيه	-0.077964544
-4.304746	لديهم	-0.077964544
-4.304746	يلقون	-0.077964544
-4.5883145	أقلامهم	-0.077964544
-3.9492035	أيهم	-0.115153395
-4.5883145	يكفل	-0.077964544
-4.304746	يختصمون	-0.3133375
-3.7563627	المسيح	-0.29266465
-4.4276314	وجيها	-0.077964544
-4.304746	المقربين	-0.3133375
-4.5883145	ويكلم	-0.077964544
-4.5883145	المهد	-0.077964544
-4.5883145	وكهلا	-0.077964544
-3.7073314	ولد	-0.15452512
-4.5883145	يمسسني	-0.077964544
-3.6632786	بشر	-0.13587105
-3.6632786	يخلق	-0.2501575
-4.5883145	ويعلمه	-0.077964544
-4.5883145	والتوراة	-0.077964544
-4.5883145	ورسولا	-0.077964544
-4.4276314	جئتكم	-0.077964544
-3.6632786	بآية	-0.17760682
-4.5883145	أخلق	-0.077964544
-4.4276314	الطين	-0.077964544
-4.5883145	كهيئة	-0.077964544
-4.5883145	فأنفخ	-0.077964544
-4.304746	طيرا	-0.077964544
-4.5883145	وأبرئ	-0.077964544
-4.4276314	الأكمه	-0.20070848
-4.5883145	والأبرص	-0.077964544
-4.5883145	وأحيي	-0.077964544
-4.5883145	وأنبئكم	-0.077964544
-3.9492035	تأكلون	-0.24684373
-4.5883145	تدخرون	-0.077964544
-4.151696	بيوتكم	-0.077964544
-4.4276314	ومصدقا	-0.20070848
-4.4276314	يدي	-0.077964544
-4.5883145	ولأحل	-0.077964544
-4.5883145	وجئتكم	-0.077964544
-4.4276314	وأطيعون	-0.20070848
-4.304746	فاعبدوه	-0.077964544
-4.5883145	أحس	-0.077964544
-4.5883145	أنصاري	-0.077964544
-4.5883145	الحواريون	-0.077964544
-4.4276314	واشهد	-0.077964544
-4.4276314	بأنا	-0.20070848
-4.5883145	واتبعنا	-0.077964544
-4.4276314	فاكتبنا	-0.20070848
-4.4276314	الشاهدين	-0.20070848
-4.5883145	ومكروا	-0.077964544
-4.304746	ومكر	-0.077964544
-4.5883145	الماكرين	-0.077964544
-4.5883145	متوفيك	-0.077964544
-4.5883145	ورافعك	-0.077964544
-4.5883145	ومطهرك	-0.077964544
-4.5883145	وجاعل	-0.077964544
-4.5883145	اتبعوك	-0.077964544
-3.5866666	فوق	-0.1187592
-4.0387535	مرجعكم	-0.10555342
-4.5883145	فأحكم	-0.077964544
-4.4276314	تختلفون	-0.077964544
-4.5883145	فأعذبهم	-0.077964544
-3.2578688	عذابا	-0.2995137
-4.0387535	شديدا	-0.077964544
-4.5883145	فيوفيهم	-0.077964544
-4.304746	أجورهم	-0.1350145
-4.5883145	نتلوه	-0.077964544
-4.5883145	والذكر	-0.077964544
-4.151696	خلقه	-0.077964544
-3.8116424	تكن	-0.13568057
-4.5883145	حاجك	-0.077964544
-4.151696	تعالوا	-0.115153395
-4.5883145	ندع	-0.077964544
-4.5883145	أبناءنا	-0.077964544
-4.5883145	وأبناءكم	-0.077964544
-4.5883145	ونساءنا	-0.077964544
-4.5883145	ونساءكم	-0.077964544
-4.5883145	وأنفسنا	-0.077964544
-4.304746	وأنفسكم	-0.077964544
-4.5883145	نبتهل	-0.077964544
-4.5883145	فنجعل	-0.077964544
-4.304746	لعنت	-0.15582757
-4.0387535	الكاذبين	-0.5351863
-3.9492035	لهو	-0.115153395
-4.151696	القصص	-0.077964544
-4.4276314	بالمفسدين	-0.20070848
-3.5866666	كلمة	-0.09351436
-3.5528967	بيننا	-0.19332457
-4.4276314	وبينكم	-0.077964544
-4.304746	نشرك	-0.077964544
-4.304746	بعضنا	-0.077964544
-4.304746	أربابا	-0.15582757
-4.4276314	فقولوا	-0.077964544
-4.5883145	اشهدوا	-0.077964544
-4.4276314	تحاجون	-0.077964544
-4.5883145	ها	-0.077964544
-4.5883145	حاججتم	-0.077964544
-4.5883145	يهوديا	-0.077964544
-4.5883145	نصرانيا	-0.077964544
-4.4276314	مسلما	-0.077964544
-4.5883145	بإبراهيم	-0.077964544
-4.4276314	اتبعوه	-0.077964544
-3.6632786	وهذا	-0.109641746
-3.5215645	النبي	-0.10441557
-4.5883145	ودت	-0.077964544
-3.4649613	طائفة	-0.34300324
-4.5883145	يضلونكم	-0.077964544
-4.4276314	يضلون	-0.077964544
-4.5883145	تلبسون	-0.077964544
-4.5883145	وتكتمون	-0.077964544
-4.5883145	واكفروا	-0.077964544
-4.5883145	آخره	-0.077964544
-3.874999	تؤمنوا	-0.10555342
-4.151696	أوتيتم	-0.1350145
-4.5883145	يحاجوكم	-0.077964544
-4.5883145	بيد	-0.077964544
-4.4276314	يؤتيه	-0.077964544
-4.5883145	تأمنه	-0.077964544
-4.5883145	بقنطار	-0.077964544
-4.4276314	يؤده	-0.20070848
-4.5883145	بدينار	-0.077964544
-4.5883145	دمت	-0.077964544
-4.5883145	الأميين	-0.077964544
-3.4923413	ويقولون	-0.1081506
-4.0387535	الكذب	-0.09616103
-4.304746	أوفي	-0.1350145
-4.5883145	بعهده	-0.077964544
-4.4276314	واتقي	-0.077964544
-4.151696	يشترون	-0.077964544
-4.151696	بعهد	-0.43827623
-4.5883145	وأيمانهم	-0.077964544
-4.151696	ينظر	-0.077964544
-3.1427875	إليهم	-0.09473393
-4.5883145	لفريقا	-0.077964544
-4.5883145	يلوون	-0.077964544
-4.304746	ألسنتهم	-0.077964544
-4.151696	بالكتاب	-0.077964544
-4.5883145	لتحسبوه	-0.077964544
-4.304746	لبشر	-0.077964544
-4.5883145	والحكم	-0.077964544
-4.5883145	والنبوة	-0.077964544
-4.4276314	عبادا	-0.077964544
-4.5883145	ربانيين	-0.077964544
-4.0387535	وبما	-0.122989215
-4.4276314	تدرسون	-0.20070848
-4.5883145	أيأمركم	-0.077964544
-4.151696	بالكفر	-0.077964544
-3.7073314	أخذ	-0.15310234
-4.5883145	آتيتكم	-0.077964544
-4.5883145	وحكمة	-0.077964544
-4.5883145	لتؤمنن	-0.077964544
-4.5883145	ولتنصرنه	-0.077964544
-4.5883145	أأقررتم	-0.077964544
-4.5883145	وأخذتم	-0.077964544
-4.5883145	إصري	-0.077964544
-4.5883145	أقررنا	-0.077964544
-4.5883145	فاشهدوا	-0.077964544
-4.304746	أفغير	-0.24151213
-3.9492035	دين	-0.09989366
-4.151696	يبغون	-0.077964544
-4.304746	طوعا	-0.15582757
-4.5883145	وكرها	-0.077964544
-4.5883145	والنبيون	-0.077964544
-4.5883145	يبتغ	-0.077964544
-4.304746	دينا	-0.077964544
-3.2578688	قوما	-0.12986572
-4.0387535	إيمانهم	-0.077964544
-4.304746	وشهدوا	-0.15582757
-4.304746	وجاءهم	-0.077964544
-4.304746	جزاؤهم	-0.077964544
-4.5883145	ازدادوا	-0.077964544
-4.304746	كفرا	-0.077964544
-4.5883145	توبتهم	-0.077964544
-4.304746	الضالون	-0.15582757
-4.5883145	ملء	-0.077964544
-4.5883145	ذهبا	-0.077964544
-4.5883145	افتدي	-0.077964544
-4.5883145	تنالوا	-0.077964544
-3.9492035	الطعام	-0.077964544
-4.5883145	حلا	-0.077964544
-4.151696	لبني	-0.43827623
-4.151696	تنزل	-0.077964544
-4.5883145	بالتوراة	-0.077964544
-4.5883145	فاتلوها	-0.077964544
-3.9492035	افتري	-0.28268594
-3.7073314	صدق	-0.11869761
-4.4276314	فاتبعوا	-0.077964544
-4.0387535	بيت	-0.122989215
-4.5883145	وضع	-0.077964544
-4.151696	للذي	-0.077964544
-4.5883145	ببكة	-0.077964544
-4.151696	مباركا	-0.077964544
-3.7563627	للعالمين	-0.5936946
-4.5883145	دخله	-0.077964544
-4.5883145	استطاع	-0.077964544
-3.3918676	سبيلا	-0.5712141
-4.5883145	تصدون	-0.077964544
-4.5883145	تبغونها	-0.077964544
-4.0387535	عوجا	-0.077964544
-4.151696	تطيعوا	-0.077964544
-3.9492035	كافرين	-0.6143675
-4.5883145	وكيف	-0.077964544
-4.0387535	تتلي	-0.24545468
-4.4276314	وفيكم	-0.077964544
-3.874999	رسوله	-0.077964544
-4.5883145	يعتصم	-0.077964544
-4.5883145	تقاته	-0.077964544
-4.151696	واعتصموا	-0.1350145
-4.4276314	بحبل	-0.077964544
-4.304746	تفرقوا	-0.077964544
-4.0387535	أعداء	-0.122989215
-4.5883145	فألف	-0.077964544
-4.4276314	فأصبحتم	-0.077964544
-4.5883145	بنعمته	-0.077964544
-4.4276314	إخوانا	-0.077964544
-4.5883145	شفا	-0.077964544
-4.5883145	حفرة	-0.077964544
-4.5883145	فأنقذكم	-0.077964544
-4.5883145	ولتكن	-0.077964544
-4.304746	ويأمرون	-0.15582757
-4.4276314	وينهون	-0.20070848
-4.304746	المنكر	-0.077964544
-4.151696	كالذين	-0.077964544
-4.5883145	واختلفوا	-0.077964544
-4.5883145	تبيض	-0.077964544
-4.0387535	وجوه	-0.122989215
-4.5883145	وتسود	-0.077964544
-4.5883145	اسودت	-0.077964544
-3.5866666	وجوههم	-0.1281962
-4.5883145	أكفرتم	-0.077964544
-3.8116424	فذوقوا	-0.21748218
-4.5883145	ابيضت	-0.077964544
-4.304746	ففي	-0.077964544
-3.9492035	ظلما	-0.077964544
-4.5883145	أخرجت	-0.077964544
-4.4276314	تأمرون	-0.077964544
-4.5883145	وتنهون	-0.077964544
-4.4276314	وتؤمنون	-0.077964544
-3.9492035	لكان	-0.4176034
-3.9492035	وأكثرهم	-0.077964544
-4.5883145	يضروكم	-0.077964544
-4.5883145	يولوكم	-0.077964544
-4.0387535	الأدبار	-0.20350471
-4.5883145	ضربت	-0.077964544
-4.4276314	ثقفوا	-0.077964544
-4.5883145	وحبل	-0.077964544
-4.5883145	المسكنة	-0.077964544
-4.4276314	الأنبياء	-0.20070848
-4.4276314	ليسوا	-0.077964544
-4.151696	قائمة	-0.077964544
-4.304746	آناء	-0.3133375
-4.151696	يسجدون	-0.24151213
-4.5883145	ويسارعون	-0.077964544
-4.4276314	يفعلوا	-0.077964544
-4.5883145	يكفروه	-0.077964544
-4.5883145	بالمتقين	-0.077964544
-4.151696	ريح	-0.1350145
-4.5883145	صر	-0.077964544
-4.5883145	أصابت	-0.077964544
-4.5883145	فأهلكته	-0.077964544
-4.4276314	ظلمهم	-0.077964544
-4.5883145	بطانة	-0.077964544
-4.5883145	دونكم	-0.077964544
-4.5883145	يألونكم	-0.077964544
-4.4276314	خبالا	-0.077964544
-4.4276314	ودوا	-0.077964544
-4.5883145	عنتم	-0.077964544
-4.4276314	بدت	-0.077964544
-4.5883145	البغضاء	-0.077964544
-4.304746	أفواههم	-0.077964544
-4.4276314	تخفي	-0.077964544
-4.0387535	صدورهم	-0.077964544
-4.4276314	أولاء	-0.077964544
-4.5883145	تحبونهم	-0.077964544
-4.5883145	يحبونكم	-0.077964544
-4.304746	كله	-0.115153395
-4.5883145	لقوكم	-0.077964544
-4.5883145	عضوا	-0.077964544
-4.5883145	الأنامل	-0.077964544
-4.4276314	الغيظ	-0.077964544
-4.5883145	بغيظكم	-0.077964544
-4.5883145	بذات	-0.077964544
-4.304746	الصدور	-0.24151213
-4.5883145	تمسسكم	-0.077964544
-4.5883145	تسؤهم	-0.077964544
-4.5883145	تصبكم	-0.077964544
-4.5883145	يفرحوا	-0.077964544
-4.151696	تصبروا	-0.1350145
-4.4276314	يضركم	-0.077964544
-4.304746	كيدهم	-0.15582757
-4.5883145	غدوت	-0.077964544
-4.151696	أهلك	-0.077964544
-4.5883145	تبوئ	-0.077964544
-4.4276314	مقاعد	-0.077964544
-4.5883145	للقتال	-0.077964544
-4.4276314	همت	-0.077964544
-4.4276314	طائفتان	-0.077964544
-4.5883145	تفشلا	-0.077964544
-4.5883145	وليهما	-0.077964544
-4.4276314	فليتوكل	-0.15582757
-4.304746	نصركم	-0.15582757
-4.5883145	ببدر	-0.077964544
-4.151696	أذلة	-0.077964544
-3.8116424	تقول	-0.077964544
-4.304746	ألن	-0.077964544
-4.5883145	يكفيكم	-0.077964544
-4.5883145	يمدكم	-0.077964544
-4.5883145	بثلاثة	-0.077964544
-4.4276314	آلاف	-0.20070848
-4.4276314	منزلين	-0.20070848
-4.5883145	ويأتوكم	-0.077964544
-4.5883145	فورهم	-0.077964544
-4.5883145	يمددكم	-0.077964544
-4.5883145	بخمسة	-0.077964544
-4.5883145	مسومين	-0.077964544
-4.151696	جعله	-0.077964544
-4.304746	بشري	-0.077964544
-4.4276314	ولتطمئن	-0.077964544
-4.4276314	النصر	-0.20070848
-4.4276314	ليقطع	-0.077964544
-4.5883145	طرفا	-0.077964544
-4.5883145	يكبتهم	-0.077964544
-4.5883145	فينقلبوا	-0.077964544
-4.5883145	خائبين	-0.077964544
-3.874999	يتوب	-0.18500707
-3.9492035	يعذبهم	-0.17989692
-3.874999	فإنهم	-0.077964544
-3.5866666	يغفر	-0.23266715
-4.5883145	مضاعفة	-0.077964544
-3.9492035	وأطيعوا	-0.20270391
-4.4276314	ترحمون	-0.20070848
-4.5883145	وسارعوا	-0.077964544
-4.5883145	وجنة	-0.077964544
-4.5883145	عرضها	-0.077964544
-4.5883145	السراء	-0.077964544
-4.5883145	والكاظمين	-0.077964544
-4.5883145	والعافين	-0.077964544
-4.151696	فعلوا	-0.1350145
-4.4276314	فاحشة	-0.077964544
-4.0387535	ذكروا	-0.115153395
-4.4276314	فاستغفروا	-0.077964544
-4.5883145	لذنوبهم	-0.077964544
-4.5883145	الذنوب	-0.077964544
-4.5883145	يصروا	-0.077964544
-4.0387535	وجنات	-0.115153395
-4.304746	ونعم	-0.077964544
-3.5528967	أجر	-0.16941772
-4.5883145	العاملين	-0.077964544
-4.4276314	سنن	-0.077964544
-4.4276314	فسيروا	-0.20070848
-4.5883145	فانظروا	-0.077964544
-4.0387535	عاقبة	-0.0978537
-4.304746	المكذبين	-0.15582757
-4.5883145	بيان	-0.077964544
-4.4276314	تهنوا	-0.077964544
-4.4276314	تحزنوا	-0.077964544
-4.5883145	الأعلون	-0.077964544
-4.5883145	يمسسكم	-0.077964544
-4.4276314	قرح	-0.077964544
-4.0387535	مس	-0.115153395
-4.4276314	الأيام	-0.077964544
-4.5883145	نداولها	-0.077964544
-4.0387535	وليعلم	-0.1732274
-4.4276314	ويتخذ	-0.077964544
-4.4276314	وليمحص	-0.077964544
-4.5883145	ويمحق	-0.077964544
-4.151696	جاهدوا	-0.077964544
-4.4276314	تمنون	-0.077964544
-4.5883145	تلقوه	-0.077964544
-4.5883145	رأيتموه	-0.077964544
-4.151696	محمد	-0.077964544
-4.4276314	أفإن	-0.077964544
-4.4276314	مات	-0.077964544
-3.7563627	قتل	-0.077964544
-4.4276314	انقلبتم	-0.077964544
-4.5883145	أعقابكم	-0.077964544
-4.5883145	يضر	-0.077964544
-4.5883145	وسيجزي	-0.077964544
-4.304746	الشاكرين	-0.3133375
-4.4276314	لنفس	-0.077964544
-4.4276314	تموت	-0.077964544
-3.6632786	كتابا	-0.09616103
-4.5883145	مؤجلا	-0.077964544
-3.8116424	يرد	-0.14631982
-4.0387535	ثواب	-0.22748065
-4.4276314	نؤته	-0.20070848
-4.5883145	وسنجزي	-0.077964544
-4.5883145	وكأين	-0.077964544
-4.304746	نبي	-0.122989215
-4.5883145	قاتل	-0.077964544
-4.5883145	ربيون	-0.077964544
-4.5883145	وهنوا	-0.077964544
-4.304746	أصابهم	-0.077964544
-4.5883145	ضعفوا	-0.077964544
-4.4276314	استكانوا	-0.077964544
-4.4276314	اغفر	-0.1350145
-4.5883145	وإسرافنا	-0.077964544
-3.7563627	أمرنا	-0.07796451
-4.5883145	فآتاهم	-0.077964544
-4.151696	وحسن	-0.1350145
-4.4276314	فتنقلبوا	-0.20070848
-4.304746	خاسرين	-0.3133375
-4.151696	مولاكم	-0.122989215
-4.5883145	الناصرين	-0.077964544
-4.4276314	سنلقي	-0.077964544
-3.9492035	قلوب	-0.12594701
-4.4276314	الرعب	-0.077964544
-3.874999	سلطانا	-0.15310234
-4.0387535	ومأواهم	-0.2647292
-3.9492035	مثوي	-0.1438125
-4.5883145	صدقكم	-0.077964544
-4.151696	وعده	-0.077964544
-4.5883145	تحسونهم	-0.077964544
-4.5883145	فشلتم	-0.077964544
-4.5883145	وتنازعتم	-0.077964544
-4.5883145	وعصيتم	-0.077964544
-4.304746	أراكم	-0.077964544
-3.9492035	ومنكم	-0.4176034
-4.5883145	صرفكم	-0.077964544
-4.5883145	ليبتليكم	-0.077964544
-4.0387535	عفا	-0.28268594
-4.5883145	تصعدون	-0.077964544
-4.5883145	تلوون	-0.077964544
-4.304746	يدعوكم	-0.077964544
-4.5883145	أخراكم	-0.077964544
-4.5883145	فأثابكم	-0.077964544
-4.5883145	غما	-0.077964544
-4.5883145	بغم	-0.077964544
-4.151696	لكيلا	-0.077964544
-4.4276314	فاتكم	-0.077964544
-4.304746	أصابكم	-0.077964544
-4.4276314	الغم	-0.077964544
-4.4276314	أمنة	-0.077964544
-4.5883145	نعاسا	-0.077964544
-3.8116424	يغشي	-0.1350145
-4.304746	وطائفة	-0.077964544
-4.5883145	أهمتهم	-0.077964544
-3.8116424	ظن	-0.1350145
-4.151696	الجاهلية	-0.077964544
-4.304746	يخفون	-0.077964544
-4.5883145	يبدون	-0.077964544
-4.4276314	قتلنا	-0.077964544
-4.151696	هاهنا	-0.077964544
-4.5883145	لبرز	-0.077964544
-4.5883145	مضاجعهم	-0.077964544
-4.5883145	وليبتلي	-0.077964544
-4.5883145	التقي	-0.077964544
-4.4276314	الجمعان	-0.077964544
-4.5883145	استزلهم	-0.077964544
-4.151696	لإخوانهم	-0.077964544
-4.4276314	ضربوا	-0.077964544
-4.5883145	غزي	-0.077964544
-3.874999	عندنا	-0.077964544
-4.304746	ماتوا	-0.077964544
-4.0387535	قتلوا	-0.115153395
-4.304746	ليجعل	-0.077964544
-4.304746	حسرة	-0.077964544
-4.151696	متم	-0.077964544
-4.5883145	لمغفرة	-0.077964544
-4.5883145	يجمعون	-0.077964544
-4.4276314	لإلي	-0.077964544
-4.151696	فبما	-0.077964544
-4.5883145	لنت	-0.077964544
-4.5883145	فظا	-0.077964544
-4.4276314	غليظ	-0.077964544
-4.5883145	القلب	-0.077964544
-4.5883145	لانفضوا	-0.077964544
-4.5883145	حولك	-0.077964544
-4.4276314	فاعف	-0.20070848
-3.9492035	واستغفر	-0.20270391
-4.5883145	وشاورهم	-0.077964544
-4.5883145	عزمت	-0.077964544
-4.4276314	فتوكل	-0.20070848
-4.5883145	المتوكلين	-0.077964544
-4.151696	ينصركم	-0.1350145
-4.304746	غالب	-0.15582757
-4.5883145	يخذلكم	-0.077964544
-4.5883145	يغل	-0.077964544
-4.5883145	يغلل	-0.077964544
-4.4276314	غل	-0.077964544
-4.304746	أفمن	-0.077964544
-3.8116424	اتبع	-0.077964544
-4.304746	رضوان	-0.3133375
-3.7563627	كمن	-0.10240003
-4.4276314	باء	-0.077964544
-4.5883145	بسخط	-0.077964544
-4.4276314	ومأواه	-0.077964544
-3.4392054	لقد	-0.10940321
-4.4276314	ضلال	-0.16662051
-4.5883145	أولما	-0.077964544
-4.4276314	أصابتكم	-0.20070848
-4.5883145	أصبتم	-0.077964544
-4.5883145	مثليها	-0.077964544
-4.4276314	فبإذن	-0.20070848
-4.5883145	نافقوا	-0.077964544
-3.7563627	وقيل	-0.11591702
-4.151696	قاتلوا	-0.1350145
-4.5883145	ادفعوا	-0.077964544
-4.0387535	نعلم	-0.077964544
-4.5883145	قتالا	-0.077964544
-4.5883145	لاتبعناكم	-0.077964544
-4.5883145	للكفر	-0.077964544
-3.0949712	يومئذ	-0.09380231
-4.304746	للإيمان	-0.077964544
-4.0387535	بأفواههم	-0.077964544
-4.5883145	وقعدوا	-0.077964544
-4.5883145	أطاعونا	-0.077964544
-4.5883145	فادرءوا	-0.077964544
-4.304746	تحسبن	-0.20070848
-4.4276314	يرزقون	-0.077964544
-4.5883145	فرحين	-0.077964544
-4.304746	آتاهم	-0.1732274
-4.5883145	ويستبشرون	-0.077964544
-4.0387535	بالذين	-0.077964544
-4.4276314	يلحقوا	-0.20070848
-4.151696	يستبشرون	-0.24151213
-4.151696	بنعمة	-0.20070848
-4.304746	وفضل	-0.077964544
-4.5883145	يضيع	-0.077964544
-4.151696	استجابوا	-0.1350145
-4.5883145	القرح	-0.077964544
-4.4276314	أحسنوا	-0.077964544
-4.5883145	جمعوا	-0.077964544
-4.5883145	فاخشوهم	-0.077964544
-3.874999	إيمانا	-0.077964544
-4.4276314	حسبنا	-0.077964544
-4.5883145	الوكيل	-0.077964544
-4.5883145	فانقلبوا	-0.077964544
-4.5883145	يمسسهم	-0.077964544
-4.4276314	يخوف	-0.077964544
-4.4276314	أولياءه	-0.077964544
-4.5883145	تخافوهم	-0.077964544
-4.5883145	وخافون	-0.077964544
-4.304746	يحزنك	-0.1732274
-4.0387535	يسارعون	-0.33842218
-4.5883145	يضروا	-0.077964544
-3.5866666	يجعل	-0.20333277
-4.304746	حظا	-0.15582757
-4.5883145	يحسبن	-0.077964544
-3.5528967	أنما	-0.09072953
-4.4276314	نملي	-0.20070848
-4.4276314	لأنفسهم	-0.077964544
-4.4276314	ليزدادوا	-0.077964544
-4.5883145	ليذر	-0.077964544
-4.5883145	يميز	-0.077964544
-4.151696	الطيب	-0.077964544
-4.5883145	ليطلعكم	-0.077964544
-4.5883145	يجتبي	-0.077964544
-4.0387535	فآمنوا	-0.28268594
-4.5883145	يبخلون	-0.077964544
-4.5883145	سيطوقون	-0.077964544
-4.4276314	بخلوا	-0.20070848
-4.5883145	ميراث	-0.077964544
-4.4276314	سمع	-0.20070848
-4.4276314	فقير	-0.077964544
-4.4276314	سنكتب	-0.20070848
-4.4276314	وقتلهم	-0.20070848
-4.4276314	ونقول	-0.077964544
-3.874999	ذوقوا	-0.20270391
-4.5883145	الحريق	-0.077964544
-3.8116424	أيديكم	-0.10555342
-4.304746	بظلام	-0.3133375
-4.5883145	للعبيد	-0.077964544
-4.304746	لرسول	-0.077964544
-4.4276314	يأتينا	-0.077964544
-4.5883145	بقربان	-0.077964544
-4.5883145	تأكله	-0.077964544
-3.8116424	رسل	-0.18500707
-4.5883145	قبلي	-0.077964544
-4.5883145	وبالذي	-0.077964544
-4.5883145	قتلتموهم	-0.077964544
-4.4276314	كذبوك	-0.15582757
-3.4923413	كذب	-0.20277645
-3.9492035	جاءوا	-0.077964544
-4.5883145	والزبر	-0.077964544
-4.4276314	المنير	-0.20070848
-4.5883145	ذائقة	-0.077964544
-4.4276314	وإنما	-0.077964544
-4.5883145	توفون	-0.077964544
-4.4276314	أجوركم	-0.077964544
-4.5883145	زحزح	-0.077964544
-4.4276314	وأدخل	-0.077964544
-4.5883145	فاز	-0.077964544
-4.4276314	الغرور	-0.20070848
-4.5883145	لتبلون	-0.077964544
-4.5883145	ولتسمعن	-0.077964544
-4.304746	عزم	-0.15582757
-4.5883145	لتبيننه	-0.077964544
-4.5883145	تكتمونه	-0.077964544
-4.5883145	فنبذوه	-0.077964544
-4.5883145	واشتروا	-0.077964544
-4.0387535	فبئس	-0.077964544
-4.4276314	يفرحون	-0.20070848
-4.304746	أتوا	-0.15582757
-4.5883145	ويحبون	-0.077964544
-4.5883145	يحمدوا	-0.077964544
-4.5883145	تحسبنهم	-0.077964544
-4.5883145	بمفازة	-0.077964544
-3.874999	يذكرون	-0.26069587
-4.304746	قياما	-0.077964544
-4.5883145	وقعودا	-0.077964544
-4.4276314	جنوبهم	-0.077964544
-4.5883145	ويتفكرون	-0.077964544
-3.9492035	خلقت	-0.077964544
-4.4276314	باطلا	-0.077964544
-4.5883145	فقنا	-0.077964544
-4.5883145	تدخل	-0.077964544
-4.5883145	أخزيته	-0.077964544
-4.5883145	مناديا	-0.077964544
-4.5883145	ينادي	-0.077964544
-4.0387535	بربكم	-0.077964544
-4.4276314	فآمنا	-0.077964544
-4.5883145	سيئاتنا	-0.077964544
-4.4276314	وتوفنا	-0.077964544
-4.304746	الأبرار	-0.1350145
-4.5883145	وآتنا	-0.077964544
-4.5883145	وعدتنا	-0.077964544
-4.5883145	رسلك	-0.077964544
-4.5883145	تخزنا	-0.077964544
-4.5883145	تخلف	-0.077964544
-4.4276314	فاستجاب	-0.077964544
-4.5883145	أضيع	-0.077964544
-3.874999	عمل	-0.09616103
-4.4276314	عامل	-0.077964544
-3.5528967	ذكر	-0.20297031
-3.7073314	فالذين	-0.21748218
-4.5883145	وأخرجوا	-0.077964544
-4.4276314	وأوذوا	-0.077964544
-4.4276314	سبيلي	-0.077964544
-4.4276314	وقتلوا	-0.077964544
-4.4276314	لأكفرن	-0.077964544
-4.304746	سيئاتهم	-0.077964544
-4.5883145	ولأدخلنهم	-0.077964544
-4.304746	ثوابا	-0.15582757
-4.4276314	الثواب	-0.077964544
-4.5883145	يغرنك	-0.077964544
-4.5883145	البلاد	-0.077964544
-3.9492035	قليل	-0.10240003
-4.151696	مأواهم	-0.33842218
-4.4276314	لكن	-0.077964544
-3.9492035	نزلا	-0.15582757
-4.5883145	للأبرار	-0.077964544
-4.304746	خاشعين	-0.077964544
-4.5883145	اصبروا	-0.077964544
-4.5883145	وصابروا	-0.077964544
-4.5883145	ورابطوا	-0.077964544
-4.0387535	وخلق	-0.115153395
-4.4276314	زوجها	-0.077964544
-3.9492035	رجالا	-0.077964544
-4.151696	ونساء	-0.077964544
-4.5883145	تساءلون	-0.077964544
-4.5883145	والأرحام	-0.077964544
-4.4276314	رقيبا	-0.20070848
-4.5883145	تتبدلوا	-0.077964544
-4.5883145	بالطيب	-0.077964544
-4.5883145	حوبا	-0.077964544
-4.5883145	تقسطوا	-0.077964544
-4.5883145	فانكحوا	-0.077964544
-4.5883145	طاب	-0.077964544
-4.304746	مثني	-0.15582757
-4.5883145	وثلاث	-0.077964544
-4.5883145	ورباع	-0.077964544
-4.4276314	تعدلوا	-0.077964544
-4.5883145	فواحدة	-0.077964544
-4.151696	ملكت	-0.27178383
-4.5883145	تعولوا	-0.077964544
-4.5883145	صدقاتهن	-0.077964544
-4.5883145	نحلة	-0.077964544
-4.5883145	طبن	-0.077964544
-4.5883145	فكلوه	-0.077964544
-4.4276314	هنيئا	-0.077964544
-4.5883145	مريئا	-0.077964544
-4.5883145	تؤتوا	-0.077964544
-4.5883145	وارزقوهم	-0.077964544
-4.5883145	واكسوهم	-0.077964544
-4.5883145	وابتلوا	-0.077964544
-4.4276314	بلغوا	-0.077964544
-4.5883145	آنستم	-0.077964544
-3.874999	رشدا	-0.4845502
-4.5883145	فادفعوا	-0.077964544
-4.5883145	تأكلوها	-0.077964544
-4.5883145	إسرافا	-0.077964544
-4.5883145	وبدارا	-0.077964544
-4.5883145	يكبروا	-0.077964544
-4.304746	غنيا	-0.077964544
-4.5883145	فليستعفف	-0.077964544
-4.4276314	فقيرا	-0.077964544
-4.5883145	فليأكل	-0.077964544
-4.5883145	دفعتم	-0.077964544
-4.5883145	فأشهدوا	-0.077964544
-3.4923413	وكفي	-0.37914544
-4.304746	حسيبا	-0.3133375
-4.4276314	للرجال	-0.20070848
-4.5883145	الوالدان	-0.077964544
-4.5883145	والأقربون	-0.077964544
-4.4276314	وللنساء	-0.20070848
-4.5883145	كثر	-0.077964544
-4.5883145	مفروضا	-0.077964544
-4.5883145	القسمة	-0.077964544
-4.5883145	فارزقوهم	-0.077964544
-4.5883145	وليخش	-0.077964544
-4.4276314	تركوا	-0.20070848
-4.5883145	ضعافا	-0.077964544
-4.5883145	خافوا	-0.077964544
-4.5883145	فليتقوا	-0.077964544
-4.4276314	وليقولوا	-0.077964544
-4.5883145	سديدا	-0.077964544
-4.5883145	وسيصلون	-0.077964544
-3.874999	سعيرا	-0.6813143
-4.5883145	يوصيكم	-0.077964544
-4.4276314	للذكر	-0.077964544
-4.304746	حظ	-0.15582757
-4.304746	الأنثيين	-0.077964544
-4.151696	اثنتين	-0.077964544
-4.4276314	فلهن	-0.077964544
-4.5883145	ثلثا	-0.077964544
-4.304746	فلها	-0.077964544
-4.5883145	النصف	-0.077964544
-4.5883145	ولأبويه	-0.077964544
-3.4649613	لكل	-0.15310234
-4.4276314	السدس	-0.077964544
-4.5883145	وورثه	-0.077964544
-4.4276314	أبواه	-0.077964544
-4.4276314	فلأمه	-0.077964544
-4.4276314	الثلث	-0.077964544
-4.151696	إخوة	-0.077964544
-4.5883145	يوصي	-0.077964544
-4.0387535	آباؤكم	-0.122989215
-4.5883145	وأبناؤكم	-0.077964544
-4.5883145	تدرون	-0.077964544
-3.9492035	نفعا	-0.20323732
-3.8116424	عليما	-0.32330978
-4.304746	حكيما	-0.3133375
-4.304746	نصف	-0.3133375
-4.304746	أزواجكم	-0.077964544
-4.4276314	الربع	-0.20070848
-4.4276314	تركن	-0.077964544
-4.5883145	يوصين	-0.077964544
-4.5883145	تركتم	-0.077964544
-4.5883145	الثمن	-0.077964544
-4.5883145	توصون	-0.077964544
-3.8116424	رجل	-0.09616103
-4.5883145	يورث	-0.077964544
-4.5883145	كلالة	-0.077964544
-4.304746	امرأة	-0.077964544
-4.4276314	أخ	-0.077964544
-4.304746	أخت	-0.077964544
-4.5883145	فلكل	-0.077964544
-3.7563627	شركاء	-0.094733894
-4.5883145	مضار	-0.077964544
-4.4276314	يطع	-0.077964544
-4.304746	يدخله	-0.15582757
-3.7073314	وذلك	-0.17685261
-4.151696	الفوز	-0.29442742
-4.5883145	يعص	-0.077964544
-4.5883145	ويتعد	-0.077964544
-4.5883145	حدوده	-0.077964544
-4.4276314	خالدا	-0.20070848
-4.4276314	واللاتي	-0.077964544
-4.151696	يأتين	-0.077964544
-4.151696	الفاحشة	-0.122989215
-4.5883145	فاستشهدوا	-0.077964544
-4.5883145	شهدوا	-0.077964544
-4.5883145	يتوفاهن	-0.077964544
-4.5883145	واللذان	-0.077964544
-4.5883145	يأتيانها	-0.077964544
-4.5883145	فآذوهما	-0.077964544
-4.5883145	تابا	-0.077964544
-4.5883145	وأصلحا	-0.077964544
-4.304746	فأعرضوا	-0.077964544
-4.151696	عنهما	-0.1350145
-4.4276314	توابا	-0.15582757
-4.151696	رحيما	-0.43827623
-4.304746	التوبة	-0.077964544
-3.6232855	السوء	-0.09351436
-4.304746	بجهالة	-0.15582757
-4.304746	يتوبون	-0.077964544
-4.5883145	وليست	-0.077964544
-3.6632786	السيئات	-0.1187592
-4.304746	تبت	-0.1350145
-4.5883145	يموتون	-0.077964544
-4.151696	أعتدنا	-0.15582757
-4.4276314	أليما	-0.122989215
-4.5883145	ترثوا	-0.077964544
-4.151696	كرها	-0.077964544
-4.5883145	لتذهبوا	-0.077964544
-4.304746	بفاحشة	-0.15582757
-4.5883145	مبينة	-0.077964544
-4.5883145	وعاشروهن	-0.077964544
-4.5883145	كرهتموهن	-0.077964544
-4.0387535	فعسي	-0.122989215
-3.8116424	ويجعل	-0.15208478
-4.5883145	استبدال	-0.077964544
-4.304746	زوج	-0.077964544
-3.874999	مكان	-0.077964544
-4.4276314	وآتيتم	-0.077964544
-4.5883145	إحداهن	-0.077964544
-4.5883145	قنطارا	-0.077964544
-4.5883145	أتأخذونه	-0.077964544
-4.151696	بهتانا	-0.24151213
-4.5883145	وإثما	-0.077964544
-3.8116424	مبينا	-0.7393062
-4.5883145	تأخذونه	-0.077964544
-4.5883145	أفضي	-0.077964544
-4.5883145	وأخذن	-0.077964544
-4.4276314	ميثاقا	-0.20070848
-4.5883145	غليظا	-0.077964544
-4.5883145	نكح	-0.077964544
-4.5883145	ومقتا	-0.077964544
-4.304746	وساء	-0.15582757
-4.4276314	حرمت	-0.077964544
-4.151696	أمهاتكم	-0.077964544
-4.5883145	وبناتكم	-0.077964544
-4.4276314	وأخواتكم	-0.077964544
-4.5883145	وعماتكم	-0.077964544
-4.5883145	وخالاتكم	-0.077964544
-3.874999	وبنات	-0.077964544
-4.5883145	الأخ	-0.077964544
-4.5883145	الأخت	-0.077964544
-4.5883145	وأمهاتكم	-0.077964544
-3.874999	اللاتي	-0.077964544
-4.5883145	أرضعنكم	-0.077964544
-4.5883145	وأمهات	-0.077964544
-4.5883145	وربائبكم	-0.077964544
-4.5883145	حجوركم	-0.077964544
-4.304746	دخلتم	-0.15582757
-4.4276314	بهن	-0.077964544
-4.5883145	وحلائل	-0.077964544
-4.5883145	أبنائكم	-0.077964544
-4.5883145	أصلابكم	-0.077964544
-4.5883145	تجمعوا	-0.077964544
-4.5883145	الأختين	-0.077964544
-4.0387535	غفورا	-0.2647292
-4.304746	والمحصنات	-0.3133375
-4.304746	بأموالكم	-0.15582757
-4.4276314	محصنين	-0.20070848
-4.5883145	مسافحين	-0.077964544
-4.5883145	استمتعتم	-0.077964544
-4.4276314	فآتوهن	-0.20070848
-4.151696	أجورهن	-0.077964544
-4.5883145	تراضيتم	-0.077964544
-4.5883145	الفريضة	-0.077964544
-4.5883145	يستطع	-0.077964544
-4.4276314	طولا	-0.077964544
-4.4276314	ينكح	-0.077964544
-4.304746	المحصنات	-0.077964544
-3.874999	المؤمنات	-0.077964544
-4.4276314	فتياتكم	-0.077964544
-4.5883145	بإيمانكم	-0.077964544
-4.5883145	فانكحوهن	-0.077964544
-4.5883145	أهلهن	-0.077964544
-4.5883145	وآتوهن	-0.077964544
-4.5883145	محصنات	-0.077964544
-4.5883145	مسافحات	-0.077964544
-4.5883145	متخذات	-0.077964544
-4.4276314	أخدان	-0.077964544
-4.5883145	أحصن	-0.077964544
-4.5883145	أتين	-0.077964544
-4.5883145	فعليهن	-0.077964544
-4.4276314	خشي	-0.077964544
-4.5883145	العنت	-0.077964544
-4.304746	ليبين	-0.15582757
-4.4276314	ويهديكم	-0.077964544
-4.304746	ويتوب	-0.15582757
-4.304746	ويريد	-0.077964544
-4.4276314	تميلوا	-0.077964544
-4.5883145	ميلا	-0.077964544
-3.6632786	عظيما	-0.87760895
-3.241702	الإنسان	-0.13452697
-4.4276314	تقتلوا	-0.077964544
-4.5883145	عدوانا	-0.077964544
-4.5883145	وظلما	-0.077964544
-3.3491862	فسوف	-0.24056497
-4.5883145	نصليه	-0.077964544
-4.151696	يسيرا	-0.43827623
-4.5883145	تجتنبوا	-0.077964544
-4.4276314	كبائر	-0.077964544
-4.5883145	تنهون	-0.077964544
-3.226116	عنه	-0.090359546
-4.4276314	نكفر	-0.077964544
-4.5883145	وندخلكم	-0.077964544
-4.304746	مدخلا	-0.077964544
